tree
version=v3
num_class=1
num_tree_per_iteration=1
label_index=0
max_feature_idx=4
objective=regression
feature_names=delta_daily_q log_daily_q mean_prior_monthly_q mean_prior_weekly_q season
feature_infos=[-0.73948998606484806:4.8773713458697738] [-7.3267418987340101:-0.32810119399673499] [-7.3267418987340101:-0.99891524418031019] [-7.3267418987340101:-0.69591409519096037] [1:4]
tree_sizes=2661 2843 2837 2838 2844 2832 2830 2858 2848 2838 2861 2838 2843 2851 2852 2858 2842 2872 2855 2888 2892 2875 2908 2878 2869 2881 2878 2881 2905 2897 2872 2869 2892 2882 2868 2871 2878 2894 2901 2906 2853 2881 2870 2914 2870 2922 2833 2858 2872 2878 2857 2864 2865 2848 2847 2868 2862 2837 2894 2902 2882 2883 2867 2861 2857 2867 2852 2878 2862 2842 2875 2896 2840 2884 2878 2883 2890 2853 2840 2868 2882 2877 2893 2867 2870 2872 2852 2846 2865 2838 2883 2875 2881 2865 2889 2887 2856 2861 2884 2861

Tree=0
num_leaves=31
num_cat=0
split_feature=1 0 1 2 2 1 2 2 2 2 1 1 0 3 0 0 4 2 4 1 2 2 2 1 1 3 2 4 4 1
split_gain=191.171 66.8498 40.3184 37.3539 33.3723 25.1915 24.1254 16.2682 12.0715 10.9669 10.42 10.034 8.80131 7.83923 7.57534 6.99698 6.75061 7.97437 5.81142 4.73667 4.68084 4.21006 3.88994 3.85275 3.72742 3.5051 3.46115 3.40833 3.10904 3.034
threshold=-1.3435650145688782 0.29773709293872447 -0.91415809711777041 -1.8009364968921988 -2.7039843263936505 -1.6903971636032462 -1.7965758891675156 -2.611790710006082 -3.4812288739675701 -2.4718205601073913 -2.2859533467138502 -1.10724687844533 0.76323920481258301 -3.4062852187635131 0.11756189778506189 0.1104209243454454 1.5000000000000002 -2.1088228637060289 2.5000000000000004 -1.9798861337944429 -2.3734869174597679 -2.2131015854070752 -1.652497454089739 -1.1675123439632642 -1.9234225944291061 -1.3620252056688369 -1.5983228155805895 1.5000000000000002 1.5000000000000002 -1.9553836699493585
decision_type=2 2 2 2 2 2 2 2 2 2 2 2 2 2 2 2 2 2 2 2 2 2 2 2 2 2 2 2 2 2
left_child=1 4 3 14 8 9 21 13 -1 19 -10 26 -9 -3 -2 -4 29 18 -18 27 -16 -7 -8 -22 -15 -13 -5 -6 -12 -11
right_child=2 7 15 11 5 6 22 12 10 16 28 25 -14 24 20 -17 17 -19 -20 -21 23 -23 -24 -25 -26 -27 -28 -29 -30 -31
leaf_value=1.8305796997961152 1.7869198010294871 1.8535586161018773 1.7981282827522933 1.7722364048361396 1.743431690196027 1.7895679317154354 1.7556212476426669 1.7701389847544349 1.7647455857577248 1.7238475073001855 1.7882425405101881 1.7927806923038254 1.8106441564758711 1.7877348852085095 1.8339362569590754 1.8244423472937696 1.7744106909580879 1.737652165388178 1.7475361881695166 1.7894779018759308 1.7951860574292358 1.7682134032933139 1.741768277607145 1.8138962262730223 1.8192400920493996 1.7751183414450638 1.7583624525830461 1.7634194181257448 1.8311749854095594 1.7407819649539147
leaf_weight=39 279 30 149 328 163 108 319 591 323 338 37 217 59 114 59 314 97 1154 472 42 235 636 556 207 56 233 398 179 31 154
leaf_count=39 279 30 149 328 163 108 319 591 323 338 37 217 59 114 59 314 97 1154 472 42 235 636 556 207 56 233 398 179 31 154
internal_value=1.76601 1.7557 1.78944 1.78316 1.75099 1.74828 1.75807 1.78149 1.77753 1.74218 1.77224 1.7719 1.77382 1.80643 1.80013 1.81597 1.73948 1.74243 1.75212 1.75779 1.80748 1.77131 1.74682 1.80395 1.79811 1.78364 1.76463 1.75389 1.80781 1.72915
internal_weight=0 5498 2419 1956 4648 4218 1619 850 430 2599 391 1176 650 200 780 463 2215 1723 569 384 501 744 875 442 170 450 726 342 68 492
internal_count=7917 5498 2419 1956 4648 4218 1619 850 430 2599 391 1176 650 200 780 463 2215 1723 569 384 501 744 875 442 170 450 726 342 68 492
is_linear=0
shrinkage=1


Tree=1
num_leaves=31
num_cat=0
split_feature=1 0 1 2 2 1 2 2 3 3 1 0 0 3 2 1 1 0 0 2 4 1 0 2 2 0 2 3 2 4
split_gain=154.849 54.2602 33.2058 29.1902 25.2077 21.2321 20.3613 15.6178 10.4229 8.69412 7.64413 7.57506 7.55533 7.04679 6.59563 5.17631 5.06727 4.93427 4.20369 3.48946 3.48351 3.46233 3.02075 2.99165 2.98532 2.96268 2.81007 2.77194 2.60608 2.33348
threshold=-1.3435650145688782 0.25753224116513723 -0.97207019852356202 -1.8009364968921988 -2.7039843263936505 -1.6541008972346678 -1.7965758891675156 -2.5662237097384861 -3.6155700929699637 -2.6481711140569684 -2.2302682704955568 0.11256752774495339 0.76323920481258301 -3.4062852187635131 -2.1187107520184925 -1.9377524056050421 -1.10724687844533 -0.20160372056294959 0.050385119979629363 -2.0681668266521958 3.5000000000000004 -0.88335643491098048 -0.049338897118442297 -1.652497454089739 -1.8107173008250992 -0.018949462463524462 -1.5950891424957485 -1.1619779666246919 -2.5047858441357338 1.5000000000000002
decision_type=2 2 2 2 2 2 2 2 2 2 2 2 2 2 2 2 2 2 2 2 2 2 2 2 2 2 2 2 2 2
left_child=1 4 3 14 8 9 19 13 -1 -6 -10 -4 20 -3 28 -15 26 -11 22 -7 -9 24 -19 -8 -13 -16 -5 -18 -2 -24
right_child=2 7 11 16 5 6 23 12 10 17 -12 21 -14 15 25 -17 27 18 -20 -21 -22 -23 29 -25 -26 -27 -28 -29 -30 -31
leaf_value=0.058142502154805702 0.066830812705955353 0.078792276034752529 0.025657850787579914 0.0054783809724361157 -0.0023095935995192224 0.017617589339280648 -0.0090061554045788288 -0.00015050389779663604 -0.0013634289631696197 0.0077640179004520183 0.04034064123041782 0.053239158012771182 0.039550347797462332 0.016686246309429408 0.0084132205246185716 0.049781234592766219 0.018868160809820983 -0.021061265781790808 -0.018273150508844298 0.0017307496712964229 0.028021030432663543 0.055883012343183214 -0.038346890740114145 -0.021955539116492853 0.026313230022322387 0.027088406649180975 -0.0070016547334868749 -0.0027247493823942467 0.038549256332293912 -0.027424727796475114
leaf_weight=40 39 30 224 335 214 204 278 664 318 50 51 70 57 150 110 69 250 547 840 429 47 251 265 498 100 373 391 78 198 747
leaf_count=40 39 30 224 335 214 204 278 664 318 50 51 70 57 150 110 69 250 547 840 429 47 251 265 498 100 373 391 78 198 747
internal_value=0 -0.0092766 0.0210842 0.0140196 -0.0140093 -0.0163864 -0.00645925 0.0115762 0.00965649 -0.0216388 0.00440055 0.0405148 0.00452008 0.0333398 0.0295397 0.0271134 0.00341757 -0.0233279 -0.0239759 0.00685068 0.00171175 0.0484197 -0.0270486 -0.0173165 0.0374004 0.0228353 -0.00124296 0.0137333 0.0432032 -0.0302848
internal_weight=0 5498 2419 1774 4481 4072 1409 1017 409 2663 369 645 768 249 720 219 1054 2449 2399 633 711 421 1559 776 170 483 726 328 237 1012
internal_count=7917 5498 2419 1774 4481 4072 1409 1017 409 2663 369 645 768 249 720 219 1054 2449 2399 633 711 421 1559 776 170 483 726 328 237 1012
is_linear=0
shrinkage=0.1


Tree=2
num_leaves=31
num_cat=0
split_feature=1 0 1 2 2 1 2 0 2 1 2 1 3 4 4 0 2 1 0 4 4 2 1 3 3 1 2 4 4 2
split_gain=125.813 47.7145 23.7642 21.2778 20.0948 23.5746 16.4248 13.5927 10.6948 10.4313 7.6526 5.12469 5.05561 5.12071 4.51391 4.47688 4.44506 5.40192 4.37347 4.05505 3.58708 3.3725 2.66664 2.62886 2.59031 2.57898 2.48863 2.4553 2.32168 3.41491
threshold=-1.3011385917311535 0.25753224116513723 -0.91415809711777041 -1.8009364968921988 -2.4718205601073913 -1.6903971636032462 -1.8562057018338847 0.76323920481258301 -3.4812288739675701 -2.1602563932819319 -2.611790710006082 -1.10724687844533 -2.6481711140569684 1.5000000000000002 1.5000000000000002 0.1104209243454454 -1.9576704379843834 -2.0645314471736844 0.40818393454365037 1.5000000000000002 3.5000000000000004 -1.652497454089739 -1.1675123439632642 -2.9196918965887426 -1.3620252056688369 -2.0645314471736844 -2.1353264801335672 2.5000000000000004 1.5000000000000002 -1.6945007177659366
decision_type=2 2 2 2 2 2 2 2 2 2 2 2 2 2 2 2 2 2 2 2 2 2 2 2 2 2 2 2 2 2
left_child=1 4 3 18 8 12 -7 10 -1 19 -3 -5 -6 25 -11 -4 17 27 -2 23 28 -8 -20 -10 -13 -14 -19 -15 -12 -30
right_child=2 7 15 11 5 6 21 -9 9 14 20 24 13 16 -16 -17 -18 26 22 -21 -22 -23 -24 -25 -26 -27 -28 -29 29 -31
leaf_value=0.053365057439376154 0.023441644236352914 0.0262630686526245 0.02633919175245468 -1.810452284557027e-05 0.0093286079689860347 0.0065898835999663582 -0.0074900930469018762 0.041891240582053943 -0.00050412491557425725 0.0096965358080342429 -0.0077464732454672674 0.022017125442006073 -0.038750232354077985 -0.0057772874540475373 0.046911440971730785 0.047387644613777966 -0.025591619844715342 0.007361346260837183 0.028981093658447855 0.0024396512513751652 0.02732244819053449 -0.018783082699929836 0.051341975929495777 -0.019997827614072799 0.0068335524405444704 -0.023757991177870249 -0.011729358763613525 -0.023710843559230761 0.0081913349364381906 -0.01316688516953339
leaf_weight=39 453 170 149 589 50 622 471 126 102 80 213 217 259 91 55 314 795 116 101 304 56 603 113 215 233 206 166 474 445 90
leaf_count=39 453 170 149 589 50 622 471 126 102 80 213 217 259 91 55 314 795 116 101 304 56 603 113 215 233 206 166 474 445 90
internal_value=0 -0.00774379 0.0205216 0.0150686 -0.0121761 -0.0151628 -0.00634147 0.0109847 0.00229911 -0.000335248 0.00698655 0.00612057 -0.0220988 -0.0228446 0.0248582 0.040614 -0.0202212 -0.0151804 0.0290072 -0.00581208 0.00291067 -0.0138306 0.0407885 -0.0137254 0.0141554 -0.0321085 -0.00387644 -0.0208224 0.00108306 0.00459836
internal_weight=0 5748 2169 1706 4648 3853 1696 1100 795 756 974 1039 2157 2107 135 463 1642 847 667 621 804 1074 214 317 450 465 282 565 748 535
internal_count=7917 5748 2169 1706 4648 3853 1696 1100 795 756 974 1039 2157 2107 135 463 1642 847 667 621 804 1074 214 317 450 465 282 565 748 535
is_linear=0
shrinkage=0.1


Tree=3
num_leaves=31
num_cat=0
split_feature=1 0 1 2 2 1 2 3 3 1 0 0 3 2 4 2 1 2 1 0 1 1 0 3 2 2 4 2 1 4
split_gain=102.588 36.1035 22.1674 19.3348 18.7598 15.5105 12.3672 9.78934 8.10585 7.68879 6.11176 5.28677 5.00654 4.94566 3.75164 4.62445 5.78451 3.21491 3.21409 2.92981 2.88055 2.85157 2.41838 2.4125 2.33707 2.33346 2.29128 2.27287 2.19681 2.10458
threshold=-1.3435650145688782 0.29773709293872447 -0.99465331449950212 -1.8009364968921988 -2.535569328302993 -1.6903971636032462 -1.7965758891675156 -3.4062852187635131 -3.6155700929699637 -2.0005444901170333 0.76323920481258301 0.11256752774495339 -2.6018911069556734 -2.1187107520184925 1.5000000000000002 -1.9782279841238737 -2.0645314471736844 -2.2855848940754449 -0.71407281844984949 0.13469857389745635 -1.7417540974994856 -2.1805896292249387 0.11756189778506189 -2.8895527723869558 -2.0681668266521958 -2.3734869174597679 1.5000000000000002 -1.5950891424957485 -1.1497227856797683 2.5000000000000004
decision_type=2 2 2 2 2 2 2 2 2 2 2 2 2 2 2 2 2 2 2 2 2 2 2 2 2 2 2 2 2 2
left_child=1 4 3 13 8 12 24 -3 -1 23 17 -4 -6 -2 21 16 29 20 -13 -5 -9 -14 -15 -10 -7 -18 -22 -8 -21 -16
right_child=2 7 11 19 5 6 27 10 9 -11 -12 18 14 22 15 -17 25 -19 -20 28 26 -23 -24 -25 -26 -27 -28 -29 -30 -31
leaf_value=0.047913794899359347 0.035820680994884634 0.067505334131419667 0.020512940688840974 -0.0024617828131323228 0.00080169387411598762 0.011629976389693705 -0.0088893990487105123 0.007746693433097248 0.0051829987526518777 0.03334168899283909 0.032251541103765956 0.034805249973831436 -0.035844321787590165 0.0091784725933663405 -0.0034413934469495603 -0.022788676507676259 0.027297629823011385 0.00059998151350990027 0.057472394991666079 0.0024564923623643154 0.014003228794576396 -0.020985095113760135 0.023807879999597738 -0.0078340553026080232 -0.00042860769359818243 -0.0036234703942639281 0.046683822826641366 -0.019086192442490026 0.016897407811988334 -0.020784338332753654
leaf_weight=40 230 30 253 579 123 238 426 203 251 68 102 377 224 189 82 860 27 429 75 256 45 305 281 329 495 254 41 449 179 477
leaf_count=40 230 30 253 579 123 238 426 203 251 68 102 377 224 189 82 860 27 429 75 256 45 305 281 329 495 254 41 449 179 477
internal_value=0 -0.00755064 0.0171614 0.011022 -0.011016 -0.0136641 -0.00609503 0.0113988 0.00422575 0.00152896 0.00934611 0.0320876 -0.0188388 0.023805 -0.0199226 -0.0176341 -0.0123567 0.00609213 0.0385664 0.00219736 0.0142448 -0.0272771 0.017925 -0.00220081 0.00348673 -0.000652404 0.0295835 -0.0141218 0.00839885 -0.0182403
internal_weight=0 5498 2419 1714 4648 3960 1608 850 688 648 820 705 2352 700 2229 1700 840 718 452 1014 289 529 470 580 733 281 86 875 435 559
internal_count=7917 5498 2419 1714 4648 3960 1608 850 688 648 820 705 2352 700 2229 1700 840 718 452 1014 289 529 470 580 733 281 86 875 435 559
is_linear=0
shrinkage=0.1


Tree=4
num_leaves=31
num_cat=0
split_feature=1 0 1 2 2 0 0 2 1 2 1 2 4 2 1 3 4 4 2 1 2 1 1 2 4 4 0 2 0 1
split_gain=84.3606 39.351 16.6783 20.7008 12.6522 11.8899 8.32812 7.30581 6.74772 6.4927 4.81006 3.75763 3.51687 5.98537 6.00221 3.27924 3.15366 3.00573 2.96926 2.83873 3.20153 2.70751 2.58887 2.39392 2.37478 2.12133 1.92616 1.88193 1.84884 1.82467
threshold=-1.1497227856797683 0.31834248680566263 -1.5686335968527578 -2.4718205601073913 -1.7811156622152893 0.40818393454365037 0.76323920481258301 -3.4812288739675701 -2.1602563932819319 -1.652497454089739 -0.71407281844984949 -2.4860748033374196 1.5000000000000002 -1.92592004229804 -1.9154223242402719 -2.5398811731658295 1.5000000000000002 1.5000000000000002 -2.1625487368097454 -1.5807895484993664 -2.0138134731731365 -1.9922153214487579 -1.9461828608569844 -1.5950891424957485 1.5000000000000002 2.5000000000000004 -0.026960510273097531 -2.7977886274590089 1.1041609485418473 -1.019633275177539
decision_type=2 2 2 2 2 2 2 2 2 2 2 2 2 2 2 2 2 2 2 2 2 2 2 2 2 2 2 2 2 2
left_child=1 2 3 7 18 9 11 -1 17 26 29 21 22 14 15 -14 -10 27 -4 -13 -21 -3 -5 -6 -20 -17 -2 -9 -8 -11
right_child=5 6 4 12 23 -7 28 8 16 10 -12 19 13 -15 -16 25 -18 -19 24 20 -22 -23 -24 -25 -26 -27 -28 -29 -30 -31
leaf_value=0.044004132861319267 0.013037894117645922 0.011592809375616964 0.020970253719151181 -0.028734754994241659 -0.0023094154711828475 0.038940441601915246 0.027813114958553344 -0.0027697205784322364 0.0078792999702982786 0.00067197433082136259 0.045392173826694492 -0.0033056968212143607 0.0039046029868964739 -0.019842589175735247 0.0017389919336852249 -0.0052673953167601106 0.039360513455735956 0.0023437227301279263 -0.0083010719260200854 0.021242228283728723 0.004351588865673859 0.036229082136905115 -0.015073529893862573 -0.011869952679875721 0.0084611567972234757 -0.019183545175543923 0.028554669725053827 -0.017974272598740241 0.053464770994873512 0.01282790737733619
leaf_weight=39 100 108 163 345 466 336 128 146 82 236 35 234 89 1065 339 136 52 321 100 169 334 76 232 598 546 563 400 184 36 259
leaf_count=39 100 108 163 345 466 336 128 146 82 236 35 234 89 1065 339 136 52 321 100 169 334 76 232 598 546 563 400 184 36 259
internal_value=0 -0.00471369 -0.00816675 -0.012155 -0.000516062 0.0226057 0.0126821 0.00175934 -0.000339441 0.0172771 0.00956555 0.00898509 -0.0162956 -0.0144672 -0.00938747 -0.0141741 0.0200959 -0.00454579 0.00890956 0.00579353 0.0100266 0.0217687 -0.0232419 -0.00768272 0.00586638 -0.016476 0.0254513 -0.0112474 0.033444 0.00703235
internal_weight=0 6551 5466 3593 1873 1366 1085 824 785 1030 530 921 2769 2192 1127 788 134 651 809 737 503 184 577 1064 646 699 500 330 164 495
internal_count=7917 6551 5466 3593 1873 1366 1085 824 785 1030 530 921 2769 2192 1127 788 134 651 809 737 503 184 577 1064 646 699 500 330 164 495
is_linear=0
shrinkage=0.1


Tree=5
num_leaves=31
num_cat=0
split_feature=1 2 0 1 2 1 2 1 2 2 1 0 3 2 1 1 0 4 4 0 0 2 0 1 2 2 0 3 3 4
split_gain=68.6383 23.9122 15.5778 15.2111 13.9664 8.82859 8.06059 8.7723 7.6143 4.73037 5.03367 3.97709 3.97319 3.93951 3.11526 2.95815 2.89359 2.70706 2.60039 2.42825 2.27089 1.90428 1.8861 1.87232 2.33716 1.88685 1.87188 1.84097 1.83367 1.76361
threshold=-1.3435650145688782 -2.7039843263936505 0.1709607628280764 -0.91415809711777041 -1.8009364968921988 -1.5737455547773573 -3.4812288739675701 -2.2859533467138502 -1.7965758891675156 -2.1088228637060289 -2.0645314471736844 0.44099854128794419 -2.6601038449302705 -2.3906100829317252 -1.10724687844533 -1.1497227856797683 0.35535294497539766 1.5000000000000002 1.5000000000000002 0.13602787364883709 -0.10434748965594258 -1.5522801506628936 -0.16921537685952323 -1.5507815483049139 -1.6495441928916212 -1.8176358165923656 0.94129865271496149 -1.6542717897512926 -1.1750403249192722 3.5000000000000004
decision_type=2 2 2 2 2 2 2 2 2 2 2 2 2 2 2 2 2 2 2 2 2 2 2 2 2 2 2 2 2 2
left_child=1 6 5 4 13 9 -1 19 -7 10 12 23 -3 -2 21 27 -5 -14 -9 -8 -19 -6 -11 25 -25 -4 29 -15 -16 -13
right_child=3 2 11 16 14 8 7 18 -10 22 -12 26 17 15 28 -17 -18 20 -20 -21 -22 -23 -24 24 -26 -27 -28 -29 -30 -31
leaf_value=0.046636147531477497 0.044125590691199673 -3.1826255144551398e-05 -0.003047734597360898 0.024230345722030977 0.003907746337360048 0.0071022288571582232 -0.0046821082537980355 0.018654174088850995 -0.011234022307056505 0.00370024719618653 0.0017122863955848233 0.0061339412787239029 -0.02483396008347713 0.01769842307145509 0.01353136680856864 0.026021039363031198 0.040571646238246536 0.010350375377186916 0.045726708975873137 0.012515243454739297 -0.014418138829129627 -0.0063804812257858938 -0.018856324792907248 0.0090468107498038498 -0.011512050403231016 -0.01762705856725295 0.038999362768871448 0.003628618417174689 -0.0011888098795857051 0.033754436418414115
leaf_weight=63 65 172 521 290 397 396 260 89 529 38 284 307 270 277 337 298 173 41 59 120 381 329 1514 228 73 107 21 140 113 25
leaf_count=63 65 172 521 290 397 396 260 89 529 38 284 307 270 277 337 298 173 41 59 120 381 329 1514 228 73 107 21 140 113 25
internal_value=0 -0.00617616 -0.00846488 0.0140374 0.0101794 -0.0118156 0.0128268 0.00879276 -0.00338412 -0.0147041 -0.00983737 0.00100959 -0.0136338 0.020555 0.00329756 0.0184122 0.0303363 -0.0170146 0.0294466 0.000748634 -0.0120117 -0.00075455 -0.018304 -0.00242376 0.00406077 -0.00553179 0.0100452 0.0129747 0.00983497 0.0082138
internal_weight=0 5498 4907 2419 1956 3625 591 528 925 2700 1148 1282 864 780 1176 715 463 692 148 380 422 726 1552 929 301 628 353 417 450 332
internal_count=7917 5498 4907 2419 1956 3625 591 528 925 2700 1148 1282 864 780 1176 715 463 692 148 380 422 726 1552 929 301 628 353 417 450 332
is_linear=0
shrinkage=0.1


Tree=6
num_leaves=31
num_cat=0
split_feature=1 0 1 3 2 1 2 2 2 4 4 1 3 3 1 2 1 0 2 4 2 4 4 0 2 3 3 4 1 0
split_gain=55.6378 21.3896 11.2638 10.8434 9.75525 9.40284 9.65464 7.57343 4.546 4.73485 6.26271 3.51524 3.4131 3.31735 3.2785 2.96755 2.83142 2.80256 2.58089 2.48271 3.20873 2.70407 2.82505 2.39887 2.37655 2.36061 2.13039 2.40667 1.87897 1.86087
threshold=-1.3011385917311535 0.23983852229266514 -0.88335643491098048 -1.6492250616966972 -2.7977886274590089 -1.6664200299067276 -1.8562057018338847 -2.5662237097384861 -2.113253531354498 1.5000000000000002 2.5000000000000004 -1.10724687844533 -3.4062852187635131 -3.6155700929699637 -1.9377524056050421 -1.9713562040625263 -2.3381811440657896 0.76323920481258301 -2.4213569282401961 1.5000000000000002 -1.7205590384204414 2.5000000000000004 3.5000000000000004 0.35977710919625133 -2.0681668266521958 -1.2009139777210731 -2.5812169788687034 3.5000000000000004 -2.1805896292249387 0.01415053296658497
decision_type=2 2 2 2 2 2 2 2 2 2 2 2 2 2 2 2 2 2 2 2 2 2 2 2 2 2 2 2 2 2
left_child=1 4 3 15 13 8 29 12 9 28 18 -5 -3 -1 -14 -2 -15 19 -11 -9 21 24 -23 -4 -21 -13 -12 -28 -6 -7
right_child=2 7 23 11 5 6 -8 17 -10 10 26 25 14 16 -16 -17 -18 -19 -20 20 -22 22 -24 -25 -26 -27 27 -29 -30 -31
leaf_value=0.035681970678269864 0.028049397079429279 0.053613134920597078 0.023019516464302558 -0.00069298944258985439 -0.020614895284612949 0.0012883875663392246 -0.0093892870057533939 -0.0083817894334356751 -0.017095048099215405 0.043328985854469503 0.00075349282728871553 0.014847308607979729 0.0094178765309193453 0.00062645130349590959 0.034773308381830396 0.014385005028106149 0.029425338033470329 0.023112994723863179 0.0089306495022769515 0.032787976250983779 -0.01010541028753803 -0.0021889058680392157 0.021957877297270098 0.039408691740062167 0.0091870424780609028 0.00080296067277562224 -0.013588493477246447 0.015301263443524799 -0.0080344760281547828 0.012562012181541404
leaf_weight=40 300 30 230 605 338 300 995 209 1386 29 205 374 155 233 76 338 40 62 88 64 127 271 59 146 128 176 413 31 183 286
leaf_count=40 300 30 230 605 338 300 995 209 1386 29 205 374 155 233 76 338 40 62 88 64 127 271 59 146 128 176 413 31 183 286
internal_value=0 -0.00514963 0.0136469 0.0103469 -0.0082517 -0.00950535 -0.00339221 0.00684628 -0.0131211 -0.00884145 -0.00383917 0.00456706 0.021881 0.00878676 0.0177599 0.0208103 0.00484607 0.002581 0.0174567 0.00109733 0.00414993 0.00761819 0.00212825 0.0293834 0.017054 0.0103531 -0.00767834 -0.0115714 -0.0161961 0.00679053
internal_weight=0 5748 2169 1793 4567 4254 1581 1181 2673 1287 766 1155 261 313 231 638 273 920 117 858 649 522 330 376 192 550 649 444 521 586
internal_count=7917 5748 2169 1793 4567 4254 1581 1181 2673 1287 766 1155 261 313 231 638 273 920 117 858 649 522 330 376 192 550 649 444 521 586
is_linear=0
shrinkage=0.1


Tree=7
num_leaves=31
num_cat=0
split_feature=1 0 1 2 2 0 2 0 2 1 1 0 0 3 1 2 1 2 4 0 0 0 3 1 3 4 2 1 2 3
split_gain=45.8624 21.2699 8.96521 11.7998 7.40416 7.21699 4.89996 4.76408 3.81025 3.532 3.36216 2.8711 3.20277 2.76463 2.20566 2.1683 2.11652 2.45641 1.83308 1.57625 1.56499 1.52673 1.47215 1.44279 1.36489 1.25599 2.0223 1.89395 1.42079 1.22193
threshold=-1.1497227856797683 0.31834248680566263 -1.5686335968527578 -2.535569328302993 -1.6495441928916212 0.4664364050854945 -1.652497454089739 0.76323920481258301 -3.3137001018641441 -2.0993893942422308 -0.71407281844984949 -0.20160372056294959 0.038639925598891511 -1.8237888588238089 -2.6107446303374657 -3.086099272197754 -1.9309002078133126 -1.8651533714101127 3.5000000000000004 -0.026960510273097531 -0.030382628993720896 -0.011483327254233395 -2.8895527723869558 -2.5536505770496363 -1.1619779666246919 1.5000000000000002 -1.8982718280062765 -1.7536688902799245 -2.1425905273278834 -3.2955357160825325
decision_type=2 2 2 2 2 2 2 2 2 2 2 2 2 2 2 2 2 2 2 2 2 2 2 2 2 2 2 2 2 2
left_child=1 2 3 8 13 6 19 15 -1 22 24 -5 14 -4 -13 -3 20 -18 -17 -2 -16 -15 -10 -24 -8 -14 27 -27 -29 -9
right_child=5 7 4 11 -6 -7 10 29 9 -11 -12 12 25 21 16 18 17 -19 -20 -21 -22 -23 23 -25 -26 26 -28 28 -30 -31
leaf_value=0.026741093606592659 0.0085260495264083153 0.030234381264528716 0.012889655003285348 0.009751796623172819 -0.0083345060376333688 0.030792520145056901 0.007705587041413834 0.047541533357330731 0.0037536198548842586 0.020452277919946193 0.035056871665935768 -0.0010714400276785421 -0.014626848974026458 -0.0035606964305770817 -0.014747072840125048 0.0042000001504805878 -0.0046974254638148744 -0.016695751870561822 0.021175159269267274 0.022473806712124279 -0.023255742530984624 0.0050977519313882272 -0.012722110490861881 0.00097466368666466552 -0.0033999226204270028 -0.0054932473719196207 -0.012015580230195274 0.028236327256108154 0.0023563181291794098 0.021709021401772329
leaf_weight=61 100 37 297 61 723 286 354 21 231 78 38 107 238 336 411 815 286 423 69 427 456 517 177 136 161 434 386 29 79 143
leaf_count=61 100 37 297 61 723 286 354 21 231 78 38 107 238 336 411 815 286 423 69 427 456 517 177 136 161 434 386 29 79 143
internal_value=0 -0.00347552 -0.00601421 -0.00893826 -0.000404953 0.0166677 0.0129273 0.00931384 0.00289065 0.000551615 0.00635181 -0.0117146 -0.0121742 0.00458032 -0.014965 0.00651765 -0.0159083 -0.0118558 0.00552498 0.0198272 -0.0192222 0.00168716 -0.00230179 -0.0067708 0.00423377 -0.00814603 -0.00648392 -0.0025444 0.00930558 0.0250168
internal_weight=0 6551 5466 3593 1873 1366 1080 1085 683 622 553 2910 2849 1150 1683 921 1576 709 884 527 867 853 544 313 515 1166 928 542 108 164
internal_count=7917 6551 5466 3593 1873 1366 1080 1085 683 622 553 2910 2849 1150 1683 921 1576 709 884 527 867 853 544 313 515 1166 928 542 108 164
is_linear=0
shrinkage=0.1


Tree=8
num_leaves=31
num_cat=0
split_feature=1 2 1 2 2 1 1 3 3 3 2 4 1 1 4 0 2 0 3 3 4 4 2 1 3 2 3 0 0 0
split_gain=37.7737 13.6306 9.83894 9.397 8.93059 8.40222 8.07051 6.18923 4.5078 3.09703 2.6707 2.54571 2.53001 2.42355 2.12755 2.11824 2.11487 2.09304 1.65105 2.35206 1.59602 2.06571 2.68313 2.41729 1.52401 1.45199 1.90179 1.40453 1.39629 1.37633
threshold=-1.3435650145688782 -2.4718205601073913 -1.7536688902799245 -1.652497454089739 -1.9713562040625263 -0.99465331449950212 -1.9309002078133126 -3.6155700929699637 -2.1169366323944572 -2.4369267659664851 -1.4834919035313132 1.5000000000000002 -0.74189691055359852 -2.1711701802870622 1.5000000000000002 0.12024716463399233 -1.9435393719461735 0.23023612630592785 -2.8895527723869558 -2.3869510123567896 1.5000000000000002 2.5000000000000004 -2.0470730665373478 -2.2302682704955568 -1.2228694581305339 -2.1789916146306916 -2.6481711140569684 -0.067585234146712234 -0.13777463199804049 0.21887546258738291
decision_type=2 2 2 2 2 2 2 2 2 2 2 2 2 2 2 2 2 2 2 2 2 2 2 2 2 2 2 2 2 2
left_child=1 6 9 8 17 10 7 -1 -4 13 15 -8 24 25 -10 -6 -16 -2 -9 28 -11 22 27 -24 -7 26 -3 -22 -20 -30
right_child=4 2 3 -5 5 12 11 18 14 20 -12 -13 -14 -15 16 -17 -18 -19 19 -21 21 -23 23 -25 -26 -27 -28 -29 29 -31
leaf_value=0.032979618562227586 0.014381283164645235 0.0076087440965541949 0.013413048779581533 -0.012457809760373429 0.00081155694406751802 0.018117397424998894 0.01466839547674771 0.0050964901535886058 -0.0088143259272769545 -0.018986661268568614 -0.0046249799438896526 0.038988712337178488 0.031228808802770121 0.014118103316025948 0.0075690689031820179 0.01019653956139395 -0.001851026821287783 0.027009406622262699 0.018653588373923585 0.013135165590792895 0.030929539883509279 -0.015070766816278195 0.023361224662512545 -0.012216767801088007 0.0057196359354237175 0.016483838551515795 -0.014961295538350464 0.0015406842471967484 -0.011027996420763457 0.0017738980562549776
leaf_weight=59 225 48 269 674 479 309 101 326 264 418 355 75 107 67 352 483 738 315 21 70 20 835 20 423 146 23 168 87 327 113
leaf_count=59 225 48 269 674 479 309 101 326 264 418 355 75 107 67 352 483 738 315 21 70 20 835 20 423 146 23 168 87 327 113
internal_value=0 -0.00458173 -0.00706055 -0.00253251 0.0104135 0.00715626 0.00541978 0.00165146 0.00158927 -0.0119922 0.002788 0.0250322 0.0173929 -0.00269032 -0.000759769 0.00552356 0.00119106 0.0217477 -0.000505323 -0.00394448 -0.0135709 -0.0119364 -0.00717789 -0.0106105 0.0141392 -0.0074023 -0.00994573 0.00703393 -0.00653792 -0.00774024
internal_weight=0 5498 4406 2297 2419 1879 1092 916 1623 2109 1317 176 562 306 1354 962 1090 540 857 531 1803 1385 550 443 455 239 216 107 461 440
internal_count=7917 5498 4406 2297 2419 1879 1092 916 1623 2109 1317 176 562 306 1354 962 1090 540 857 531 1803 1385 550 443 455 239 216 107 461 440
is_linear=0
shrinkage=0.1


Tree=9
num_leaves=31
num_cat=0
split_feature=1 2 2 1 1 2 0 1 2 1 4 3 4 2 4 4 1 2 4 2 4 4 2 3 1 4 0 4 3 1
split_gain=31.192 12.6785 10.1393 7.60468 5.56929 5.24087 4.85775 4.18328 6.86252 3.0369 2.90566 2.61027 2.56908 2.542 2.20133 4.07783 2.03578 1.978 1.69646 1.47037 1.45723 1.38077 1.50017 1.3637 1.50313 1.29516 1.24575 1.22614 1.91794 1.15475
threshold=-1.4619078021809195 -2.4718205601073913 -1.8009364968921988 -1.0359516224755458 -1.9922153214487579 -3.4812288739675701 -0.022276394711152222 -1.9461828608569844 -1.9963883508992388 -1.10724687844533 1.5000000000000002 -2.5139397265367038 1.5000000000000002 -2.513121127067842 1.5000000000000002 2.5000000000000004 -0.78819664514490728 -1.6576517152620176 1.5000000000000002 -1.6275558452649348 1.5000000000000002 2.5000000000000004 -2.088016102827583 -2.1169366323944572 -1.7536688902799245 3.5000000000000004 0.18258767038212179 2.5000000000000004 -2.1221709359732053 -2.1711701802870622
decision_type=2 2 2 2 2 2 2 2 2 2 2 2 2 2 2 2 2 2 2 2 2 2 2 2 2 2 2 2 2 2
left_child=1 4 6 19 5 -1 -2 11 10 13 -9 29 -6 -8 26 -16 -5 23 -13 -4 -15 22 -12 -10 -25 -23 -7 28 -20 -3
right_child=2 7 3 16 12 14 9 8 17 -11 21 18 -14 20 15 -17 -18 -19 27 -21 -22 25 -24 24 -26 -27 -28 -29 -30 -31
leaf_value=0.030137490025111315 0.0015324945906937028 -0.0038797925795001024 0.0030691805712813832 0.0094756849997961363 0.010159921628146868 -0.0094830140738941145 0.03828016196449216 -0.0058273452011147336 0.0082467077177811859 0.024662071016855011 0.020767005033750126 -0.02007703345251112 0.033537125953007493 0.0032214655571472261 0.045252633872239489 0.001873939667404678 0.024100439244553018 -0.013612268922360546 0.0041475858005339565 -0.0039500636961893182 0.014493003076007519 -0.0011512731619637889 0.0034016167739450579 -0.013292742455675405 -0.0045705283454048409 0.015718887117309042 0.0023716503976001627 -0.013721825365506039 -0.013644080229145898 0.019148645650308868
leaf_weight=58 239 134 476 433 114 299 39 248 61 368 122 313 80 147 23 375 122 572 112 800 522 199 84 282 660 59 126 692 132 26
leaf_count=58 239 134 476 433 114 299 39 248 61 368 122 313 80 147 23 375 122 572 112 800 522 199 84 282 660 59 126 692 132 26
internal_value=0 -0.00509701 0.00772977 0.00291868 0.00446151 0.0010839 0.0144287 -0.00787715 -0.00523648 0.0172932 0.00291073 -0.0121633 0.0198 0.013463 -0.000963615 0.00438075 0.0126905 -0.00891954 -0.0137038 -0.0013316 0.0120163 0.00758108 0.013686 -0.00624332 -0.00718164 0.00270663 -0.00596845 -0.0115726 -0.00547741 -0.000137671
internal_weight=0 4771 3146 1831 1075 881 1315 3696 2287 1076 712 1409 194 708 823 398 555 1575 1249 1276 669 464 206 1003 942 258 425 936 244 160
internal_count=7917 4771 3146 1831 1075 881 1315 3696 2287 1076 712 1409 194 708 823 398 555 1575 1249 1276 669 464 206 1003 942 258 425 936 244 160
is_linear=0
shrinkage=0.1


Tree=10
num_leaves=31
num_cat=0
split_feature=1 0 0 1 3 2 0 0 4 2 4 4 4 2 1 4 2 3 1 4 2 3 2 3 0 0 1 1 0 2
split_gain=25.9567 12.223 4.72727 4.65625 6.04234 4.21243 4.01757 3.40332 2.72742 2.21553 2.58381 4.65265 2.6583 2.04669 3.2648 2.03567 1.87276 1.67035 2.14189 1.4677 1.40881 1.40654 1.34435 1.31726 1.27143 1.25367 1.22605 1.14626 1.12242 1.1143
threshold=-1.1497227856797683 0.19395306450713731 0.40818393454365037 -1.5737455547773573 -2.9196918965887426 -1.9782279841238737 0.76323920481258301 -0.21696899121564514 2.5000000000000004 -1.913313851162328 1.5000000000000002 2.5000000000000004 3.5000000000000004 -2.0984977820727146 -2.0645314471736844 1.5000000000000002 -3.4812288739675701 -1.3557571185820951 -0.78819664514490728 2.5000000000000004 -2.633171255114843 -2.2818686938334802 -1.4697760894000247 -2.5658686106559636 -0.10434748965594258 0.017728766960431682 -1.4659403158343947 -2.9798445534494351 -0.055847938828830206 -2.3987678104312224
decision_type=2 2 2 2 2 2 2 2 2 2 2 2 2 2 2 2 2 2 2 2 2 2 2 2 2 2 2 2 2 2
left_child=1 3 8 4 16 -5 9 19 17 10 20 -12 29 14 15 -9 -1 -2 -19 -6 -3 -14 -7 -17 -25 28 -22 -18 -15 -13
right_child=2 6 -4 5 7 22 -8 13 -10 -11 11 12 21 25 -16 23 27 18 -20 -21 26 -23 -24 24 -26 -27 -28 -29 -30 -31
leaf_value=0.028754462374167313 0.011804743883158594 0.0082301161281310587 0.022839090055328731 0.0092513124854909125 0.026848020951414631 -0.0019038926626586856 0.019320032192485001 -0.014556230240721677 0.022153798932475703 -0.0016597316436498433 0.023254778715628352 0.0077394202479795704 0.043938000220805407 -0.0096168661279767975 0.0027611427930405749 0.0010960827191084516 -0.00061592365913187483 0.00034372618729499736 0.01927732300079827 -0.0029162013344466685 -0.0091268548633657923 0.013115426852253446 -0.010218345599860186 0.010923177202542624 -0.010527625536546112 -0.0083079591074932783 0.006737651215922652 0.01607380917647102 -0.016815342511896099 -0.0036742072146799831
leaf_weight=36 412 119 336 327 37 1025 164 406 140 645 182 138 20 349 302 206 148 408 70 30 186 57 240 30 350 635 66 57 571 225
leaf_count=36 412 119 336 327 37 1025 164 406 140 645 182 138 20 349 302 206 148 408 70 30 186 57 240 30 350 635 66 57 571 225
internal_value=0 -0.00261467 0.0125393 -0.00527546 -0.00749903 -0.000866026 0.00439761 -0.00875674 0.00917936 0.00290354 0.0058676 0.00980716 0.00424473 -0.00928064 -0.00634246 -0.00911392 0.00771872 0.00713844 0.00311643 0.0135208 -0.000737267 0.0211213 -0.00348134 -0.00534331 -0.00883414 -0.0117257 -0.00497187 0.00402464 -0.0140846 0.000664858
internal_weight=0 6551 1366 4749 3157 1592 1802 2916 1030 1638 993 622 440 2849 1294 992 241 890 478 67 371 77 1265 586 380 1555 252 205 920 363
internal_count=7917 6551 1366 4749 3157 1592 1802 2916 1030 1638 993 622 440 2849 1294 992 241 890 478 67 371 77 1265 586 380 1555 252 205 920 363
is_linear=0
shrinkage=0.1


Tree=11
num_leaves=31
num_cat=0
split_feature=1 2 2 1 0 1 0 3 1 2 2 4 4 0 2 1 1 3 4 4 2 2 0 1 0 4 4 2 3 1
split_gain=21.1263 8.53626 6.77502 5.02162 4.3282 3.87311 3.28822 2.83912 2.09166 3.42337 1.9993 1.95104 2.00085 2.32928 1.73101 1.67008 1.32722 1.3158 1.28513 1.27205 1.40956 1.2418 1.19858 1.14067 1.35683 1.10042 2.48958 3.85612 1.61436 1.27045
threshold=-1.4043399714476512 -2.7275047457241972 -1.8009364968921988 -0.8929954023540011 0.15490195998574316 -2.2768802714742877 0.025807263606285494 -3.4062852187635131 -1.7060994542456134 -1.8562057018338847 -2.113253531354498 1.5000000000000002 2.5000000000000004 -0.098127776486102686 -2.2855848940754449 -1.0891534985275193 -1.1497227856797683 -2.0190495874874519 1.5000000000000002 3.5000000000000004 -2.2033338688332536 -1.4878636494803341 -0.034461308010120366 -3.4246699295950829 -0.048248785818531641 2.5000000000000004 1.5000000000000002 -2.0681668266521958 -2.3793049308394463 -1.7469653263691438
decision_type=2 2 2 2 2 2 2 2 2 2 2 2 2 2 2 2 2 2 2 2 2 2 2 2 2 2 2 2 2 2
left_child=1 5 6 16 8 7 -2 23 10 17 11 -3 13 -13 -8 -16 -4 -10 -7 25 -21 -18 -5 24 -1 26 -6 29 -27 -28
right_child=2 4 3 22 19 18 14 -9 9 -11 -12 12 -14 -15 15 -17 21 -19 -20 20 -22 -23 -24 -25 -26 28 27 -29 -30 -31
leaf_value=0.030522613491242131 0.0029721778274961253 -0.011098403955318671 -0.0021324755072254921 0.002485303870701003 -0.0051174912788939436 0.014865146283769077 0.025673195973176185 -0.00093708023529798831 0.015162603225773917 -0.0078978664248545334 -0.011826409928675225 0.041496917828917505 -0.0046162207654901772 0.0029203659651102498 0.010181308806387951 0.020088927432704993 0.0081760742206390558 0.00080733603468571998 0.034823432041761963 0.033143698563799263 0.0032311003245413306 -0.00082105099809333002 0.019390304797428631 0.038066919706761841 -0.00034830410565648765 0.0030026215560638829 0.010594011391771751 0.0014239685806004625 -0.009631536799732953 0.034937630864826721
leaf_weight=24 256 421 789 53 318 85 149 341 78 709 1136 20 555 72 460 270 335 352 52 23 50 283 201 24 35 161 36 304 272 53
leaf_count=24 256 421 789 53 318 85 149 341 78 709 1136 20 555 72 460 270 335 352 52 23 50 283 201 24 35 161 36 304 272 53
internal_value=0 -0.003817 0.00699101 0.0029219 -0.00524904 0.00782312 0.0129459 0.00310003 -0.00710791 -0.00362838 -0.00890609 -0.00579984 -0.00235208 0.0113066 0.0158506 0.0138458 0.000585717 0.00341131 0.0224406 -0.000142886 0.0126556 0.00405603 0.0158629 0.0196862 0.0122094 -0.000959574 0.00146076 0.00678363 -0.00493385 0.0250908
internal_weight=0 5121 2796 1661 4560 561 1135 424 3343 1139 2204 1068 647 92 879 730 1407 430 137 1217 73 618 254 83 59 1144 711 393 433 89
internal_count=7917 5121 2796 1661 4560 561 1135 424 3343 1139 2204 1068 647 92 879 730 1407 430 137 1217 73 618 254 83 59 1144 711 393 433 89
is_linear=0
shrinkage=0.1


Tree=12
num_leaves=31
num_cat=0
split_feature=1 0 0 2 1 3 2 0 1 2 1 2 4 2 4 3 1 2 1 4 3 4 1 4 1 1 4 1 0 3
split_gain=17.2319 7.81174 3.9376 3.04695 3.02191 4.07252 2.94684 2.43655 1.67438 1.71291 1.6257 2.29623 1.74451 2.38647 1.59024 1.54395 1.64507 1.45026 3.20725 1.48083 1.43099 1.36993 1.32321 1.30939 1.11849 1.37956 1.10291 1.09421 1.06674 1.06098
threshold=-1.1875871578354289 0.23023612630592785 0.16517144615024462 -2.5662237097384861 -1.5737455547773573 -2.9196918965887426 -1.9782279841238737 -0.21696899121564514 -0.64022442952969605 -1.4932073987172609 -1.7417540974994856 -1.6222597949703863 1.5000000000000002 -2.0518460895219452 2.5000000000000004 -3.4062852187635131 -1.9377524056050421 -2.1353264801335672 -2.1805896292249387 1.5000000000000002 -1.3557571185820951 3.5000000000000004 -0.78819664514490728 2.5000000000000004 -4.0132412485363043 -2.9798445534494351 2.5000000000000004 -1.4359470962458594 0.26144347867154005 -2.5812169788687034
decision_type=2 2 2 2 2 2 2 2 2 2 2 2 2 2 2 2 2 2 2 2 2 2 2 2 2 2 2 2 2 2
left_child=1 4 20 15 5 24 -6 26 9 -4 -5 12 -12 14 -14 -3 -17 18 19 -9 -2 -16 -22 27 -1 -26 -7 -15 -25 -20
right_child=2 3 8 10 6 7 -8 17 -10 -11 11 -13 13 23 21 16 -18 -19 29 -21 22 -23 -24 28 25 -27 -28 -29 -30 -31
leaf_value=0.024998186209372112 0.0092218791526265595 0.034941088979442918 0.01591108778478038 -0.0047268398168814887 0.0077369345589778623 0.023457549159993998 -0.0028610064172066535 -0.013183300586806022 0.034645939966998045 0.0042589110252158197 -0.0019818491122933113 -0.0081186494376096468 0.030114868208698499 0.00031328623739593643 0.0048938073683530096 0.0050584655451485494 0.022285381347561875 -0.0092532963463736826 0.024991361619904638 -0.0047408414683122024 -0.0015374712917230471 0.029568885043263438 0.015627754006452641 -0.02273783778602427 -0.0012401034589133789 0.015660282033596838 -0.0023440248620560551 0.01489857754069448 0.00083173931952541238 0.0013683140171794207
leaf_weight=28 338 30 583 284 333 37 1237 357 39 161 203 135 69 82 90 163 84 1734 20 497 376 30 51 22 161 69 30 138 151 385
leaf_count=28 338 30 583 284 333 37 1237 357 39 161 203 135 69 82 90 163 84 1734 20 497 376 30 51 22 161 69 30 138 151 385
internal_value=0 -0.00230004 0.00946315 0.00406244 -0.00422779 -0.00593814 -0.000613163 -0.00695543 0.0144483 0.0133896 0.00188682 0.00392843 0.00600022 0.00878434 0.0180182 0.0135189 0.010917 -0.00737762 -0.00479429 -0.00827007 0.00436068 0.0110626 0.000512708 0.00434365 0.00612733 0.00383001 0.0119046 0.00946224 -0.00216555 0.00253488
internal_weight=0 6369 1548 1481 4888 3318 1570 3060 783 744 1204 920 785 582 189 277 247 2993 1259 854 765 120 427 393 258 230 67 220 173 405
internal_count=7917 6369 1548 1481 4888 3318 1570 3060 783 744 1204 920 785 582 189 277 247 2993 1259 854 765 120 427 393 258 230 67 220 173 405
is_linear=0
shrinkage=0.1


Tree=13
num_leaves=31
num_cat=0
split_feature=1 0 0 2 1 2 3 0 2 2 1 1 2 4 4 1 1 1 1 2 0 0 1 2 4 4 3 4 4 3
split_gain=14.1095 6.78914 3.0837 2.74473 2.68574 2.58208 2.53092 2.15833 2.0068 1.9083 1.95021 1.81259 2.54972 1.58378 1.55396 1.38095 1.37731 1.31158 1.26344 1.19218 1.10202 1.09041 1.1292 1.07906 1.04899 1.61177 1.24475 1.01808 1.01541 0.991417
threshold=-1.1497227856797683 0.15490195998574316 0.4664364050854945 -3.4812288739675701 -1.5737455547773573 -2.5662237097384861 -1.4575422564894505 -0.23432760362917429 -1.652497454089739 -2.2651387659824 -2.1805896292249387 -1.5507815483049139 -1.6222597949703863 3.5000000000000004 1.5000000000000002 -1.4958893292241651 -0.71407281844984949 -2.8327847020275274 -2.5359682539356823 -2.2237472308990456 0.71109131874050968 0.017728766960431682 -1.9377524056050421 -1.8210944544232883 1.5000000000000002 2.5000000000000004 -1.9823873986006937 2.5000000000000004 3.5000000000000004 -1.7866057426312352
decision_type=2 2 2 2 2 2 2 2 2 2 2 2 2 2 2 2 2 2 2 2 2 2 2 2 2 2 2 2 2 2
left_child=1 3 8 -1 7 15 13 27 28 10 14 20 19 23 17 -3 -10 -9 -11 -13 -7 22 29 -6 -21 -26 -27 -5 -2 -20
right_child=2 5 -4 4 6 11 -8 9 16 18 -12 12 -14 -15 -16 -17 -18 -19 21 24 -22 -23 -24 -25 25 26 -28 -29 -30 -31
leaf_value=0.023365165820966163 0.0096422128725100944 0.0086871108860493863 0.01847786175170946 0.023044306846956412 0.00500289774938 -0.0030829071241288688 -0.0062393423090781495 -0.00022781015466898682 0.0012362071459217777 0.011294068128336221 0.0057774529490956473 0.016043378510512414 -0.0055922037130193879 0.018328433310420351 -0.0011860323283655492 0.031461636600052488 0.020964180200213664 -0.013647853983394584 -0.015027734653868417 -0.0035577937520461459 0.015858287825722073 -0.005652271437643833 -0.0076492643717955486 -0.0020769613609660452 0.011867753152741868 0.0086067046247633918 -0.0069330685680986139 -0.0014699766579724383 0.023461670394365988 0.0031166687695076689
leaf_weight=36 467 325 286 36 407 766 550 100 515 32 202 120 209 58 438 29 38 268 511 113 32 703 594 457 294 97 110 32 60 32
leaf_count=36 467 325 286 36 407 766 550 100 515 32 202 120 209 58 438 29 38 268 511 113 32 703 594 457 294 97 110 32 60 32
internal_value=0 -0.00192773 0.00924493 -0.00413509 -0.00435907 0.00276725 -0.000870639 -0.00610092 0.00679991 -0.00651669 -0.00300877 0.0011842 0.00415242 0.00233195 -0.00521078 0.0105528 0.00259184 -0.0100011 -0.00840558 0.00692712 -0.00232336 -0.00874818 -0.0106624 0.00125811 0.00514544 0.00710845 0.000348854 0.0115082 0.0112156 -0.0139585
internal_weight=0 6551 1366 4456 4420 2095 1472 2948 1080 2880 1008 1741 943 922 806 354 553 368 1872 734 798 1840 1137 864 614 501 207 68 527 543
internal_count=7917 6551 1366 4456 4420 2095 1472 2948 1080 2880 1008 1741 943 922 806 354 553 368 1872 734 798 1840 1137 864 614 501 207 68 527 543
is_linear=0
shrinkage=0.1


Tree=14
num_leaves=31
num_cat=0
split_feature=1 2 2 1 1 1 2 0 3 3 3 4 4 3 4 3 2 3 4 3 2 1 4 0 4 3 0 2 0 3
split_gain=11.7005 5.16982 4.07066 3.22576 3.0676 2.42013 3.44966 2.10289 2.06114 1.68032 1.59571 1.61332 1.54614 1.48461 1.18777 1.18054 1.10531 1.08143 1.42735 1.30793 1.30375 0.998032 1.27316 1.2028 2.10304 0.994414 0.918445 0.913726 0.897069 0.89516
threshold=-1.4043399714476512 -2.4718205601073913 -1.8009364968921988 -1.8514175820468075 -0.8929954023540011 -1.7536688902799245 -1.6576517152620176 0.025807263606285494 -3.6155700929699637 -2.1169366323944572 -2.6601038449302705 1.5000000000000002 1.5000000000000002 -2.3869510123567896 1.5000000000000002 -2.8895527723869558 -2.348198748975495 -2.4369267659664851 2.5000000000000004 -2.1221709359732053 -2.1692403418862907 -0.96507810923964332 1.5000000000000002 0.49088122792803512 2.5000000000000004 -1.1276600790409106 -0.089145944660377827 -2.0048708088243541 0.4664364050854945 -1.430634430362353
decision_type=2 2 2 2 2 2 2 2 2 2 2 2 2 2 2 2 2 2 2 2 2 2 2 2 2 2 2 2 2 2
left_child=1 3 7 8 -4 10 9 25 -1 -7 -3 -12 -5 15 -11 -10 -9 -13 19 27 -21 22 -18 -24 -25 -2 -17 -19 -6 -30
right_child=2 5 4 12 28 6 -8 16 13 14 11 17 -14 -15 -16 26 21 18 -20 20 -22 -23 23 24 -26 -27 -28 -29 29 -31
leaf_value=0.019353612780697266 0.0037056750973607313 0.010824067822657525 0.000222679787879633 0.0088267880706832964 0.0089664296263611398 0.0084969829349838041 -0.008472292101286142 0.021374055768535224 0.0033460033142402993 -0.0072988869317082905 -0.012353802156396429 0.0012134277696725984 0.030720638001168317 0.012789971011140981 0.00082344904747456548 0.009692805491033055 -0.0005821531598359861 -0.00088383227075131523 -0.0093105054523688318 0.01948416684754193 -0.0066750750593381793 0.017388386222459799 0.0082713705034499676 0.037189217991280284 0.0092894385821585147 -0.019006567751057447 -0.0057908171303639698 0.016319183277216955 0.013640018477518527 0.039619280406761742
leaf_weight=59 235 50 1407 78 197 235 568 113 330 225 477 197 55 83 901 42 116 76 835 20 402 176 360 44 70 21 436 52 36 21
leaf_count=59 235 50 1407 78 197 235 568 113 330 225 477 197 55 83 901 42 116 76 835 20 402 176 360 44 70 21 436 52 36 21
internal_value=0 -0.00284062 0.00520272 0.00329459 0.00204861 -0.00448609 -0.00192628 0.00981856 0.00125254 0.000805635 -0.00682743 -0.00725608 0.0178806 5.39285e-05 -0.000799575 -0.00125435 0.0121415 -0.00571902 -0.00670508 -0.00274958 -0.0054353 0.0107795 0.00880805 0.0111061 0.0200578 0.00184256 -0.00443033 0.00610489 0.0121631 0.0232113
internal_weight=0 5121 2796 1083 1661 4038 1929 1135 950 1361 2109 2059 133 891 1126 808 879 1582 1385 550 422 766 590 474 114 256 478 128 254 57
internal_count=7917 5121 2796 1083 1661 4038 1929 1135 950 1361 2109 2059 133 891 1126 808 879 1582 1385 550 422 766 590 474 114 256 478 128 254 57
is_linear=0
shrinkage=0.1


Tree=15
num_leaves=31
num_cat=0
split_feature=1 0 2 4 1 2 4 0 3 2 2 4 3 4 1 2 1 2 1 1 3 0 3 1 3 4 4 2 0 0
split_gain=9.80427 5.4254 2.07283 3.0972 2.5062 2.4667 3.98284 1.84971 1.68434 1.40763 1.4004 1.36102 1.20907 1.19264 1.16959 1.09116 1.07216 1.54871 1.06626 1.02425 0.867574 0.864123 0.984926 0.831483 1.03744 0.761631 1.75263 2.36702 0.823398 0.760702
threshold=-1.10724687844533 0.33047412171019147 -1.5950891424957485 1.5000000000000002 -1.554371309139823 -2.3987678104312224 2.5000000000000004 0.022676760240362141 -3.4062852187635131 -2.535569328302993 -2.1302121017540148 3.5000000000000004 -2.2818686938334802 3.5000000000000004 -0.78819664514490728 -1.3856027611700992 -1.9154223242402719 -1.9963883508992388 -2.5675816785496957 -1.1497227856797683 -1.6739072332213543 -0.12317453864614879 -2.481288163498204 -1.5430181514160586 -1.4003232489422366 2.5000000000000004 1.5000000000000002 -2.0681668266521958 0.73220746237205536 0.038639925598891511
decision_type=2 2 2 2 2 2 2 2 2 2 2 2 2 2 2 2 2 2 2 2 2 2 2 2 2 2 2 2 2 2
left_child=1 2 3 9 5 6 -5 -2 -3 21 -6 19 -13 -8 15 -9 18 -18 -7 25 -12 -1 -23 -4 -25 26 -10 28 -28 -20
right_child=7 8 23 4 10 16 13 14 11 -11 20 12 -14 -15 -16 -17 17 -19 29 -21 -22 22 -24 24 -26 -27 27 -29 -30 -31
leaf_value=0.016174864072214672 0.0016507320876238047 0.028771351637511419 -0.011388875920911907 0.03093294207379222 0.013682989415056149 0.0061327312294560581 -1.1764369852384195e-05 0.010730307104890329 -0.00028169166357589577 -0.0084329060770485867 0.0059650824029776686 0.036776014256545086 0.0093700292869471017 0.024987995231058449 0.018475898645212589 -0.00032816352012256787 0.0054754026286087257 -0.0037855112750899813 -0.0091798369013801721 0.017559613966538261 -7.6119970498145207e-05 -0.0047883811738189536 0.0096030053854184727 -0.0010802335310295238 -0.0092172283478236441 -0.0014806682397845025 0.01932548244173328 0.0049846534907275804 0.043077956084161997 -0.0032907899648986563
leaf_weight=27 293 29 297 50 122 67 416 594 339 851 395 22 60 20 163 105 246 679 574 48 597 287 57 328 300 309 54 213 20 355
leaf_count=27 293 29 297 50 122 67 416 594 339 851 395 22 60 20 163 105 246 679 574 48 597 287 57 328 300 309 54 213 20 355
internal_value=0 -0.00145439 -0.00269882 -0.0018543 -0.000348871 -0.00216388 0.00420064 0.00851479 0.00499301 -0.00619196 0.00357279 0.00434552 0.0167229 0.00113501 0.0108479 0.00906916 -0.00377406 -0.00132261 -0.00605077 0.00331303 0.0023294 -0.00105168 -0.00240376 -0.00702917 -0.00496733 0.00258165 0.00458686 0.0103375 0.0257451 -0.00692945
internal_weight=0 6762 5668 4743 3521 2407 486 1155 1094 1222 1114 1065 82 436 862 699 1921 925 996 983 992 371 344 925 628 935 626 287 74 929
internal_count=7917 6762 5668 4743 3521 2407 486 1155 1094 1222 1114 1065 82 436 862 699 1921 925 996 983 992 371 344 925 628 935 626 287 74 929
is_linear=0
shrinkage=0.1


Tree=16
num_leaves=31
num_cat=0
split_feature=1 2 1 1 2 0 4 2 3 4 1 3 2 3 4 2 3 4 0 2 4 4 2 2 3 2 1 3 1 3
split_gain=8.02786 3.5812 2.34213 2.30903 3.64655 2.30042 1.77104 1.80649 1.68679 1.43073 1.38739 1.3076 1.30027 1.26524 1.10614 1.10115 1.42942 1.18828 1.29412 1.08205 0.88491 0.825945 0.773532 0.742345 0.686184 0.666103 0.659839 0.658959 0.647455 0.622786
threshold=-1.3011385917311535 -2.7275047457241972 -2.2768802714742877 -1.7536688902799245 -1.8651533714101127 0.12024716463399233 1.5000000000000002 -2.0788887343094449 -2.865790693434946 2.5000000000000004 -0.88335643491098048 -4.2738053053753147 -2.2783010436446802 -1.3396986284597281 1.5000000000000002 -1.92592004229804 -2.1982965026318255 2.5000000000000004 -0.091727728571346465 -1.3539552399182844 3.5000000000000004 1.5000000000000002 -1.4415873221166795 -2.3010014372774248 -1.5444870588746407 -2.460321879938149 -1.4659403158343947 -1.386561393156305 -0.97207019852356202 -2.4369267659664851
decision_type=2 2 2 2 2 2 2 2 2 2 2 2 2 2 2 2 2 2 2 2 2 2 2 2 2 2 2 2 2 2
left_child=1 2 11 8 6 9 23 25 -3 -2 12 -1 -7 -9 -10 17 -17 18 -16 -14 29 -4 -6 -5 -18 -8 -24 -21 -11 -19
right_child=5 3 21 4 22 10 7 13 14 28 -12 -13 19 -15 15 16 24 20 -20 27 -22 -23 26 -25 -26 -27 -28 -29 -30 -31
leaf_value=0.021981914217273395 0.00023306528893614101 0.012924044348227866 0.010558720473628278 0.0042816438894910137 -0.0031546900574342799 0.018425163280832151 0.026027174146535499 0.0033156979513355601 -0.0086274199168037431 0.0086386422853037305 0.014812595333110114 0.00032422892572913736 0.0063166691036165542 -0.02122409910556268 0.023722235165969954 0.014529903381065065 -0.0093608559166123307 -0.0012793523998551478 0.001271787214032624 0.0073072197235887872 0.0089783462303161029 0.026128764553660797 -0.01725897372200148 -0.0059158306338314296 0.0079217399470508099 0.010387034042663399 -0.0047283444683961671 -0.012851105860434473 0.028240229122721679 -0.0066094123336831265
leaf_weight=30 861 52 87 105 1292 82 30 467 707 72 244 394 814 22 29 28 537 357 224 24 51 56 76 223 24 295 94 50 22 568
leaf_count=30 861 52 87 105 1292 82 30 467 707 72 244 394 814 22 29 28 537 357 224 24 51 56 76 223 24 295 94 50 22 568
internal_value=0 -0.0019561 0.00558911 -0.00278183 -0.00068171 0.0051838 0.00355239 0.0060522 -0.00490396 0.00151198 0.00807226 0.00185661 0.00637675 0.00221166 -0.00527111 -0.00396588 -0.00752092 -0.00226213 0.00384516 0.00526417 -0.00384527 0.0166561 -0.00398906 -0.0026514 -0.00862149 0.0118307 -0.0103303 -0.00631327 0.0132262 -0.0045523
internal_weight=0 5748 567 5181 2604 2169 1142 814 2577 955 1214 424 970 489 2525 1818 589 1229 253 888 976 143 1462 328 561 325 170 74 94 925
internal_count=7917 5748 567 5181 2604 2169 1142 814 2577 955 1214 424 970 489 2525 1818 589 1229 253 888 976 143 1462 328 561 325 170 74 94 925
is_linear=0
shrinkage=0.1


Tree=17
num_leaves=31
num_cat=0
split_feature=1 0 0 3 2 1 3 2 1 1 0 3 2 2 2 1 2 4 3 2 0 0 1 1 4 4 0 3 4 4
split_gain=6.72668 3.68102 1.50883 1.46708 1.4187 1.44461 1.96673 1.17069 1.33979 1.10085 1.05884 1.3414 1.12666 1.01893 1.00573 1.00466 0.971923 0.91179 1.72328 0.927095 0.842931 0.840798 0.77168 0.723504 0.684723 0.752574 0.959816 0.763161 0.671907 1.34825
threshold=-1.10724687844533 0.19395306450713731 1.1041609485418473 -1.2228694581305339 -3.3137001018641441 -1.5686335968527578 -1.4575422564894505 -2.0984977820727146 -2.0645314471736844 -0.64022442952969605 -0.026960510273097531 -2.815688183214732 -2.6746693509721875 -1.97427441381706 -1.5835263685937253 -1.4182946109134871 -1.8138662918144366 3.5000000000000004 -2.2818686938334802 -2.6876818837441117 0.13602787364883709 0.054460741554382519 -2.4548470912661347 -2.1602563932819319 1.5000000000000002 2.5000000000000004 0.65954309538212674 -1.9823873986006937 2.5000000000000004 1.5000000000000002
decision_type=2 2 2 2 2 2 2 2 2 2 2 2 2 2 2 2 2 2 2 2 2 2 2 2 2 2 2 2 2 2
left_child=1 4 14 16 -1 7 13 8 10 -5 23 12 20 -7 15 17 -2 19 -19 -3 -12 -13 -9 -6 -17 26 -26 -27 29 -21
right_child=3 2 -4 9 5 6 -8 22 -10 -11 11 21 -14 -15 -16 24 -18 18 -20 28 -22 -23 -24 -25 25 27 -28 -29 -30 -31
leaf_value=0.013028180331457407 0.013135882077945605 0.0064651136737455192 0.022271461358391927 -0.00051173380927362468 -0.0007483316388302865 0.0071478167108285267 -0.0048531129003083623 0.011423568040132524 0.0034410405060909741 0.02321253674370902 -0.0053376879386065543 -0.011470562703142971 0.021207362291618036 0.0002254716452097039 -0.0049602773091828572 -0.00013969960141806833 0.0062894516427627932 0.037090923776850103 0.0019303886619720446 -0.0037340666855058494 0.015021725457161664 -0.0039000341925195556 -0.006284556322707322 0.017473716515561809 0.009793531427134735 0.0096118828410560152 0.030461418069899084 -0.0034237214066304787 -0.0044213272588959308 0.0066337707212755495
leaf_weight=57 360 207 38 285 414 296 641 25 336 21 109 335 26 755 180 124 489 20 46 257 25 261 1573 23 222 94 25 86 342 245
leaf_count=57 360 207 38 285 414 296 641 25 336 21 109 335 26 755 180 124 489 20 46 257 25 261 1573 23 222 94 25 86 342 245
internal_value=0 -0.00120468 0.00254684 0.00705288 -0.00265575 -0.00284126 -0.000487506 -0.00411486 -0.00213679 0.0011164 -0.00370774 -0.00597278 0.00215704 0.00217506 0.00214125 0.0029076 0.00919253 0.0011839 0.0125851 0.000467938 -0.00153929 -0.00815528 -0.00600752 0.000210724 0.00640191 0.00830158 0.0118854 0.00338376 -0.00100293 0.00132593
internal_weight=0 6762 1886 1155 4876 4819 1692 3127 1529 306 1193 756 160 1051 1848 1668 849 1117 66 1051 134 596 1598 437 551 427 247 180 844 502
internal_count=7917 6762 1886 1155 4876 4819 1692 3127 1529 306 1193 756 160 1051 1848 1668 849 1117 66 1051 134 596 1598 437 551 427 247 180 844 502
is_linear=0
shrinkage=0.1


Tree=18
num_leaves=31
num_cat=0
split_feature=1 2 0 4 2 3 2 1 3 1 2 0 4 0 4 4 4 1 0 3 4 4 0 3 2 1 1 0 2 4
split_gain=5.45321 2.76143 2.25106 1.71483 1.60446 1.35258 1.55021 1.34632 1.11239 1.36688 1.9067 0.996067 0.94342 0.882365 0.867743 0.842983 0.839548 0.838665 0.861025 0.795995 0.697682 1.69484 1.04296 0.840757 0.615771 0.81056 1.00141 0.646874 0.610038 0.584684
threshold=-1.4619078021809195 -2.4718205601073913 0.022676760240362141 3.5000000000000004 -1.6275558452649348 -2.3869510123567896 -3.3137001018641441 -1.10724687844533 -2.6481711140569684 -1.9461828608569844 -1.8931058854084195 1.1041609485418473 2.5000000000000004 0.44099854128794419 1.5000000000000002 1.5000000000000002 1.5000000000000002 -3.0396927392518074 0.0040133388787562058 -2.3793049308394463 2.5000000000000004 3.5000000000000004 0.2080035547289483 -1.4975117656224175 -1.9324506814672213 -0.9461315580128159 -1.019633275177539 0.51205911755743083 -1.4415873221166795 1.5000000000000002
decision_type=2 2 2 2 2 2 2 2 2 2 2 2 2 2 2 2 2 2 2 2 2 2 2 2 2 2 2 2 2 2
left_child=1 3 12 5 11 6 17 -6 -3 14 15 16 -2 28 -10 -11 -4 18 -1 -17 22 23 -18 -22 -24 26 27 -26 -12 -7
right_child=2 8 4 -5 7 29 -8 -9 9 10 13 -13 -14 -15 -16 19 20 -19 -20 -21 21 -23 24 -25 25 -27 -28 -29 -30 -31
leaf_value=0.015040893429761275 -0.0017111822171447869 0.0099634964240440105 0.0011434019844540778 0.028213677018880848 -0.002996709779381245 0.0069568972745589139 -0.00097461690794229576 0.0056686209189814249 -0.010534522303071453 -0.0033781613377563582 -0.00450520384541359 0.023176557183064321 0.0087185212027785994 0.014258957180815438 -0.0047017247475839678 0.013979156045243144 0.0057680410926066643 0.025443419087395974 -0.0095978536152118918 0.0019420010233533993 -0.0021363145637291448 0.012643252659593131 0.018388500694547678 0.018719375166914517 0.01321327704936266 0.023315499409248958 -0.013279622950635495 -0.0019469457678496838 -0.013329029421687925 0.021825301897172869
leaf_weight=37 898 61 238 25 371 87 832 347 341 298 1165 37 96 24 1012 60 370 33 23 651 243 157 144 21 129 38 21 36 84 38
leaf_count=37 898 61 238 25 371 87 832 347 341 298 1165 37 96 24 1012 60 370 33 23 651 243 157 144 21 129 38 21 36 84 38
internal_value=0 -0.00213118 0.003232 0.00232974 0.00504997 0.00171345 0.000394069 0.00119113 -0.00342866 -0.0036534 -0.00216025 0.00698207 -0.000703887 -0.00473369 -0.00617178 0.00108652 0.00655316 0.0126387 0.00559604 0.00295779 0.00766405 0.00441561 0.00951715 -0.000477339 0.0132866 0.0100069 0.00728791 0.00990559 -0.00509864 0.0114769
internal_weight=0 4771 3146 1075 2152 1050 925 718 3696 3635 2282 1434 994 1273 1353 1009 1397 93 60 711 1159 421 738 264 368 224 186 165 1249 125
internal_count=7917 4771 3146 1075 2152 1050 925 718 3696 3635 2282 1434 994 1273 1353 1009 1397 93 60 711 1159 421 738 264 368 224 186 165 1249 125
is_linear=0
shrinkage=0.1


Tree=19
num_leaves=31
num_cat=0
split_feature=1 0 2 4 4 2 1 3 3 1 1 3 2 1 2 2 1 0 4 0 1 3 3 0 0 2 0 2 1 0
split_gain=4.63432 2.51238 1.23627 1.92121 1.33413 3.22334 1.19562 1.25678 1.09566 1.21359 1.20223 1.02261 0.962125 1.06008 0.906845 0.819763 0.768691 0.906488 0.766926 0.800877 0.668561 0.664445 0.624071 0.591743 0.589186 0.578858 0.567172 0.543199 0.789465 0.793687
threshold=-1.10724687844533 0.33047412171019147 -1.5950891424957485 1.5000000000000002 2.5000000000000004 -2.4314278953679538 -0.71407281844984949 -1.1750403249192722 -2.6018911069556734 -1.6664200299067276 -2.4083450595067473 -3.4062852187635131 -2.1353264801335672 -2.2531664264288618 -3.2125772459903099 -1.60292292293545 -1.8834263246553429 -0.067585234146712234 3.5000000000000004 0.58744663169612821 -1.1497227856797683 -1.8237888588238089 -1.8737649403830521 0.01916756604163539 -0.034461308010120366 -1.8138662918144366 -0.20160372056294959 -2.0984977820727146 -1.9461828608569844 -0.14861964952460358
decision_type=2 2 2 2 2 2 2 2 2 2 2 2 2 2 2 2 2 2 2 2 2 2 2 2 2 2 2 2 2 2
left_child=1 2 3 14 5 -5 7 25 10 -10 -6 -3 -7 -14 -1 16 17 -15 20 -20 -13 22 -18 24 -19 -2 -4 28 -16 -30
right_child=6 11 26 4 8 12 -8 -9 9 -11 -12 18 13 15 27 -17 21 23 19 -21 -22 -23 -24 -25 -26 -27 -28 -29 29 -31
leaf_value=0.011740908061619849 0.0098421625936343515 0.021915211499636544 0.0076829633985956505 0.026419798392229354 0.00089950401674379989 0.008450828388719479 0.015624226295786903 -0.0021181367876817519 -0.0049433658178719923 0.0021305433371144088 0.019522020128818277 0.0015170590873536242 0.020053562597820054 0.013949898204633169 -0.0055099674711551949 0.014984898445092971 0.0018642812442552861 -0.0036264688626082768 0.0058169830470056888 0.027537501651871327 0.013618047352065333 -0.00074112089971355903 0.011462670631686246 -0.0025276415194384755 -0.019723098469361412 0.0044328341076992029 -0.0056672738840568594 -0.0082635314880720578 -0.011449633660772517 0.0042780313595810401
leaf_weight=33 324 29 33 52 312 164 113 210 1043 316 39 935 27 21 602 36 265 37 58 24 48 959 91 100 59 508 892 367 39 181
leaf_count=33 324 29 33 52 312 164 113 210 1043 316 39 935 27 21 602 36 265 37 58 24 48 959 91 100 59 508 892 367 39 181
internal_value=0 -0.000999921 -0.00184676 -0.00119455 -8.87894e-06 0.00188261 0.00585409 0.00479456 -0.00201209 -0.00329851 0.00296867 0.00338752 0.00115724 0.000407302 -0.00461087 6.90054e-05 -0.000281499 -0.00579566 0.00288301 0.0121742 0.00210795 0.000628443 0.0043178 -0.00791126 -0.0135192 0.00653935 -0.005191 -0.0050647 -0.00363651 0.00148995
internal_weight=0 6762 5668 4743 3521 1811 1155 1042 1710 1359 351 1094 1759 1595 1222 1568 1532 217 1065 82 983 1315 356 196 96 832 925 1189 822 220
internal_count=7917 6762 5668 4743 3521 1811 1155 1042 1710 1359 351 1094 1759 1595 1222 1568 1532 217 1065 82 983 1315 356 196 96 832 925 1189 822 220
is_linear=0
shrinkage=0.1


Tree=20
num_leaves=31
num_cat=0
split_feature=1 2 2 1 0 1 0 3 1 0 3 4 2 4 2 4 4 0 2 1 1 3 2 3 3 2 4 0 2 1
split_gain=3.81871 2.09569 1.72273 1.68957 1.18429 1.08328 1.01264 1.26298 1.1924 0.960705 0.911173 0.801574 0.758132 0.752996 0.951084 0.741749 0.939994 1.1179 0.892873 0.730115 0.673223 0.662306 0.573027 0.63992 0.958765 0.564092 0.55743 0.555243 0.554063 0.62028
threshold=-1.4043399714476512 -2.8603432112534182 -2.1187107520184925 -0.74189691055359852 0.040946887671849841 -2.2859533467138502 -0.034461308010120366 -1.6644625328609264 -1.7060994542456134 -0.013744781081510555 -1.0717828831045393 1.5000000000000002 -1.9398254497126806 3.5000000000000004 -1.8651533714101127 1.5000000000000002 2.5000000000000004 -0.23432760362917429 -2.2182774266018952 -1.0359516224755458 -1.7469653263691438 -4.2738053053753147 -1.4834919035313132 -1.4165072809123436 -1.4914443610702051 -1.881840024550566 1.5000000000000002 0.010360520035266552 -1.7593501697442977 -1.211827441791308
decision_type=2 2 2 2 2 2 2 2 2 2 2 2 2 2 2 2 2 2 2 2 2 2 2 2 2 2 2 2 2 2
left_child=1 5 -2 10 6 21 7 15 -8 12 19 -7 -10 -6 -15 -3 17 -17 -18 22 25 -1 26 24 -24 -20 -4 -25 -28 -30
right_child=2 4 3 -5 13 11 8 -9 9 -11 -12 -13 -14 14 -16 16 18 -19 20 -21 -22 -23 23 27 -26 -27 28 -29 29 -31
leaf_value=0.016388899516314268 0.0093581329629571271 -0.0045906005350110184 -0.0039126096416728477 0.013476205742288166 -0.00097956162437504656 0.0080469209754812556 -0.0079164776209680824 -0.006954862246540381 0.0088986066030338398 0.0023058406457948876 -0.0058306594104736032 0.026996097578243779 -0.012562643853516908 0.011575408261195025 -0.012439609337598086 0.025796365006654349 0.0039266150233743247 0.0043207062608739246 -0.0047177174063005919 0.0051199204690265347 0.0064515108923660601 0.00074392909713872322 -0.0040228537985068915 -0.00095008847927073809 0.013428470980841668 -0.017459516852851149 0.0048816508247117064 -0.011658872409359471 -0.0023127051216624349 0.0043312629595796655
leaf_weight=30 367 243 149 122 2131 69 830 342 20 256 162 33 93 94 20 27 192 237 142 542 40 276 85 93 50 46 546 101 339 240
leaf_count=30 367 243 149 122 2131 69 830 342 20 256 162 33 93 94 20 27 192 237 142 542 40 276 85 93 50 46 546 101 339 240
internal_value=0 -0.00162282 0.00297226 0.00200741 -0.00221802 0.0052527 -0.0037299 -0.00176096 -0.00581379 -0.00108417 0.00140091 0.0141775 -0.00876419 -0.000555969 0.00736225 0.000155243 0.00184127 0.00651708 -0.00109782 0.00194707 -0.00532892 0.00227775 0.000874283 -0.00284627 0.0024406 -0.00783539 0.00183509 -0.00652528 0.00259634 0.000441271
internal_weight=0 5121 2796 2429 4713 408 2468 1269 1199 369 2307 102 113 2245 114 927 684 264 420 2145 228 306 1603 329 135 188 1274 194 1125 579
internal_count=7917 5121 2796 2429 4713 408 2468 1269 1199 369 2307 102 113 2245 114 927 684 264 420 2145 228 306 1603 329 135 188 1274 194 1125 579
is_linear=0
shrinkage=0.1


Tree=21
num_leaves=31
num_cat=0
split_feature=1 4 3 2 0 0 0 2 1 3 2 4 0 4 4 3 2 1 1 0 3 1 2 0 4 4 2 3 1 1
split_gain=3.14434 1.79743 2.04984 1.29708 1.21328 1.0396 0.823555 0.792282 0.862148 0.912263 0.843903 0.887711 0.819649 0.74669 0.7349 0.849593 0.718298 0.726869 0.685059 0.713661 0.631368 0.748074 0.626516 0.622636 0.517365 0.511289 0.511212 0.506625 0.456898 0.438562
threshold=-1.200995985013388 3.5000000000000004 -2.3275884538916816 -3.3137001018641441 0.036921600864316957 0.4664364050854945 -0.13777463199804049 -1.6495441928916212 -1.6541008972346678 -2.6018911069556734 -2.2855848940754449 1.5000000000000002 0.050385119979629363 2.5000000000000004 2.5000000000000004 -1.7990650201810776 -1.4878636494803341 -1.019633275177539 -3.0396927392518074 0.0040133388787562058 -1.5500627932440418 -1.8973314553739793 -1.7677227559122064 -0.026960510273097531 1.5000000000000002 3.5000000000000004 -2.633171255114843 -1.1750403249192722 -1.9058504254646673 -0.71407281844984949
decision_type=2 2 2 2 2 2 2 2 2 2 2 2 2 2 2 2 2 2 2 2 2 2 2 2 2 2 2 2 2 2
left_child=1 3 -3 18 6 16 24 8 9 28 -10 22 -9 -7 15 -13 23 -18 19 -1 21 -4 -12 -2 -5 -15 -11 -26 -6 -19
right_child=5 2 20 4 7 13 -8 12 10 26 11 14 -14 25 -16 -17 17 29 -20 -21 -22 -23 -24 -25 27 -27 -28 -29 -30 -31
leaf_value=0.012230440400339463 -0.00075847874120928539 0.028933715860585907 -0.0093372036206225556 -0.0050928765008090224 0.002125577924212215 0.012735590303436586 -0.0036656595844640201 0.014361251862314734 0.0096425956559057051 0.0090592288840058693 -0.0074151248619638288 0.009191393308962386 -0.0050194030374555278 -0.0019533005898119886 -0.0019331175787972773 0.0012721090014235123 -0.0053788691112049737 0.0015773679118137808 0.021080815429902741 -0.010200990424693926 -0.012984166152420498 0.0077756761829098041 0.0097087370716035376 0.0056441127819709322 0.0045212317685261096 0.010783890833576712 -0.0028959093279287522 -0.011599436207186609 0.01536314086323338 0.016241733986965341
leaf_weight=37 195 37 30 96 379 202 2517 23 150 37 147 255 426 80 214 289 189 180 36 23 21 172 25 687 272 52 1074 21 28 23
leaf_count=37 195 37 30 96 379 202 2517 23 150 37 147 255 426 80 214 289 189 180 36 23 21 172 25 687 272 52 1074 21 28 23
internal_value=0 -0.00100611 0.00713531 -0.00135605 -0.00154201 0.00394749 -0.00300385 -0.000147807 0.000522552 -0.001014 0.00268226 0.00155963 -0.00402663 0.00891344 0.00303134 0.00498427 0.00264559 -0.000916123 0.0101751 0.00363173 0.00351853 0.00523416 -0.00492619 0.00422857 0.00127833 0.00306438 -0.00249776 0.00336583 0.00303627 0.00323885
internal_weight=0 6309 260 6049 5953 1608 2906 3047 2598 1518 1080 930 449 334 758 544 1274 392 96 60 223 202 172 882 389 132 1111 293 407 203
internal_count=7917 6309 260 6049 5953 1608 2906 3047 2598 1518 1080 930 449 334 758 544 1274 392 96 60 223 202 172 882 389 132 1111 293 407 203
is_linear=0
shrinkage=0.1


Tree=22
num_leaves=31
num_cat=0
split_feature=1 2 2 3 1 3 1 3 3 1 3 2 4 1 2 1 3 4 2 4 4 1 2 0 0 2 3 0 0 0
split_gain=2.67847 1.47109 1.2789 1.20703 0.962495 0.826512 0.957839 0.811771 0.775299 0.727463 1.28631 0.751226 0.717602 0.606625 0.631742 0.547312 0.757182 0.543956 0.622198 0.539404 0.575951 0.732329 0.716652 0.593994 0.52227 0.642088 0.786199 0.627942 0.516027 0.515124
threshold=-1.4619078021809195 -2.4718205601073913 -2.0183032016309306 -2.3869510123567896 -0.88335643491098048 -3.0161974266254323 -1.8274363572129577 -2.6481711140569684 -1.3696599290682305 -1.9461828608569844 -2.1169366323944572 -2.0048708088243541 3.5000000000000004 -2.5359682539356823 -2.230644843399515 -3.0396927392518074 -3.4062852187635131 1.5000000000000002 -1.4190358539961665 1.5000000000000002 2.5000000000000004 -2.295642172817657 -2.2237472308990456 -0.04666490797006128 0.007392558862787996 -2.348198748975495 -2.4484960613597617 -0.029184824558249101 0.020949148564735398 -0.0064581187666651286
decision_type=2 2 2 2 2 2 2 2 2 2 2 2 2 2 2 2 2 2 2 2 2 2 2 2 2 2 2 2 2 2
left_child=1 3 8 5 17 15 -7 -3 -2 13 -11 -12 -6 14 -9 -1 -17 -4 28 -15 21 -21 -23 -24 27 -26 -27 -22 -19 -25
right_child=2 7 4 -5 12 6 -8 9 -10 10 11 -13 -14 19 -16 16 -18 18 -20 20 24 22 23 29 25 26 -28 -29 -30 -31
leaf_value=0.00091163970338063467 0.0071345812158183364 0.0089996943685424612 -0.004631307237642877 0.010680073155422829 0.0048637955807980231 -0.0026444654755499557 0.010608097253522526 -0.0015593341499676599 -0.0075938320485875012 0.0038976992737527376 0.0013440981460016959 -0.0035781104412846276 0.020904293429527071 -0.0086778787820736714 0.016253585207204407 0.025395686585456136 0.0060659759501691599 -0.00061974427908369266 -0.0028117066372904749 0.012809414607592119 -0.0048382589045522506 0.015413289188983895 0.0077001548265772215 -0.014715841025078917 -0.012523643034933644 0.014882774323481937 -0.0024900211155909346 -0.013737953870784581 0.0030911195475143956 -0.0025422766330965452
leaf_weight=151 601 61 188 133 278 599 60 85 38 365 389 1528 31 315 26 25 107 573 354 39 211 21 35 53 55 29 256 127 1083 101
leaf_count=151 601 61 188 133 278 599 60 85 38 365 389 1528 31 315 26 25 107 573 354 39 211 21 35 53 55 29 256 127 1083 101
internal_value=0 -0.00149361 0.00226511 0.00176233 0.00124719 0.000503249 -0.00143786 -0.00244062 0.00625871 -0.0026326 -0.00154331 -0.00257929 0.00647304 -0.00446983 0.00261306 0.00502335 0.00972691 0.000512529 0.000993644 -0.00510284 -0.00388802 0.000225069 -0.00211202 -0.00405928 -0.00539858 -0.00263131 -0.000722263 -0.00818223 0.00180711 -0.00673188
internal_weight=0 4771 3146 1075 2507 942 659 3696 639 3635 2282 1917 309 1353 111 283 132 2198 2010 1242 927 249 210 189 678 340 285 338 1656 154
internal_count=7917 4771 3146 1075 2507 942 659 3696 639 3635 2282 1917 309 1353 111 283 132 2198 2010 1242 927 249 210 189 678 340 285 338 1656 154
is_linear=0
shrinkage=0.1


Tree=23
num_leaves=31
num_cat=0
split_feature=1 0 4 2 4 2 3 4 1 3 4 3 3 3 3 0 3 3 2 0 2 0 0 1 1 3 1 0 2 1
split_gain=2.22818 1.25495 1.00478 1.31974 1.21452 2.93233 0.829948 0.72947 0.675747 0.700954 0.664978 1.65079 0.835452 0.711645 0.775567 0.598633 0.614426 0.596264 0.902176 0.595773 0.579792 0.574847 0.688644 0.560505 0.546396 0.596843 0.528654 0.528202 0.518621 0.796188
threshold=-1.10724687844533 0.57468844696435195 1.5000000000000002 -1.5950891424957485 2.5000000000000004 -2.3010014372774248 -2.6905282911413253 3.5000000000000004 -0.64022442952969605 -1.0717828831045393 3.5000000000000004 -1.5606965957949752 -2.3275884538916816 -2.6018911069556734 -1.625030141466733 -0.11891206750655213 -1.1750403249192722 -2.5658686106559636 -2.5506829610983508 -0.073325383104285588 -2.611790710006082 0.19755080983434206 0.21537128679619702 -1.3317476126598715 -1.6023770799092192 -1.4003232489422366 -2.295642172817657 0.13469857389745635 -1.7335633431418092 -1.4297650733520157
decision_type=2 2 2 2 2 2 2 2 2 2 2 2 2 2 2 2 2 2 2 2 2 2 2 2 2 2 2 2 2 2
left_child=1 2 6 4 5 -4 19 8 9 -2 13 12 -12 -6 -15 16 23 -8 -19 -1 27 26 -23 -5 -17 -26 -7 -21 29 -16
right_child=7 -3 3 15 10 21 17 -9 -10 -11 11 -13 -14 14 28 24 -18 18 -20 20 -22 22 -24 -25 25 -27 -28 -29 -30 -31
leaf_value=0.015694108634704242 0.0037911932707153152 0.0047541783819409168 0.019059077027367848 0.00145869956841358 0.001704343661741557 0.012584086746376542 -0.012719389976913723 0.012267021087440428 0.015567810543228028 -0.0039978177368525363 0.022466991648629864 -0.023348150171694303 0.003743157659317803 -0.0037068013799448334 6.4912114612525326e-05 -0.0091263620872581146 -0.0087805392384460133 0.0050300612601505831 -0.0048004447762938938 -0.0054340175210126941 0.014511571191251278 0.015459481852415663 0.0030955795606996215 0.020202065372224617 -0.00078862584979704972 -0.0069878874997608368 0.00014913684242775949 0.004460602485132666 -0.0037100986291009651 0.027943783767876176
leaf_weight=27 880 398 98 39 394 35 82 99 43 133 27 21 203 1244 20 198 27 103 997 137 25 52 337 27 410 250 1475 89 26 21
leaf_count=27 880 398 98 39 394 35 82 99 43 133 27 21 203 1244 20 198 27 103 997 137 25 52 337 27 410 250 1475 89 26 21
internal_value=0 -0.000693344 -0.00103403 -0.000348426 0.000456205 0.00219094 -0.0033369 0.00405921 0.00328973 0.00276855 -0.0013149 0.00349067 0.00594117 -0.00202234 -0.00314234 -0.00369302 0.00392764 -0.00449318 -0.00387995 0.00157936 6.10458e-05 0.00132044 0.00474834 0.00912644 -0.00451903 -0.00313683 0.000437364 -0.00153746 0.00733814 0.0143443
internal_weight=0 6762 6364 4904 3953 1997 1460 1155 1056 1013 1956 251 230 1705 1311 951 93 1182 1100 278 251 1899 389 66 858 660 1510 226 67 41
internal_count=7917 6762 6364 4904 3953 1997 1460 1155 1056 1013 1956 251 230 1705 1311 951 93 1182 1100 278 251 1899 389 66 858 660 1510 226 67 41
is_linear=0
shrinkage=0.1


Tree=24
num_leaves=31
num_cat=0
split_feature=1 2 1 2 2 0 3 3 3 3 3 1 0 4 0 3 2 0 2 1 3 3 1 1 0 2 4 2 0 3
split_gain=1.89586 1.57618 1.06563 1.00494 0.795496 0.756639 0.735369 0.724303 0.671022 0.552732 0.55227 0.733788 0.542385 0.524691 0.93751 0.838383 0.889274 0.707745 0.684354 0.870489 0.817251 0.803311 0.63828 0.627417 0.598865 0.512607 0.506975 0.711799 0.713555 0.551013
threshold=-1.554371309139823 -2.2182774266018952 -0.78819664514490728 -2.535569328302993 -1.4834919035313132 -0.011483327254233395 -2.6601038449302705 -2.6018911069556734 -2.3960919149803659 -2.3275884538916816 -3.4062852187635131 -3.0923299161887647 -0.048248785818531641 1.5000000000000002 0.4010610969723844 -2.3275884538916816 -2.2085380523430929 0.30169560772515963 -1.8138662918144366 -2.1711701802870622 -2.0961236042030422 -1.9927905070910419 -2.3780414905280121 -2.5675816785496957 -0.10434748965594258 -1.5087126595336808 2.5000000000000004 -2.1187107520184925 0.1853816005502095 -2.4274801116932383
decision_type=2 2 2 2 2 2 2 2 2 2 2 2 2 2 2 2 2 2 2 2 2 2 2 2 2 2 2 2 2 2
left_child=3 7 4 8 5 -3 -5 -2 10 -10 11 12 -1 15 17 16 -8 18 19 23 -20 26 -17 -15 -25 -7 27 -21 -29 -28
right_child=1 2 -4 6 -6 25 13 -9 9 -11 -12 -13 -14 14 -16 22 -18 -19 20 21 -22 -23 -24 24 -26 -27 29 28 -30 -31
leaf_value=0.013745813028743635 0.020340817470458294 -0.0015361306820818686 0.0083330016158069294 0.0069056557852994003 -0.0024889749692545808 0.0020504911016382839 -0.01310252366746268 0.0063419058541926048 0.023340312735703979 0.0049748968341175401 -0.00029661203172909513 0.022146596716573607 -0.0046321368066682706 0.0045289482340758929 0.0067260937757606873 0.01419481368114551 0.0092253163922578103 -0.010862351636625016 0.012424652371555567 0.019498740473415616 -0.0049812202287398428 -0.001917387261139533 -0.0035837573603064729 0.0081491531891515478 -0.0060017990015005934 0.01038322164737559 0.014995960219364083 0.0011307056732127599 0.019895277088508009 0.00029709650304533179
leaf_weight=26 42 664 186 85 680 1791 165 308 23 57 713 26 42 79 122 21 20 92 28 43 737 429 526 32 457 77 28 107 25 286
leaf_count=26 42 664 186 85 680 1791 165 308 23 57 713 26 42 79 122 21 20 92 28 43 737 429 526 32 457 77 28 107 25 286
internal_value=0 0.00163207 0.000973921 -0.00146726 0.000547772 0.00136333 -0.0022744 0.00802178 0.00151924 0.010255 0.000653245 0.00785801 0.00239473 -0.00251847 -0.00182035 -0.00486937 -0.0106887 -0.00226537 -0.001914 -0.000662955 -0.00434414 0.00124086 -0.00290122 -0.0037399 -0.00507577 0.00239397 0.00401159 0.00832465 0.0046846 0.00160782
internal_weight=0 3748 3398 4169 3212 2532 3282 350 887 80 807 94 68 3197 2465 732 185 2343 2251 1486 765 918 547 568 489 1868 489 175 132 314
internal_count=7917 3748 3398 4169 3212 2532 3282 350 887 80 807 94 68 3197 2465 732 185 2343 2251 1486 765 918 547 568 489 1868 489 175 132 314
is_linear=0
shrinkage=0.1


Tree=25
num_leaves=31
num_cat=0
split_feature=4 1 3 2 4 4 2 2 3 1 3 2 1 0 4 1 2 0 0 2 1 3 2 2 3 4 2 3 2 2
split_gain=1.66952 1.39323 1.21768 0.758089 0.744195 1.384 2.43825 1.31029 0.694587 0.671653 0.658308 0.613459 1.0696 0.585509 0.857122 0.557012 0.525536 0.494338 0.492118 0.604154 0.685818 0.489459 0.585106 0.500646 0.466727 0.431342 0.416699 0.934814 0.369263 0.368389
threshold=3.5000000000000004 -1.3011385917311535 -2.353582233462459 -1.5950891424957485 1.5000000000000002 2.5000000000000004 -2.3010014372774248 -3.4812288739675701 -2.5812169788687034 -1.0130426496634091 -1.4575422564894505 -2.0470730665373478 -2.2302682704955568 0.49088122792803512 2.5000000000000004 -1.9461828608569844 -2.0470730665373478 -0.10434748965594258 0.51205911755743083 -2.0228690017558018 -0.81024606650120956 -1.3490494269587197 -1.60292292293545 -1.9435393719461735 -1.0717828831045393 1.5000000000000002 -1.789057875248421 -1.7359586158684173 -1.6275558452649348 -2.2783010436446802
decision_type=2 2 2 2 2 2 2 2 2 2 2 2 2 2 2 2 2 2 2 2 2 2 2 2 2 2 2 2 2 2
left_child=1 3 -2 4 7 6 -6 -1 -7 10 16 -8 -13 24 18 -14 29 -10 -15 -20 25 22 23 -17 -3 -21 -27 -28 -25 -4
right_child=2 13 9 -5 5 8 11 -9 17 -11 -12 12 15 14 -16 21 -18 -19 19 20 -22 -23 -24 28 -26 26 27 -29 -30 -31
leaf_value=0.018428942406999656 0.023161460287295856 0.0017380148799534879 -0.00070314560644328596 -0.0042805818258140824 0.016283927512101896 0.0015498089125338063 0.0056600932657485835 -0.0030439615565919409 0.0029553215226802878 0.012981360467352175 -0.015223259627819062 0.023192580174654726 -0.0061124136801336661 0.023929766155779363 -0.0023070805760002449 0.0057131306974255421 0.00019224268150009954 -0.003657759267623989 0.013976878013239581 -0.011104917815989919 0.018221314623951913 -0.008171358733282735 0.016887775071613167 0.00034940438293599703 -0.0036930927293148882 0.015613576582455563 -0.017158064762638373 0.0087440445449350306 -0.0078424644688049622 0.013521446352268554
leaf_weight=29 39 1492 25 678 114 445 250 1415 125 74 20 20 138 20 95 171 162 1181 88 27 25 60 23 817 177 21 22 38 59 67
leaf_count=29 39 1492 25 678 114 445 250 1415 125 74 20 20 138 20 95 171 162 1181 88 27 25 60 23 817 177 21 22 38 59 67
internal_value=0 -0.00032921 0.00640557 -0.00114863 -0.000710528 9.66314e-05 0.00217286 -0.00261272 -0.00186221 0.00452775 0.00224466 0.00112692 0.000247033 0.00192878 0.00573741 -0.000114884 0.00362008 -0.00302481 0.00890847 0.00754908 0.0032961 0.000617558 0.00111039 0.000763805 0.00116204 -0.000158809 0.00348989 -0.000753396 -0.000202331 0.00965607
internal_weight=0 7530 387 5525 4847 3403 1652 1444 1751 348 274 1538 1288 2005 336 1268 254 1306 241 221 133 1130 1070 1047 1669 108 81 60 876 92
internal_count=7917 7530 387 5525 4847 3403 1652 1444 1751 348 274 1538 1288 2005 336 1268 254 1306 241 221 133 1130 1070 1047 1669 108 81 60 876 92
is_linear=0
shrinkage=0.1


Tree=26
num_leaves=31
num_cat=0
split_feature=0 1 0 4 3 2 2 1 0 2 4 1 1 0 0 1 3 0 4 4 1 1 3 1 0 0 4 0 2 1
split_gain=1.3647 1.04494 0.629886 0.600386 0.627898 0.539222 0.452889 0.756718 0.492075 0.601576 0.565546 0.526209 0.480293 0.534532 0.695693 0.464913 0.468893 0.458586 0.439526 0.500437 0.430329 0.414896 1.04769 0.449055 0.414342 0.489977 0.41138 0.574682 0.516638 0.467205
threshold=0.020949148564735398 -1.10724687844533 -0.13777463199804049 3.5000000000000004 -2.3275884538916816 -2.9331703961381996 -1.8009364968921988 -1.6541008972346678 0.11256752774495339 -2.2855848940754449 1.5000000000000002 -1.615191828772836 -1.5686335968527578 0.06710663302461907 0.12828412123699176 -1.3799239611111103 -1.9517498421652901 0.45769343291907005 2.5000000000000004 1.5000000000000002 -1.4619078021809195 -3.2852106238791552 -3.4062852187635131 -2.8327847020275274 0.17439288185825888 0.094021036763487623 1.5000000000000002 0.054460741554382519 -2.8273305139889526 -2.6359860836923792
decision_type=2 2 2 2 2 2 2 2 2 2 2 2 2 2 2 2 2 2 2 2 2 2 2 2 2 2 2 2 2 2
left_child=2 3 5 6 -5 -1 7 21 -9 18 15 -12 -8 -14 -15 17 -17 -11 19 -10 -13 -2 -23 -24 25 -6 27 -25 -28 -29
right_child=1 -3 -4 4 24 -7 12 8 9 10 11 20 13 14 -16 16 -18 -19 -20 -21 -22 22 23 26 -26 -27 28 29 -30 -31
leaf_value=0.015057108601363976 -0.014162044650451703 0.0042299729494130337 -0.0022014681356705558 0.019370387854247259 0.0005109233160813649 0.00080395770673503128 -0.0049065099024379949 0.0074160871788712564 0.0062726180663609764 -0.016354731392736237 0.013954288328864745 -0.0038834724696587865 0.005774104360283288 -0.0072459125395816495 0.00038189767353173924 -0.0095729238755101788 0.0065321533581785239 0.00057501384483960765 -0.0028096235548967824 0.020586447620933708 0.0032616215318144919 0.020851310872999226 0.0077524618031915103 -0.01235060338617959 6.3368435458917372e-05 0.020148397250859828 0.010723810282846294 -0.013153310893103481 -0.00026282483695094056 -0.0011458804838900675
leaf_weight=28 22 865 2699 29 24 510 314 203 94 48 35 119 123 156 512 29 48 24 34 33 289 23 61 61 114 27 45 35 876 437
leaf_count=28 22 865 2699 29 24 510 314 203 94 48 35 119 123 156 512 29 48 24 34 33 289 23 61 61 114 27 45 35 876 437
internal_value=0 0.00109191 -0.00157867 0.000380398 0.00580018 0.00154576 9.00261e-05 0.000831178 0.00304654 0.00186856 0.000394556 0.00218708 -0.00159752 -0.000283964 -0.00139945 -0.00493489 0.000466605 -0.0107115 0.00728852 0.00999196 0.00117764 -0.000526442 -0.000331395 -0.00065298 0.00341511 0.0109072 -0.00100562 -0.0032167 0.000273981 -0.00203626
internal_weight=0 4680 3237 3815 194 538 3621 2516 956 753 592 443 1105 791 668 149 77 72 161 127 408 1560 1538 1515 165 51 1454 533 921 472
internal_count=7917 4680 3237 3815 194 538 3621 2516 956 753 592 443 1105 791 668 149 77 72 161 127 408 1560 1538 1515 165 51 1454 533 921 472
is_linear=0
shrinkage=0.1


Tree=27
num_leaves=31
num_cat=0
split_feature=4 1 3 2 1 3 2 3 0 2 0 0 3 1 3 0 1 2 2 2 3 1 2 4 0 3 4 3 0 0
split_gain=1.19399 0.967978 0.850511 0.641301 1.10461 0.924671 0.948195 0.722491 0.808544 0.630301 0.620266 0.580481 0.620959 0.548253 0.672104 0.518776 0.477597 0.489381 0.480408 0.415392 0.463149 0.458359 0.414948 0.407475 0.719446 0.58979 0.521405 0.802021 0.381758 0.366063
threshold=3.5000000000000004 -1.4619078021809195 -2.353582233462459 -2.3010014372774248 -1.9798861337944429 -2.4484960613597617 -2.2182774266018952 -2.6601038449302705 -0.0034468539739502748 -2.4494755927766927 1.1041609485418473 0.054460741554382519 -2.353582233462459 -1.072491493755934 -1.5040541154089395 -0.20160372056294959 -1.8973314553739793 -1.7677227559122064 -1.9222288767195763 -1.8009364968921988 -1.1276600790409106 -0.64022442952969605 -2.6534617595320458 2.5000000000000004 -0.10434748965594258 -1.6147317454838415 1.5000000000000002 -1.8100910189157182 0.073383726461132573 -0.077410570732663872
decision_type=2 2 2 2 2 2 2 2 2 2 2 2 2 2 2 2 2 2 2 2 2 2 2 2 2 2 2 2 2 2
left_child=1 3 -2 4 7 6 -5 9 -9 -1 19 12 -10 14 16 -7 -4 18 29 20 23 -21 -13 24 -3 -25 -26 -28 -24 -18
right_child=2 10 13 5 -6 15 -8 8 11 -11 -12 22 -14 -15 -16 -17 17 -19 -20 21 -22 -23 28 25 26 -27 27 -29 -30 -31
leaf_value=0.0005989418439160272 0.019420712078228975 -0.0041296116103801657 -0.0087111141035954159 -0.002049979346609393 0.0056178601696807049 0.0065208829045653926 0.019205075625341569 0.00083603465165465313 -0.018553214778762258 0.014979553589364515 0.014376684668074761 0.0091614546342974612 0.00081000510941852235 0.010670207312531686 -0.015184286710890858 -0.0025121842055671477 -0.0052377463632222758 0.015387988517371318 -0.0053526529304261487 -0.00018312069409496807 -0.0091886872312787801 0.012493559050951796 0.0065270593693560882 -0.0033761153703997446 0.00090417114128339172 0.011576352176076223 0.011792513397968118 0.0037224300422070478 -0.00715470287114537 0.0088082212911103856
leaf_weight=641 39 102 30 43 329 65 41 234 67 32 35 21 22 88 22 2907 23 36 53 1734 33 29 23 177 239 31 188 357 180 96
leaf_count=641 39 102 30 43 329 65 41 234 67 32 35 21 22 88 22 2907 23 36 53 1734 33 29 23 177 239 31 188 357 180 96
internal_value=0 -0.000278406 0.00541704 -0.00118202 0.00047553 -0.00202219 0.00832451 -0.000911213 -0.00361051 0.00128272 0.00114421 -0.00693476 -0.0137668 0.00384767 0.0015385 -0.00231462 0.00308431 0.00478557 0.00256646 0.000983954 0.00248345 2.5401e-05 -0.00422024 0.00283553 0.00377063 -0.00114762 0.00479847 0.00650624 -0.00560455 0.00609345
internal_weight=0 7530 387 4605 1549 3056 84 1220 547 673 2925 313 89 348 260 2972 238 208 172 2890 1127 1763 224 1094 886 208 784 545 203 119
internal_count=7917 7530 387 4605 1549 3056 84 1220 547 673 2925 313 89 348 260 2972 238 208 172 2890 1127 1763 224 1094 886 208 784 545 203 119
is_linear=0
shrinkage=0.1


Tree=28
num_leaves=31
num_cat=0
split_feature=1 4 3 2 2 1 2 4 4 2 0 0 0 1 2 3 2 1 3 3 0 2 3 2 3 3 0 2 3 2
split_gain=0.983425 0.663744 0.712907 0.552393 0.537264 0.534335 0.494884 0.715818 1.27434 1.83628 0.494195 0.415974 0.411652 0.451096 0.427588 0.407674 0.562822 0.52402 0.480332 0.441814 0.396307 0.385541 0.400846 0.702525 0.583651 0.522757 0.464051 0.435702 0.385119 0.378374
threshold=-1.1875871578354289 3.5000000000000004 -2.2818686938334802 -4.0914526374025444 -2.1246187811791519 -0.74189691055359852 -1.5950891424957485 1.5000000000000002 2.5000000000000004 -2.3010014372774248 0.41723818738027479 0.37751838633038137 -0.16108960701431271 -1.8973314553739793 -1.7677227559122064 -2.4484960613597617 -2.2182774266018952 -2.1390160388712269 -1.625030141466733 -2.6018911069556734 0.64179257918849775 -2.5241070037061375 -1.8883189614717446 -2.0837313575508705 -1.7920024530334595 -1.9450223339477251 0.22497854534442344 -1.7929192387477453 -1.1750403249192722 -2.319031866832423
decision_type=2 2 2 2 2 2 2 2 2 2 2 2 2 2 2 2 2 2 2 2 2 2 2 2 2 2 2 2 2 2
left_child=1 3 -3 -1 -2 28 7 21 9 -9 11 -11 -4 -14 -15 16 17 19 20 -10 -17 -5 25 -24 26 -23 -25 -26 -6 -21
right_child=4 2 12 6 5 -7 -8 8 15 10 -12 -13 13 14 -16 18 -18 -19 -20 29 -22 22 23 24 27 -27 -28 -29 -30 -31
leaf_value=0.012342370048281738 0.007286619542591165 0.016478907365760791 -0.01155669577419758 -4.4835669360684596e-05 0.0018171973255329565 0.007856289636461079 -0.0030608738171023844 0.014157411195653474 0.00010514976534266128 0.0010821778904029596 0.0080060302447165967 -0.010798623474935692 -0.0078400022660692539 0.0033051443241587648 0.017003782031436761 -0.0028208460258844861 0.015482878988647523 0.0062521675592731862 0.0060066808353440139 -0.010106019579923187 -0.013080296350213197 -0.0038601303001678036 0.0075294029535498564 -0.0011479582468217071 -0.01118081068723566 -0.013269110372146734 0.017222981788218024 -7.1674993817220648e-06 -0.0026234161848222529 0.0045731887263669212
leaf_weight=32 187 41 20 503 995 123 855 118 368 1667 103 30 30 146 27 1089 24 105 60 87 39 645 82 44 90 65 20 57 243 22
leaf_count=32 187 41 20 503 995 123 855 118 368 1667 103 30 30 146 27 1089 24 105 60 87 39 645 82 44 90 65 20 57 243 22
internal_value=0 -0.000549465 0.00435968 -0.000761752 0.00226069 0.00157013 -0.000830801 -0.00046539 0.000280642 0.00207259 0.00128036 0.000872146 0.00213148 0.00348006 0.00544308 -0.00163516 0.000475492 -0.000143369 -0.00271181 -0.00155119 -0.00317556 -0.00230422 -0.00343729 -0.000325328 -0.00337788 -0.00472152 0.00459296 -0.00684817 0.000945574 -0.00714324
internal_weight=0 6369 264 6105 1548 1361 6073 5218 3712 1918 1800 1697 223 203 173 1794 606 582 1188 477 1128 1506 1003 293 211 710 64 147 1238 109
internal_count=7917 6369 264 6105 1548 1361 6073 5218 3712 1918 1800 1697 223 203 173 1794 606 582 1188 477 1128 1506 1003 293 211 710 64 147 1238 109
is_linear=0
shrinkage=0.1


Tree=29
num_leaves=31
num_cat=0
split_feature=0 1 0 1 0 1 4 3 4 0 2 4 2 1 1 3 2 1 1 1 2 2 4 4 0 2 1 1 0 4
split_gain=0.872513 0.611573 0.558013 0.431432 0.397593 0.842569 0.634961 0.633911 0.508056 0.498595 0.430415 0.397811 0.53082 0.554278 0.395604 0.826118 0.394725 1.05489 0.572248 0.465676 0.367992 0.365149 0.460681 0.750581 1.24512 1.15251 0.62796 0.474659 0.446059 0.430782
threshold=0.020949148564735398 -1.10724687844533 -0.38305097734751997 -4.0132412485363043 -0.034461308010120366 -1.6475701701290937 2.5000000000000004 -1.6644625328609264 1.5000000000000002 -0.029184824558249101 -1.4280038856668513 2.5000000000000004 -2.2507438632283119 -1.554371309139823 -3.2852106238791552 -3.4062852187635131 -2.0647881602839631 -2.2097271929807003 -2.3053018181587199 -1.9309002078133126 -1.6808317328335527 -1.6495441928916212 1.5000000000000002 2.5000000000000004 0.65954309538212674 -2.4718205601073913 -2.8327847020275274 -2.6359860836923792 0.054460741554382519 3.5000000000000004
decision_type=2 2 2 2 2 2 2 2 2 2 2 2 2 2 2 2 2 2 2 2 2 2 2 2 2 2 2 2 2 2
left_child=2 14 -1 -4 7 16 9 8 -5 -7 -11 -10 -13 -14 -2 -16 17 -6 -18 -20 -21 22 26 24 25 -24 -17 -28 -23 -25
right_child=1 -3 3 4 5 6 -8 -9 11 10 -12 12 13 -15 15 21 18 -19 19 20 -22 28 23 29 -26 -27 27 -29 -30 -31
leaf_value=0.011877547593030613 -0.013042222036429766 0.0032737946179624772 0.011691880568861963 -0.0024449958857009654 -0.0050422520603689847 -0.012625732896567293 0.012201132748003413 -0.0026615156129245095 0.0052676022353014516 0.0011337025472643615 -0.0092814525504681198 0.0043104892214804328 -0.0045248932524605892 0.0079122398286884613 0.017835922183951847 0.013783221859247768 0.005135453277034685 0.0086649231767902783 -0.01267836041055964 -0.0001750138994210806 -0.010496441632013527 0.0043067595575211242 0.023454734070513114 -0.0011030191012083958 0.019654494292206236 0.002133019832701651 -0.012341448348015547 -0.0011814104989951459 -0.0030711479403456028 0.0041290624097069318
leaf_weight=32 22 865 25 301 376 33 41 820 297 404 44 211 215 43 27 27 32 66 157 78 62 97 26 993 45 1016 40 807 528 187
leaf_count=32 22 865 25 301 376 33 41 820 297 404 44 211 215 43 27 27 32 66 157 78 62 97 26 993 45 1016 40 807 528 187
internal_value=0 0.00087308 -0.00126228 -0.00139348 -0.00149635 -0.00284715 0.000255228 -0.000570758 0.00103601 -0.00076303 0.000110786 0.00240387 0.000590378 -0.00245204 0.00032875 0.000406304 -0.0049476 -0.00299548 -0.00757021 -0.00893917 -0.00474593 0.000281344 0.000720583 0.00147255 0.00336837 0.00266504 -0.00122987 -0.00170845 -0.0019261 -0.000273867
internal_weight=0 4680 3237 3205 3180 1293 522 1887 1067 481 448 766 469 258 3815 3793 771 442 329 297 140 3766 3141 2267 1087 1042 874 847 625 1180
internal_count=7917 4680 3237 3205 3180 1293 522 1887 1067 481 448 766 469 258 3815 3793 771 442 329 297 140 3766 3141 2267 1087 1042 874 847 625 1180
is_linear=0
shrinkage=0.1


Tree=30
num_leaves=31
num_cat=0
split_feature=1 2 0 1 3 2 2 1 4 2 2 1 4 0 3 4 0 3 0 0 3 3 0 0 0 0 2 2 3 3
split_gain=0.724602 0.881641 0.558976 0.573263 0.498159 0.496011 0.470377 0.403909 0.395914 0.334838 0.695916 1.0401 0.515437 0.402055 0.334255 0.373303 0.418213 0.360419 0.467755 0.431954 0.390325 0.31195 0.311863 0.483199 0.456006 0.526239 0.585568 0.294991 0.286164 0.713646
threshold=-1.5871714848093614 -2.0138134731731365 1.1041609485418473 -1.5628155332510325 -2.8895527723869558 -2.8868269520398431 -2.7766570020510728 -1.0359516224755458 3.5000000000000004 -1.4932073987172609 -1.5087126595336808 -1.3539519419446535 2.5000000000000004 -0.21696899121564514 -1.332541538641385 1.5000000000000002 -0.13777463199804049 -2.1295778495703717 0.65954309538212674 0.25265434134097547 -2.309648522454443 -3.0161974266254323 -0.084320885700035805 0.017728766960431682 -0.034461308010120366 -0.041546682676085293 -2.3573275815750541 -2.1789916146306916 -1.4003232489422366 -1.4624474479090153
decision_type=2 2 2 2 2 2 2 2 2 2 2 2 2 2 2 2 2 2 2 2 2 2 2 2 2 2 2 2 2 2
left_child=4 2 3 -2 6 -6 21 9 -9 10 -3 -12 13 -11 15 16 -5 20 19 -19 -18 -1 -7 24 25 -24 -27 -21 29 -15
right_child=1 7 -4 14 5 22 -8 8 -10 12 11 -13 -14 28 -16 -17 17 18 -20 27 -22 -23 23 -25 -26 26 -28 -29 -30 -31
leaf_value=0.0026228019395084295 0.015597348292875622 -0.00014820982941793619 0.015985810738574299 -0.013223620000380007 0.0070045357173408518 0.0010908406338294167 0.010783987095898116 0.0015986015314776365 0.010663008796445167 0.010240728133136319 0.029475041367113593 0.00057462843868768577 0.011680310204004249 -0.0044119933776783984 -0.0062128827336709949 0.004699495280077042 0.0038228348695806096 0.0078012729931812175 0.017707418315959247 0.0021832642716265497 -0.010257651025636329 -0.0044529326110618354 -0.0027403235108491757 -0.00079974317347474087 -0.0049843693760436578 0.01880293870732809 0.0011811246611283755 -0.012260306798494779 -0.0062285047303724805 0.0084725835826247927
leaf_weight=270 36 1775 36 22 70 411 57 657 52 21 20 33 24 185 40 510 35 59 22 31 45 81 429 1824 724 24 88 26 254 56
leaf_count=270 36 1775 36 22 70 411 57 657 52 21 20 33 24 185 40 510 35 59 22 31 45 81 429 1824 724 24 88 26 254 56
internal_value=0 0.00096141 0.003788 0.00325638 -0.000951985 -0.00133029 0.00235823 0.00016956 0.00226341 -0.000457357 0.000188945 0.0114804 -0.00264521 -0.00331151 0.00269401 0.00316904 -8.318e-05 0.00124292 0.00433878 0.00180335 -0.00409744 0.00098994 -0.00149699 -0.00184131 -0.00334314 -0.00114675 0.00495723 -0.00440503 -0.00388645 -0.00141807
internal_weight=0 3939 862 826 3978 3570 408 3077 709 2368 1828 53 540 516 790 750 240 218 138 116 80 351 3500 3089 1265 541 112 57 495 241
internal_count=7917 3939 862 826 3978 3570 408 3077 709 2368 1828 53 540 516 790 750 240 218 138 116 80 351 3500 3089 1265 541 112 57 495 241
is_linear=0
shrinkage=0.1


Tree=31
num_leaves=31
num_cat=0
split_feature=4 0 0 3 4 3 0 3 0 1 3 4 2 0 0 3 2 0 2 1 1 2 3 2 1 2 1 4 2 1
split_gain=0.60406 0.644053 0.579927 0.572939 0.447778 1.06416 0.515523 0.596152 0.495542 0.623206 0.444178 0.424238 0.979995 0.399775 0.391789 0.434485 0.483527 0.447239 1.21329 0.420874 0.369411 0.364413 0.374319 0.402008 0.385541 0.360046 0.567569 0.35218 0.339943 0.373894
threshold=3.5000000000000004 -0.38305097734751997 0.036921600864316957 -2.4578217721463327 2.5000000000000004 -1.4066383220296403 0.13927660112381793 -2.0540103061289545 0.71109131874050968 -1.9154223242402719 -1.3557571185820951 1.5000000000000002 -2.2237472308990456 0.22184874961635628 -0.16108960701431271 -1.63093853087436 -2.0470730665373478 0.1793853754455442 -2.2704805269857893 -1.8514175820468075 -2.8327847020275274 -1.9398254497126806 -2.3793049308394463 -2.0931071115030302 -1.7621980760565583 -2.174468922630258 -1.7621980760565583 1.5000000000000002 -1.436112858462155 -1.4619078021809195
decision_type=2 2 2 2 2 2 2 2 2 2 2 2 2 2 2 2 2 2 2 2 2 2 2 2 2 2 2 2 2 2
left_child=1 -1 -3 -2 8 6 -6 13 11 -10 14 20 -13 -8 -5 16 17 18 -16 -18 -4 22 -15 25 -25 26 -24 -11 29 -14
right_child=3 2 4 10 5 -7 7 -9 9 27 -12 12 28 21 15 -17 19 -19 -20 -21 -22 -23 23 24 -26 -27 -28 -29 -30 -31
leaf_value=0.015218937810924319 0.019916131081325669 -0.0012260689835861529 0.009339703431804524 -0.0087953271334181016 0.0017039469197046811 0.017757052001703917 -0.0064514459115317434 -0.0066352312735699377 -0.0070611000464608281 0.0054013489438743097 -0.010844075002453546 0.010448609863088992 -0.00025770896312538895 0.0022426261233004672 -0.002641577124595642 0.014466917408863085 -0.013829172663390638 0.0033191924889546796 0.030119603585738404 0.0016720013656646858 -0.0014544920864125851 0.0098583391965611986 -0.017443483540167413 -0.0016666697093751283 -0.020134347874241381 0.0068239471703571714 0.0027673532113884434 0.015499310912655703 -0.0021998390957263482 0.0028898300590994401
leaf_weight=27 21 3374 33 23 324 29 103 290 30 107 22 119 624 208 20 40 20 74 26 141 808 38 24 20 26 38 33 51 269 955
leaf_count=27 21 3374 33 23 324 29 103 290 30 107 22 119 624 208 20 40 20 74 26 141 808 38 24 20 26 38 33 51 269 955
internal_value=0 -0.000198024 -0.000253503 0.00385302 0.000541227 -0.0011522 -0.00164891 -0.00304163 0.00118163 0.006152 0.00293137 0.000848855 0.00165257 -0.000914802 0.00381236 0.00471571 0.00332764 0.00813249 0.0158756 -0.00025361 -0.00103094 0.000558774 -0.000453786 -0.00443147 -0.0121049 -0.000715905 -0.00574247 0.00866082 0.00108616 0.00164596
internal_weight=0 7530 7503 387 4129 1133 1104 780 2996 188 366 2808 1967 490 344 321 281 120 46 161 841 387 349 141 46 95 57 158 1848 1579
internal_count=7917 7530 7503 387 4129 1133 1104 780 2996 188 366 2808 1967 490 344 321 281 120 46 161 841 387 349 141 46 95 57 158 1848 1579
is_linear=0
shrinkage=0.1


Tree=32
num_leaves=31
num_cat=0
split_feature=1 3 4 2 2 2 4 3 3 0 0 2 2 0 0 1 1 0 1 1 3 1 1 3 3 0 0 0 2 2
split_gain=0.529959 0.350977 0.432026 0.50781 0.402663 0.348907 0.808888 0.643851 0.639641 0.684877 0.557016 0.6475 0.487226 0.642609 0.713603 0.529731 0.556091 0.545726 0.7718 0.511671 0.531331 0.451192 0.42707 0.33745 0.298645 0.296558 0.289044 0.361459 0.317357 0.332643
threshold=-1.1675123439632642 -2.8895527723869558 1.5000000000000002 -2.8603432112534182 -2.7977886274590089 -1.8982718280062765 2.5000000000000004 -2.192763648035307 -1.4914443610702051 -0.21696899121564514 0.65954309538212674 -2.4860748033374196 -2.611790710006082 0.13927660112381793 -1.0000000180025095e-35 -2.5675816785496957 -2.7125282941725479 0.0040133388787562058 -2.6587197248051755 -2.1711701802870622 -2.4274801116932383 -1.5386409152619973 -1.6613541947905797 -1.7632283303145633 -3.0161974266254323 0.29401277739804688 -0.055847938828830206 -0.060492972319269415 -1.7286175818163418 -1.5900804217475961
decision_type=2 2 2 2 2 2 2 2 2 2 2 2 2 2 2 2 2 2 2 2 2 2 2 2 2 2 2 2 2 2
left_child=1 4 -3 -4 24 6 8 -7 9 -5 11 -11 13 14 -8 16 -14 18 -18 -17 25 26 -13 -2 -1 -21 27 28 -9 -30
right_child=23 2 3 5 -6 7 12 21 -10 10 -12 22 15 -15 -16 19 17 -19 -20 20 -22 -23 -24 -25 -26 -27 -28 -29 29 -31
leaf_value=0.0026185821409265321 0.0046561408459064235 -0.0021336196053759319 0.01307050452792439 0.020433830629102888 0.0095894875438799244 0.014612930203573064 -0.0056093842402333395 -0.0054369769283636876 -0.0056519331968682886 0.018139827959196369 0.016687797490627536 -0.00035252352145137208 -0.0015834697206775026 0.00087751324041461455 -0.029333037102506277 -0.0036395534499296723 0.031895590461790566 -0.002874226531102544 0.0078362939972430462 0.014388605114701834 -0.00042142227821499051 6.214325496648776e-05 0.0048370364222181514 0.00093321309056119235 -0.0044719089248438223 0.0033988212165103789 -0.0035112482126830216 0.013024761989003137 0.0091130603208860513 -0.0018606939297447457
leaf_weight=272 309 1383 29 25 66 26 32 84 73 27 31 307 62 49 21 433 20 21 40 37 648 1285 328 1148 76 73 877 21 47 67
leaf_count=272 309 1383 29 25 66 26 32 84 73 27 31 307 62 49 21 433 20 21 40 37 648 1285 328 1148 76 73 877 21 47 67
internal_value=0 -0.000388557 -0.000581438 -0.000121076 0.00242825 -0.00020363 0.00069847 -0.00103827 0.00326634 0.00417307 0.00358647 0.00297296 -0.000716004 -0.00737741 -0.0150093 -0.000206661 0.00554426 0.0110001 0.0158561 -0.000897159 0.000669407 -0.00120918 0.00232807 0.00172277 0.00107008 0.00709538 -0.00269973 0.000550052 -0.000773024 0.00266357
internal_weight=0 6460 6046 4663 414 4634 2227 2407 791 718 693 662 1436 102 53 1334 143 81 60 1191 758 2381 635 1457 348 110 1096 219 198 114
internal_count=7917 6460 6046 4663 414 4634 2227 2407 791 718 693 662 1436 102 53 1334 143 81 60 1191 758 2381 635 1457 348 110 1096 219 198 114
is_linear=0
shrinkage=0.1


Tree=33
num_leaves=31
num_cat=0
split_feature=1 0 1 0 2 2 3 3 1 0 3 1 1 3 2 1 1 2 1 0 3 1 2 1 3 1 2 4 4 2
split_gain=0.485435 0.390457 0.355955 0.311484 0.285759 0.332726 0.467698 0.285161 0.303788 0.371981 0.614432 0.45013 0.412958 0.603639 0.431898 0.577797 0.488476 0.411864 0.637622 0.40758 0.371865 0.434039 0.345806 0.331928 0.331807 0.749869 0.298921 0.291707 0.343611 0.404759
threshold=-0.78819664514490728 0.017728766960431682 -4.0132412485363043 -0.38305097734751997 -1.4190358539961665 -1.8138662918144366 -1.4165072809123436 -1.0717828831045393 -1.3381239674539833 -0.034461308010120366 -1.6644625328609264 -1.8466595725159012 -1.8514175820468075 -1.8396050365426118 -2.0788887343094449 -2.2097271929807003 -2.3053018181587199 -2.2033338688332536 -2.3381811440657896 -0.011483327254233395 -1.4673336147976943 -1.6475701701290937 -2.2704805269857893 -1.471503016191013 -2.0650193850707184 -2.0875740220820176 -2.2783010436446802 1.5000000000000002 2.5000000000000004 -2.2182774266018952
decision_type=2 2 2 2 2 2 2 2 2 2 2 2 2 2 2 2 2 2 2 2 2 2 2 2 2 2 2 2 2 2
left_child=1 2 -1 -4 5 -2 -7 8 9 10 27 -12 14 -14 15 17 -16 22 -19 -15 21 -21 -11 -23 -18 -26 -17 -5 -29 -30
right_child=4 -3 3 7 -6 6 -8 -9 -10 12 11 -13 13 19 16 26 24 18 -20 20 -22 23 -24 -25 25 -27 -28 28 29 -31
leaf_value=0.010447133115182321 0.0078112671798168639 0.00046278853021304253 0.009055825999627511 -0.0018265520497241505 0.012544093279538152 -0.010160917442824159 0.0049111622273921973 -0.0065478535339934755 0.0010978361001244927 -0.0044008075537249171 0.010149319628676908 -0.0045650505018303101 0.0085439147760293307 -0.0061465487026402523 0.0037706006333852807 0.00045727380466732112 -0.015500778044182538 0.011024509103423577 -0.0081603309096923721 -0.0062514672234940992 -0.0086087865482755554 0.0090634334667728661 -0.015748796692738931 -0.002829702032613568 0.0086222446346655487 -0.010780463763869045 0.01734910368686542 0.0047365311326830395 0.0033008891496468678 -0.0027116615986941678
leaf_weight=27 76 4579 30 286 39 35 50 96 556 256 22 378 63 144 30 22 69 41 30 39 34 88 30 32 25 98 20 274 220 228
leaf_count=27 76 4579 30 286 39 35 50 96 556 256 22 378 63 144 30 22 69 41 30 39 34 88 30 32 25 98 20 274 220 228
internal_value=0 -0.00012606 -0.000985312 -0.00108453 0.00486401 0.00300362 -0.00129499 -0.00118327 -0.00101074 -0.0014934 -0.000439596 -0.00375576 -0.00294663 -0.000440777 -0.00456071 -0.00259357 -0.00809624 -0.00389881 0.00291824 -0.00212041 0.000883553 0.00291336 -0.00559116 0.00589193 -0.00995043 -0.00683682 0.008501 0.000876342 0.00194702 0.00024093
internal_weight=0 7717 3138 3111 200 161 85 3081 2985 2429 1408 400 1021 400 621 399 222 357 71 337 193 159 286 120 192 123 42 1008 722 448
internal_count=7917 7717 3138 3111 200 161 85 3081 2985 2429 1408 400 1021 400 621 399 222 357 71 337 193 159 286 120 192 123 42 1008 722 448
is_linear=0
shrinkage=0.1


Tree=34
num_leaves=31
num_cat=0
split_feature=4 0 0 0 3 4 3 0 0 3 0 0 0 0 2 4 0 3 1 1 0 2 0 2 3 3 2 0 1 0
split_gain=0.452158 0.451556 0.432834 0.361639 0.351127 0.321697 0.842194 0.457028 0.487046 0.422667 0.579806 0.387298 0.392759 0.314538 0.311463 0.604394 0.491965 0.539177 0.421272 0.552816 0.614272 0.416303 1.25269 0.342637 0.339796 0.337686 0.333407 0.296103 0.38649 0.347194
threshold=3.5000000000000004 0.86312947643624449 -0.38305097734751997 0.017728766960431682 -1.3557571185820951 2.5000000000000004 -1.4066383220296403 0.13927660112381793 0.15490195998574316 -2.0540103061289545 0.18836697396831506 0.1709607628280764 0.16842136260827287 0.16517144615024462 -1.5950891424957485 1.5000000000000002 0.41723818738027479 -1.7076201478867949 -1.792998640087395 -1.5507815483049139 0.28874404594794917 -1.9398254497126806 0.51205911755743083 -2.33533512406412 -1.8484461476816676 -2.192763648035307 -2.0681668266521958 0.19755080983434206 -1.9922153214487579 0.23023612630592785
decision_type=2 2 2 2 2 2 2 2 2 2 2 2 2 2 2 2 2 2 2 2 2 2 2 2 2 2 2 2 2 2
left_child=2 4 -1 -4 -2 11 7 -7 -9 -10 -11 12 13 -5 15 27 18 21 25 20 24 23 -23 -18 -20 -17 -25 28 -13 -29
right_child=1 -3 3 5 -6 6 -8 8 9 10 -12 14 -14 -15 -16 16 17 -19 19 -21 -22 22 -24 26 -26 -27 -28 29 -30 -31
