tree
version=v4
num_class=1
num_tree_per_iteration=1
label_index=0
max_feature_idx=0
objective=regression
feature_names=log_daily_q
feature_infos=[-7.3267418987340101:-0.32810119399673499]
tree_sizes=2695 2893 2879 2870 2877 2886 2883 2881 2898 2925 2922 2892 2891 2916 2917 2921 2925 2925 2916 2912 2935 2928 2965 2942 2945 2929 2945 2946 2950 2936 2978 2957 2972 2944 2966 2982 2955 2949 2932 2965 2947 2949 2916 2968 2961 2951 2919 2964 2934 2928 2935 2965 2967 2948 2947 2920 2943 2950 2915 2937 2939 2965 2961 2948 2956 2956 2952 2971 2957 2964 2952 2966 2972 2992 2988 2985 2978 2992 2955 2963 2991 2999 2966 2966 2998 3014 2970 2988 2970 3005 2980 2981 2997 2988 3001 2981 2984 2985 3006 2982

Tree=0
num_leaves=31
num_cat=0
split_feature=0 0 0 0 0 0 0 0 0 0 0 0 0 0 0 0 0 0 0 0 0 0 0 0 0 0 0 0 0 0
split_gain=191.171 40.3184 21.5876 25.9056 11.1265 10.0403 3.45151 2.97425 3.37251 1.71877 1.15636 1.03354 0.910439 0.843711 1.63287 0.645752 0.518796 0.506069 0.390285 0.357575 0.59226 0.34466 0.525236 0.338968 0.337412 0.280822 0.302013 0.27691 0.664165 0.60732
threshold=-1.3435650145688782 -0.91415809711777041 -1.6664200299067276 -2.8327847020275274 -1.10724687844533 -4.0132412485363043 -0.64022442952969605 -1.9553836699493585 -2.5359682539356823 -1.554371309139823 -0.78819664514490728 -2.1805896292249387 -1.1497227856797683 -2.2531664264288618 -2.2642431166258512 -2.3381811440657896 -0.99465331449950212 -2.0578849858280699 -2.6359860836923792 -1.6253205673520628 -1.5871714848093614 -1.4619078021809195 -1.5469192091339827 -1.1553792032909425 -1.4787177174821784 -1.6903971636032462 -1.6791410167550376 -1.8116842430819255 -1.7992575160373907 -1.8274363572129577
decision_type=2 2 2 2 2 2 2 2 2 2 2 2 2 2 2 2 2 2 2 2 2 2 2 2 2 2 2 2 2 2
left_child=2 4 3 5 12 -1 10 8 18 19 -3 13 23 14 15 -10 -6 -13 -5 -4 -21 22 -11 -2 -24 27 -27 29 -29 -9
right_child=1 6 9 7 16 -7 -8 25 11 21 -12 17 -14 -15 -16 -17 -18 -19 -20 20 -22 -23 24 -25 -26 26 -28 28 -30 -31
leaf_value=1.8313111906195794 1.7766827705846073 1.8088273068309295 1.7630729378666636 1.7569790662644338 1.7913427804883941 1.7722668857608415 1.8392505873982332 1.7520641395956282 1.7443885437326392 1.7730291882721096 1.8199749763159712 1.7492080994517554 1.7835723937855907 1.7355602323379227 1.7655847135751552 1.737723228900101 1.797084438317351 1.74389773799172 1.7505302461967549 1.7545623260003327 1.762165445773928 1.7676245381122584 1.7645590052198021 1.7658983997915054 1.7580720320552372 1.761521129725252 1.7516900432416822 1.740324061376008 1.7512910632290082 1.7625605439106857
leaf_weight=32 1023 263 221 225 450 288 56 497 421 63 144 374 211 186 31 222 242 345 161 221 191 727 441 30 98 63 62 62 505 62
leaf_count=32 1023 263 221 225 450 288 56 497 421 63 144 374 211 186 31 222 242 345 161 221 191 727 441 30 98 63 62 62 505 62
internal_value=1.76601 1.78944 1.7557 1.75104 1.78316 1.77817 1.81597 1.74834 1.74591 1.76412 1.81277 1.74386 1.77758 1.74152 1.74317 1.74209 1.79335 1.74666 1.75429 1.75983 1.75809 1.76616 1.76439 1.77638 1.76338 1.75215 1.75664 1.75165 1.75009 1.75323
internal_weight=7917 2419 5498 3536 1956 320 463 3216 1965 1962 407 1579 1264 860 674 643 692 719 386 633 412 1329 602 1053 539 1251 125 1126 567 559
internal_count=7917 2419 5498 3536 1956 320 463 3216 1965 1962 407 1579 1264 860 674 643 692 719 386 633 412 1329 602 1053 539 1251 125 1126 567 559
is_linear=0
shrinkage=1


Tree=1
num_leaves=31
num_cat=0
split_feature=0 0 0 0 0 0 0 0 0 0 0 0 0 0 0 0 0 0 0 0 0 0 0 0 0 0 0 0 0 0
split_gain=154.849 32.6604 17.4859 20.9835 8.13268 5.91899 4.95191 2.40914 2.73173 1.3922 1.21345 1.06719 0.83717 0.737456 0.683406 1.32263 0.523059 0.409916 0.318445 0.289635 0.47973 0.279175 0.425441 0.274564 0.273303 0.240242 0.717747 0.530889 0.786093 0.229328
threshold=-1.3435650145688782 -0.97207019852356202 -1.6664200299067276 -2.8327847020275274 -4.0132412485363043 -1.10724687844533 -0.78819664514490728 -1.9553836699493585 -2.5359682539356823 -1.554371309139823 -0.64022442952969605 -0.8929954023540011 -2.1805896292249387 -1.1497227856797683 -2.2531664264288618 -2.2642431166258512 -2.3381811440657896 -2.0578849858280699 -2.6107446303374657 -1.6253205673520628 -1.5871714848093614 -1.4619078021809195 -1.5469192091339827 -1.1553792032909425 -1.4787177174821784 -1.7536688902799245 -1.8116842430819255 -1.8514175820468075 -1.8834263246553429 -1.9922153214487579
decision_type=2 2 2 2 2 2 2 2 2 2 2 2 2 2 2 2 2 2 2 2 2 2 2 2 2 2 2 2 2 2
left_child=2 5 3 4 -1 13 11 8 18 19 -8 -3 14 23 15 16 -10 -14 -5 -4 -21 22 -11 -2 -24 26 27 28 -9 -19
right_child=1 6 9 7 -6 -7 10 25 12 21 -12 -13 17 -15 -16 -17 -18 29 -20 20 -22 -23 24 -25 -26 -27 -28 -29 -30 -31
leaf_value=0.058769593148826973 0.0096040161758725179 0.02995449807436671 -0.002644833679915705 -0.0085151884151742248 0.0056297197675929866 0.023171410379730459 0.048567001614072881 -0.010477983626106413 -0.019460787452622419 0.0063157916024682076 0.065915053018501826 0.039779196886754624 -0.015123187195959304 0.015804676891644422 -0.027406268479222413 -0.00038423470912441133 -0.025459571327670134 -0.021845914506438108 -0.014604241686129525 -0.010304383734953316 -0.0034615761828998893 0.0014516070274542634 -0.0013073729300478688 -0.00010191813576966524 -0.0071456477449308824 -0.010599048457941559 -0.017942017418113482 -0.0065517836602595764 -0.020047204755997708 -0.01648212591558695
leaf_weight=32 1023 240 221 257 288 510 144 279 421 63 56 205 374 211 186 31 222 220 129 221 191 727 441 30 98 441 251 156 124 125
leaf_count=32 1023 240 221 257 288 510 144 279 421 63 56 205 374 211 186 31 222 220 129 221 191 727 441 30 98 441 251 156 124 125
internal_value=9.01356e-11 0.0210842 -0.0092766 -0.0134774 0.0109437 0.0140778 0.0403546 -0.0159074 -0.0180912 -0.00170568 0.0534245 0.0344805 -0.0199347 0.0104087 -0.0220401 -0.0205592 -0.0215319 -0.0174165 -0.0105501 -0.00556546 -0.00713211 0.000132723 -0.00146002 0.00932749 -0.00236888 -0.0124772 -0.0134997 -0.011505 -0.0134224 -0.0199025
internal_weight=7917 2419 5498 3536 320 1774 645 3216 1965 1962 200 445 1579 1264 860 674 643 719 386 633 412 1329 602 1053 539 1251 810 559 403 345
internal_count=7917 2419 5498 3536 320 1774 645 3216 1965 1962 200 445 1579 1264 860 674 643 719 386 633 412 1329 602 1053 539 1251 810 559 403 345
is_linear=0
shrinkage=0.1


Tree=2
num_leaves=31
num_cat=0
split_feature=0 0 0 0 0 0 0 0 0 0 0 0 0 0 0 0 0 0 0 0 0 0 0 0 0 0 0 0 0 0
split_gain=125.427 26.5819 14.1636 16.9966 7.2601 6.58747 2.31898 1.9514 2.2127 1.12769 0.678108 0.597339 0.553559 1.07133 0.447134 0.443902 0.381525 0.341351 0.332504 0.315868 0.265216 0.234605 0.388582 0.23271 0.226132 0.344607 0.224773 0.222397 0.224584 0.919409
threshold=-1.3435650145688782 -0.91415809711777041 -1.6664200299067276 -2.8327847020275274 -1.10724687844533 -4.0132412485363043 -0.71407281844984949 -1.9553836699493585 -2.5359682539356823 -1.554371309139823 -2.1805896292249387 -1.1497227856797683 -2.2531664264288618 -2.2642431166258512 -0.64022442952969605 -2.3969008412815258 -2.4850633943434151 -0.99465331449950212 -2.0785380588282041 -0.78819664514490728 -2.6359860836923792 -1.6253205673520628 -1.5871714848093614 -1.096571521063556 -1.4619078021809195 -1.5469192091339827 -1.471503016191013 -1.1553792032909425 -1.3011385917311535 -1.2859533467138509
decision_type=2 2 2 2 2 2 2 2 2 2 2 2 2 2 2 2 2 2 2 2 2 2 2 2 2 2 2 2 2 2
left_child=2 4 3 5 11 -1 19 8 20 21 12 27 13 15 -8 16 -10 23 -12 -3 -5 -4 -23 -6 25 -11 -27 28 -2 -30
right_child=1 6 9 7 17 -7 14 -9 10 24 18 -13 -14 -15 -16 -17 -18 -19 -20 -21 -22 22 -24 -25 -26 26 -28 -29 29 -31
leaf_value=0.05289263192098588 0.0060382315369439318 0.034772845188389488 -0.0023803500391698837 -0.0072777986105971252 0.026278610325728854 0.0050667474872979155 0.046742215152143649 -0.011229435742019768 -0.021544978249291278 0.0056842128018615773 -0.013218676493628524 0.014224208715720483 -0.02466564114657431 -0.00034581168043997982 0.059323547993387495 -0.021775207767910473 -0.013909140879703311 0.025138242541541046 -0.01755766126942759 0.041723876062181149 -0.012593856777544626 -0.0092739458008336394 -0.003115418495358022 0.01958892552086558 0.0013064462965369696 -0.001382404846874507 -0.0076953102536208469 -9.1725979000329975e-05 0.018811851994244642 0.0082108194111916583
leaf_weight=32 250 263 221 225 60 288 57 1251 99 63 312 211 186 31 56 351 193 242 407 87 161 221 191 390 727 475 64 30 93 680
leaf_count=32 250 263 221 225 60 288 57 1251 99 63 312 211 186 31 56 351 193 242 407 87 161 221 191 390 727 475 64 30 93 680
internal_value=-1.67675e-11 0.0189758 -0.00834894 -0.0121297 0.0138757 0.00984934 0.0405219 -0.0143167 -0.0162821 -0.00153511 -0.0179413 0.00936786 -0.0198361 -0.0185033 0.0529772 -0.0193787 -0.016498 0.0221096 -0.0156748 0.0365007 -0.00949512 -0.00500892 -0.0064189 0.0204809 0.00011945 -0.00131401 -0.00213199 0.00839474 0.00864361 0.00948623
internal_weight=7917 2419 5498 3536 1956 320 463 3216 1965 1962 1579 1264 860 674 113 643 292 692 719 350 386 633 412 450 1329 602 539 1053 1023 773
internal_count=7917 2419 5498 3536 1956 320 463 3216 1965 1962 1579 1264 860 674 113 643 292 692 719 350 386 633 412 450 1329 602 539 1053 1023 773
is_linear=0
shrinkage=0.1


Tree=3
num_leaves=31
num_cat=0
split_feature=0 0 0 0 0 0 0 0 0 0 0 0 0 0 0 0 0 0 0 0 0 0 0 0 0 0 0 0 0 0
split_gain=101.596 21.5314 11.4769 14.0578 5.88068 5.33585 1.87838 1.21446 1.79229 1.16005 0.54966 0.483845 0.3862 0.375028 0.315027 0.309035 0.276494 0.275475 0.318058 0.238497 0.380944 0.22163 0.398683 0.435351 0.188584 0.491902 0.435618 0.314278 0.232112 0.566604
threshold=-1.3435650145688782 -0.91415809711777041 -1.6903971636032462 -2.8327847020275274 -1.10724687844533 -4.0132412485363043 -0.71407281844984949 -1.9553836699493585 -2.5359682539356823 -1.554371309139823 -2.1711701802870622 -1.1497227856797683 -0.54798826886715823 -2.3969008412815258 -2.0785380588282041 -2.4850633943434151 -0.99465331449950212 -0.88335643491098048 -0.9022511842021671 -2.7785544543643534 -2.8079791218687626 -3.4246699295950829 -3.0396927392518074 -2.925925211344897 -1.8116842430819255 -1.7690088753936566 -1.8274363572129577 -1.7177426536841651 -1.8834263246553429 -1.8661179727865156
decision_type=2 2 2 2 2 2 2 2 2 2 2 2 2 2 2 2 2 2 2 2 2 2 2 2 2 2 2 2 2 2
left_child=2 4 3 5 11 -1 17 8 19 -4 13 -2 -8 15 -12 -10 -6 18 -3 20 -5 -7 -23 -24 26 -26 28 -27 -9 -30
right_child=1 6 9 7 16 21 12 24 10 -11 14 -13 -14 -15 -16 -17 -18 -19 -20 -21 -22 22 23 -25 25 27 -28 -29 29 -31
leaf_value=0.047603370191063733 0.0075552697451555257 0.036523621644953201 -0.0047948299373987216 -0.010685165191534908 0.01843279601025602 0.012406347156502308 0.044324149684432677 -0.008307240739791057 -0.019390480390589951 0.00010750535879719673 -0.011448605939268643 0.012801788507417833 0.057865344520126073 -0.019219049864600393 -0.015801894850885904 -0.012518226631333174 0.022624418616279469 0.034464179643716647 0.023697375900369008 -0.0096537859936682985 0.0047450082478462724 -0.00036704822414321828 0.013357591450039764 0.0016936589949182236 -0.01600194759753612 -0.0077132541908083762 -0.001327866037195969 -0.013825927012496526 -0.020749150240613568 -0.0094483279742491565
leaf_weight=32 1053 29 758 32 450 32 85 279 99 1329 281 211 28 599 407 193 242 263 58 322 32 128 64 64 188 253 62 126 62 156
leaf_count=32 1053 29 758 32 450 32 85 279 99 1329 281 211 28 599 407 193 242 263 58 322 32 128 64 64 188 253 62 126 62 156
internal_value=4.52221e-11 0.0170782 -0.00751405 -0.0110878 0.0124881 0.0088644 0.0364698 -0.0131534 -0.0146539 -0.00167303 -0.0161471 0.00843107 0.0476795 -0.0177866 -0.0140239 -0.0148482 0.0198987 0.0328506 0.0279728 -0.00854561 -0.00297008 0.00456007 0.00357929 0.00752563 -0.0105349 -0.0118199 -0.00923155 -0.00974544 -0.0102175 -0.0126623
internal_weight=7917 2419 5498 3411 1956 320 463 3091 1965 2087 1579 1264 113 891 688 292 692 350 87 386 64 288 256 128 1126 567 559 379 497 218
internal_count=7917 2419 5498 3411 1956 320 463 3091 1965 2087 1579 1264 113 891 688 292 692 350 87 386 64 288 256 128 1126 567 559 379 497 218
is_linear=0
shrinkage=0.1


Tree=4
num_leaves=31
num_cat=0
split_feature=0 0 0 0 0 0 0 0 0 0 0 0 0 0 0 0 0 0 0 0 0 0 0 0 0 0 0 0 0 0
split_gain=82.3943 16.2215 10.7688 11.1579 4.32204 4.14997 1.52242 1.27125 1.49794 0.993127 0.514892 0.316605 0.30911 0.542136 0.308914 0.493618 0.275494 0.569478 0.486844 0.26688 0.22396 0.219002 0.188495 0.179521 0.322934 0.352635 0.165808 0.244728 0.202809 0.467061
threshold=-1.3170672118132909 -0.91415809711777041 -1.6664200299067276 -2.8327847020275274 -4.0132412485363043 -1.10724687844533 -0.64022442952969605 -1.9553836699493585 -2.6107446303374657 -1.4619078021809195 -0.78819664514490728 -1.1497227856797683 -2.1711701802870622 -2.3969008412815258 -1.5871714848093614 -1.6090961619001312 -1.2859533467138509 -1.3011385917311535 -1.3054390117719723 -2.1098299416149922 -0.99465331449950212 -1.4787177174821784 -1.096571521063556 -3.4246699295950829 -3.0396927392518074 -2.925925211344897 -1.2226583932141628 -1.1553792032909425 -1.2376166961401212 -1.2504266873651424
decision_type=2 2 2 2 2 2 2 2 2 2 2 2 2 2 2 2 2 2 2 2 2 2 2 2 2 2 2 2 2 2
left_child=2 5 3 4 -1 11 10 8 -5 14 -3 16 13 -10 15 -4 17 18 -2 -14 22 -16 -7 -6 -25 -26 28 -28 29 -18
right_child=1 6 9 7 23 20 -8 -9 12 -11 -12 -13 19 -15 21 -17 26 -19 -20 -21 -22 -23 -24 24 25 -27 27 -29 -30 -31
leaf_value=0.042843033093959093 0.010224688597654383 0.028063877528197376 -0.0026430205684450886 -0.0060707615475996549 0.011165712212095969 0.021807470594843229 0.048281716142914127 -0.0091103551295425127 -0.012614407707968033 0.0017439058970082372 0.035502562599463598 0.011521609064403445 -0.0094095368234659287 -0.017297145013210793 -0.00084174761384484377 -0.010028002575025197 0.0038334263065212212 0.016175140432452644 -0.0051235912998597475 -0.013829187546417963 0.020361977240286214 -0.0058913227683883539 0.015786754166325315 -0.00033034275984391572 0.012021832868185811 0.0015242934976413382 0.0085919404279710884 -0.0008380803341666858 0.00078926251494038373 0.013935087816789746
leaf_weight=32 62 263 315 257 32 60 56 1251 421 884 144 211 188 599 695 127 193 93 31 500 242 98 390 128 64 64 333 30 94 60
leaf_count=32 62 263 315 257 32 60 56 1251 421 884 144 211 188 599 695 127 193 93 31 500 242 98 390 128 64 64 333 30 94 60
internal_value=4.17689e-11 0.0161301 -0.00645206 -0.00983018 0.00797796 0.011834 0.0328228 -0.0116021 -0.0131885 -0.000814941 0.0306957 0.00803665 -0.0142595 -0.0153644 -0.00264654 -0.00476495 0.00721597 0.0106419 0.0051086 -0.0126215 0.0179088 -0.00146578 0.0165895 0.00410407 0.00322136 0.00677306 0.00631848 0.0078126 0.00475547 0.00622908
internal_weight=7917 2262 5655 3536 320 1799 463 3216 1965 2119 407 1107 1708 1020 1235 442 896 186 93 688 692 793 450 288 256 128 710 363 347 253
internal_count=7917 2262 5655 3536 320 1799 463 3216 1965 2119 407 1107 1708 1020 1235 442 896 186 93 688 692 793 450 288 256 128 710 363 347 253
is_linear=0
shrinkage=0.1


Tree=5
num_leaves=31
num_cat=0
split_feature=0 0 0 0 0 0 0 0 0 0 0 0 0 0 0 0 0 0 0 0 0 0 0 0 0 0 0 0 0 0
split_gain=66.825 14.1037 7.55389 9.26488 3.7831 2.49912 2.17333 0.962753 0.806132 0.750369 0.533347 0.492879 0.431843 0.52461 0.387204 0.909933 0.311508 0.286093 0.289501 0.192895 0.172861 0.233091 0.154399 0.153259 0.168597 0.152642 0.40386 0.152396 0.147616 0.142019
threshold=-1.3435650145688782 -0.97207019852356202 -1.6903971636032462 -2.7785544543643534 -4.0132412485363043 -1.10724687844533 -0.78819664514490728 -1.9922153214487579 -2.5359682539356823 -1.554371309139823 -0.64022442952969605 -0.8929954023540011 -2.008304495109615 -2.1805896292249387 -2.2531664264288618 -2.2642431166258512 -1.1497227856797683 -2.3053018181587199 -2.2859533467138502 -3.4246699295950829 -1.5469192091339827 -1.4619078021809195 -2.2768802714742877 -1.471503016191013 -1.5386409152619973 -1.9712765103910141 -1.9632918655547809 -1.1121015601618731 -1.1553792032909425 -2.7401685276781023
decision_type=2 2 2 2 2 2 2 2 2 2 2 2 2 2 2 2 2 2 2 2 2 2 2 2 2 2 2 2 2 2
left_child=2 5 3 4 -1 16 11 8 29 -4 -8 -3 13 14 15 17 28 -10 -19 -6 -11 23 -20 24 -22 -9 -27 -18 -2 -5
right_child=1 6 9 7 19 -7 10 25 12 20 -12 -13 -14 -15 -16 -17 27 18 22 -21 21 -23 -24 -25 -26 26 -28 -29 -30 -31
leaf_value=0.038558728341013197 0.0063624901489436544 0.019546705522479897 -0.0038660490309673987 -0.014141391510383983 0.01004914082295727 0.015155462767591006 0.031952306170438129 -0.0038874370256258596 -0.013159038466347356 0.0051892150836508905 0.04345354489050806 0.026223496733369624 -0.02144697253880579 -0.010510800133210216 -0.018547457262563207 0.0033403883778279826 0.011463572633920949 -0.023190990541297654 -0.0086127783021619254 0.0019061802475152944 -0.005997070024210599 0.00099066048284077927 -0.018593369766829477 -0.0063473981426795945 -0.00040463630345956704 -0.020058929984224962 -0.0086704715258450315 0.0037682324523727103 -0.00075427257766326277 -0.0071215555686122284
leaf_weight=32 1023 240 758 32 32 510 144 62 517 63 56 205 63 531 186 31 181 64 31 320 62 727 31 64 413 32 1157 30 30 290
leaf_count=32 1023 240 758 32 32 510 144 62 517 63 56 205 63 531 186 31 181 64 31 320 62 727 31 64 413 32 1157 30 30 290
internal_value=-1.27846e-12 0.0138508 -0.00609403 -0.0089934 0.00563914 0.00924658 0.026514 -0.0108497 -0.0123464 -0.0013553 0.0351727 0.0226225 -0.013349 -0.0129823 -0.0145083 -0.0133936 0.00686246 -0.0142004 -0.0184731 0.00264645 7.67224e-05 -0.000177691 -0.0136031 -0.00175356 -0.0011346 -0.00872473 -0.00897697 0.0103694 0.00615973 -0.00781918
internal_weight=7917 2419 5498 3411 384 1774 645 3027 1776 2087 200 445 1454 1391 860 674 1264 643 126 352 1329 1266 62 539 475 1251 1189 211 1053 322
internal_count=7917 2419 5498 3411 384 1774 645 3027 1776 2087 200 445 1454 1391 860 674 1264 643 126 352 1329 1266 62 539 475 1251 1189 211 1053 322
is_linear=0
shrinkage=0.1


Tree=6
num_leaves=31
num_cat=0
split_feature=0 0 0 0 0 0 0 0 0 0 0 0 0 0 0 0 0 0 0 0 0 0 0 0 0 0 0 0 0 0
split_gain=54.2134 10.1701 7.63541 7.40515 2.81976 2.44546 1.04162 0.843072 0.998902 0.769089 0.522756 0.323626 0.234819 0.215214 0.40468 0.20987 0.39866 0.683679 0.345005 0.194784 0.231631 0.325227 0.203074 0.183316 0.164275 0.37832 0.160932 0.272743 0.155197 0.153234
threshold=-1.3011385917311535 -0.91415809711777041 -1.6664200299067276 -2.8327847020275274 -4.0132412485363043 -1.10724687844533 -0.71407281844984949 -1.9553836699493585 -2.6107446303374657 -1.4619078021809195 -1.2859533467138509 -1.2226583932141628 -0.54798826886715823 -1.5871714848093614 -1.615191828772836 -2.1805896292249387 -2.2531664264288618 -2.2642431166258512 -2.3381811440657896 -2.0578849858280699 -2.0645314471736844 -2.0785380588282041 -2.0875740220820176 -2.1098299416149922 -1.2376166961401212 -1.2504266873651424 -0.88335643491098048 -0.9022511842021671 -1.4787177174821784 -1.9922153214487579
decision_type=2 2 2 2 2 2 2 2 2 2 2 2 2 2 2 2 2 2 2 2 2 2 2 2 2 2 2 2 2 2
left_child=2 5 3 4 -1 10 26 8 -5 13 -2 24 -8 14 -4 16 17 18 -10 20 21 22 23 -17 25 -12 27 -3 -15 -21
right_child=1 6 9 7 -6 -7 12 -9 15 -11 11 -13 -14 28 -16 19 -18 -19 -20 29 -22 -23 -24 -25 -26 -27 -28 -29 -30 -31
leaf_value=0.034702856186777355 0.013921376462444984 0.028110200417195932 -0.0016338135715567447 -0.0048889388364707111 0.003412563495738949 0.014486869729549295 0.032346423274892219 -0.0073802783830993271 -0.010796458057241663 0.0016212472083781508 0.0028138347646255299 0.0075120674322305724 0.042905282947633953 -0.00062280039607862136 -0.0079386702206962513 -0.0079609731152721751 -0.016692711653247958 0.0030063498284547564 -0.015466959436942177 -0.013578196447342634 -0.00041699877324243706 -0.019212055057587645 -0.000791513039580276 -0.014120334328242369 7.4087069468929413e-05 0.011905330487449343 0.025153445547177484 0.016232740492454597 -0.0048736270550372345 -0.0091936858087778087
leaf_weight=32 93 29 283 257 288 692 85 1251 550 977 193 574 28 695 159 219 186 31 222 220 31 31 31 62 94 60 263 58 98 125
leaf_count=32 93 29 283 257 288 692 85 1251 550 977 193 574 28 695 159 219 186 31 222 220 31 31 31 62 94 60 263 58 98 125
internal_value=1.09002e-10 0.0134711 -0.00508329 -0.00796595 0.00654159 0.0099038 0.0266152 -0.00940949 -0.0107014 -0.00047519 0.0067761 0.00605459 0.0349628 -0.00213367 -0.00390185 -0.011576 -0.0125211 -0.0115548 -0.0121395 -0.0102759 -0.00869506 -0.00944322 -0.0084726 -0.00931998 0.00364367 0.00496992 0.0239201 0.0201919 -0.00114812 -0.0119896
internal_weight=7917 2169 5748 3536 320 1706 463 3216 1965 2212 1014 921 113 1235 442 1708 989 803 772 719 374 343 312 281 347 253 350 87 793 345
internal_count=7917 2169 5748 3536 320 1706 463 3216 1965 2212 1014 921 113 1235 442 1708 989 803 772 719 374 343 312 281 347 253 350 87 793 345
is_linear=0
shrinkage=0.1


Tree=7
num_leaves=31
num_cat=0
split_feature=0 0 0 0 0 0 0 0 0 0 0 0 0 0 0 0 0 0 0 0 0 0 0 0 0 0 0 0 0 0
split_gain=44.0155 9.33491 4.9604 6.13684 2.284 1.60896 1.43774 0.514038 0.847414 0.485252 0.355404 0.3334 0.373001 0.305242 0.199638 0.600132 0.196345 0.234496 0.194498 0.187448 0.143146 0.285634 0.232607 0.135947 0.139829 0.133084 0.315959 0.131954 0.294724 0.127805
threshold=-1.3435650145688782 -0.97207019852356202 -1.6903971636032462 -2.8327847020275274 -4.0132412485363043 -1.1497227856797683 -0.78819664514490728 -1.9922153214487579 -2.5359682539356823 -1.5737455547773573 -0.64022442952969605 -2.008304495109615 -2.1711701802870622 -0.8929954023540011 -2.2531664264288618 -2.2642431166258512 -2.3053018181587199 -2.2859533467138502 -1.10724687844533 -1.6192888100975298 -3.0396927392518074 -2.925925211344897 -3.4246699295950829 -1.096571521063556 -1.0891534985275193 -1.9712765103910141 -1.9632918655547809 -0.98438537633667023 -0.99465331449950212 -1.1553792032909425
decision_type=2 2 2 2 2 2 2 2 2 2 2 2 2 2 2 2 2 2 2 2 2 2 2 2 2 2 2 2 2 2
left_child=2 5 3 4 -1 29 13 8 -5 19 -8 12 14 -3 15 16 -10 -18 -7 -4 22 -22 -6 -20 -25 -9 -27 28 -26 -2
right_child=1 6 9 7 20 18 10 25 11 -11 -12 -13 -14 -15 -16 -17 17 -19 23 -21 21 -23 -24 24 27 26 -28 -29 -30 -31
leaf_value=0.031232571415603164 0.0051919427353029346 0.01595763686627227 -0.0020159307843357062 -0.0055582930844511186 0.0087029715999960896 0.0085812972730960283 0.025957008958600154 -0.0025793252092215324 -0.010676763620965812 -0.00010423387103839087 0.035345605394936037 -0.01794445608180785 -0.0083209095447091385 0.021211997852433565 -0.014371628863393644 0.0027057155486076112 -0.01932519478723407 -0.010696070097507008 0.016662489569280299 -0.0055387895886919334 0.010287774880998768 0.00083998926038475474 -0.00082918314728885889 0.0049994347492853808 0.011764213095116752 -0.017133669066242873 -0.0070605379694172942 0.0056753227339747057 0.022080613548556963 -0.0014300520221392314
leaf_weight=32 1023 240 377 386 32 211 144 62 517 1458 56 63 500 205 217 31 64 62 60 252 64 64 128 30 360 32 1157 30 30 30
leaf_count=32 1023 240 377 386 32 211 144 62 517 1458 56 63 500 205 217 31 64 62 60 252 64 64 128 30 360 32 1157 30 30 30
internal_value=1.07159e-10 0.011241 -0.00494582 -0.00729532 0.00588743 0.00749529 0.0215433 -0.00866008 -0.00972341 -0.00110578 0.0285858 -0.0108291 -0.0105069 0.0183782 -0.0117336 -0.0108842 -0.0115394 -0.0150791 0.0111348 -0.00342731 0.00307131 0.00556388 0.00107725 0.0121912 0.0115951 -0.00709611 -0.00733164 0.0120662 0.0125578 0.00500328
internal_weight=7917 2419 5498 3411 320 1774 645 3091 1840 2087 200 1454 1391 445 891 674 643 126 721 629 288 128 160 510 450 1251 1189 420 390 1053
internal_count=7917 2419 5498 3411 320 1774 645 3091 1840 2087 200 1454 1391 445 891 674 643 126 721 629 288 128 160 510 450 1251 1189 420 390 1053
is_linear=0
shrinkage=0.1


Tree=8
num_leaves=31
num_cat=0
split_feature=0 0 0 0 0 0 0 0 0 0 0 0 0 0 0 0 0 0 0 0 0 0 0 0 0 0 0 0 0 0
split_gain=35.6906 6.67626 5.00556 4.90632 1.99333 1.5768 0.698046 0.651339 0.522177 0.430167 0.38929 0.253123 0.206095 0.210441 0.204775 0.168879 0.264394 0.14907 0.148052 0.185103 0.266721 0.161642 0.15311 0.13466 0.304285 0.12908 0.491055 0.3739 0.540271 0.203282
threshold=-1.3011385917311535 -0.91415809711777041 -1.6664200299067276 -2.7785544543643534 -4.0132412485363043 -1.10724687844533 -0.74189691055359852 -1.9553836699493585 -1.4619078021809195 -1.2859533467138509 -2.5359682539356823 -1.1875871578354289 -2.1805896292249387 -2.2302682704955568 -0.54798826886715823 -1.3054390117719723 -1.3170672118132909 -1.3109070320412963 -2.0578849858280699 -2.0645314471736844 -2.0785380588282041 -2.0875740220820176 -2.1098299416149922 -1.5871714848093614 -1.6090961619001312 -1.7536688902799245 -1.8116842430819255 -1.8514175820468075 -1.8834263246553429 -1.7992575160373907
decision_type=2 2 2 2 2 2 2 2 2 2 2 2 2 2 2 2 2 2 2 2 2 2 2 2 2 2 2 2 2 2
left_child=2 5 3 4 -1 9 -3 10 23 -2 -5 -11 13 -12 -8 16 -10 -18 19 20 21 22 -14 24 -4 26 27 28 -9 -28
right_child=1 6 8 7 -6 -7 14 25 15 11 12 -13 18 -15 -16 -17 17 -19 -20 -21 -22 -23 -24 -25 -26 -27 29 -29 -30 -31
leaf_value=0.028109313268214465 0.012010045355606465 0.018997275557461835 -0.0014926327511830817 -0.0057558698259346092 0.0020412555917408265 0.01172000141967651 0.025535726975322817 -0.0042543528544362703 0.0011292828835217214 0.0034435994256592963 -0.0099735357264643942 0.0067954319457253377 -0.0062471352940739978 -0.014426661139605718 0.035080194167260617 -0.0059288001829578031 0.012788066213890429 0.0029812368113667736 -0.009815585654282916 0.00045679178269159406 -0.016458759058807646 0.00011973044564647059 -0.01187620989587759 -0.00098039834561724267 -0.0072908515418608367 -0.0046099519740912618 -0.015379317771763571 -0.0009294003122098124 -0.01218750149935424 -0.0087805919476696068
leaf_weight=32 93 321 315 322 352 692 114 279 884 528 736 393 219 124 28 31 31 31 345 31 31 31 62 793 127 441 62 156 124 189
leaf_count=32 93 321 315 322 352 692 114 279 884 528 736 393 219 124 28 31 31 31 345 31 31 31 62 793 127 441 62 156 124 189
internal_value=8.08796e-11 0.0109301 -0.00412447 -0.00645849 0.00421359 0.00803986 0.0215798 -0.00775864 -0.000393414 0.00552836 -0.00892477 0.00487386 -0.009571 -0.0106156 0.0274177 0.00133402 0.00157202 0.00788465 -0.00832152 -0.00694331 -0.00761212 -0.00673313 -0.00748914 -0.00175998 -0.00315864 -0.0059866 -0.00673611 -0.00508623 -0.00669532 -0.0104106
internal_weight=7917 2169 5748 3536 384 1706 463 3152 2212 1014 1901 921 1579 860 142 977 946 62 719 374 343 312 281 1235 442 1251 810 559 403 251
internal_count=7917 2169 5748 3536 384 1706 463 3152 2212 1014 1901 921 1579 860 142 977 946 62 719 374 343 312 281 1235 442 1251 810 559 403 251
is_linear=0
shrinkage=0.1


Tree=9
num_leaves=31
num_cat=0
split_feature=0 0 0 0 0 0 0 0 0 0 0 0 0 0 0 0 0 0 0 0 0 0 0 0 0 0 0 0 0 0
split_gain=28.9528 6.19446 3.25044 4.0786 1.48905 1.04121 0.948602 0.355842 0.582734 0.320407 0.281044 0.239626 0.203437 0.231986 0.195062 0.152887 0.16431 0.128156 0.295607 0.360553 0.340013 0.437904 0.196218 0.518037 0.164659 0.123457 0.118756 0.129504 0.117925 0.309894
threshold=-1.3435650145688782 -0.97207019852356202 -1.6903971636032462 -2.8327847020275274 -4.0132412485363043 -1.1497227856797683 -0.78819664514490728 -2.6107446303374657 -1.9922153214487579 -1.554371309139823 -2.008304495109615 -0.64022442952969605 -2.1711701802870622 -2.3969008412815258 -0.88335643491098048 -1.5469192091339827 -1.5386409152619973 -1.7177426536841651 -1.7536688902799245 -1.8116842430819255 -1.8514175820468075 -1.8584841857166177 -1.8661179727865156 -1.8757826483390754 -1.7992575160373907 -1.7237743990835113 -1.7621980760565583 -1.7690088753936566 -2.4850633943434151 -2.5021965222265794
decision_type=2 2 2 2 2 2 2 2 2 2 2 2 2 2 2 2 2 2 2 2 2 2 2 2 2 2 2 2 2 2
left_child=2 5 3 4 -1 -2 14 -5 10 -4 12 -8 13 28 -3 -11 -17 18 19 20 21 22 23 -10 -21 -20 27 -26 29 -9
right_child=1 6 9 7 -6 -7 11 8 17 15 -12 -13 -14 -15 -16 16 -18 -19 25 24 -22 -23 -24 -25 26 -27 -28 -29 -30 -31
leaf_value=0.025298382062464955 0.0040609523003418109 0.013244766903306327 -0.0025434345572739646 -0.0034627980588851971 0.0025600508056565258 0.0089934247041243195 0.021071089873051584 -0.0074136270469111606 -0.0050533250238259334 0.0048410377539102999 -0.015168451233988717 0.028780248460160304 -0.0066999822590674751 -0.010426666276029565 0.017526639447632161 -0.0052266203302649729 5.2236439984104603e-05 -0.0087601741805436121 -0.0029267246793932139 -0.013841385310215336 -0.00083646065199550676 -0.017681223105999729 0.0022728581597367603 -0.018433065760520197 -0.0082349957957390755 0.0039717714963180403 -0.01356160760023481 -0.0011112302774563432 -0.0055443826401750974 -0.018027433566749098
leaf_weight=32 1053 269 758 257 288 721 144 196 435 63 63 56 500 599 176 62 1204 126 159 62 156 31 31 31 126 31 31 32 193 32
leaf_count=32 1053 269 758 257 288 721 144 196 435 63 63 56 500 599 176 62 1204 126 159 62 156 31 31 31 126 31 31 32 193 32
internal_value=1.18047e-10 0.00911695 -0.00401126 -0.00591317 0.00483388 0.00606564 0.0175092 -0.00702577 -0.00734887 -0.000902777 -0.00862362 0.0232297 -0.00835235 -0.00916234 0.0149383 3.29779e-05 -0.000206286 -0.00573583 -0.0053971 -0.00612782 -0.00493826 -0.00615015 -0.00543091 -0.00594339 -0.0093695 -0.00180118 -0.00790253 -0.00679221 -0.00736346 -0.00890328
internal_weight=7917 2419 5498 3411 320 1774 645 3091 2834 2087 1583 200 1520 1020 445 1329 1266 1251 1125 935 684 528 497 466 251 190 189 158 421 228
internal_count=7917 2419 5498 3411 320 1774 645 3091 2834 2087 1583 200 1520 1020 445 1329 1266 1251 1125 935 684 528 497 466 251 190 189 158 421 228
is_linear=0
shrinkage=0.1


Tree=10
num_leaves=31
num_cat=0
split_feature=0 0 0 0 0 0 0 0 0 0 0 0 0 0 0 0 0 0 0 0 0 0 0 0 0 0 0 0 0 0
split_gain=23.4893 4.39034 3.27973 3.00324 1.20613 1.05728 0.777187 0.472643 0.360804 0.338631 0.298254 0.198934 0.193088 0.192149 0.174175 0.409538 0.299126 0.20402 0.345812 0.238527 0.370864 0.324709 0.258589 0.170987 0.160464 0.149562 0.191563 0.139327 0.133957 0.133374
threshold=-1.3011385917311535 -0.91415809711777041 -1.5871714848093614 -2.8327847020275274 -4.0132412485363043 -1.10724687844533 -1.7536688902799245 -0.71407281844984949 -1.2859533467138509 -2.6107446303374657 -2.1711701802870622 -2.4235248657071717 -2.4728314776794549 -1.2226583932141628 -1.8116842430819255 -1.8514175820468075 -1.8584841857166177 -1.8661179727865156 -1.8757826483390754 -1.9309002078133126 -1.9234225944291061 -1.9377524056050421 -1.9461828608569844 -1.6023770799092192 -1.4619078021809195 -1.3054390117719723 -1.3170672118132909 -2.1296667211094715 -1.4787177174821784 -1.7992575160373907
decision_type=2 2 2 2 2 2 2 2 2 2 2 2 2 2 2 2 2 2 2 2 2 2 2 2 2 2 2 2 2 2
left_child=2 5 3 4 -1 8 9 -3 -2 -5 11 12 -11 -10 15 16 17 18 19 21 -21 22 27 -8 28 26 -26 -12 -4 -16
right_child=1 7 24 6 -6 -7 23 -9 13 10 14 -13 -14 -15 29 -17 -18 -19 -20 20 -22 -23 -24 -25 25 -27 -28 -29 -30 -31
leaf_value=0.022768544964492321 0.010402945552136431 0.015687818772059735 -0.00033378331707929732 -0.0031165186417921437 0.0023040460809877713 0.0095368460134665003 -0.0026820280072024846 0.023126294907307113 0.0020096550165019361 -0.007753391608440182 -0.0036165388843975958 -0.0092708901484128328 -0.0025082702986158742 0.004990424221979442 -0.012457247735648942 -0.00075281481983368464 -0.015913101033337654 0.0020455720556539396 -0.016589759338286617 0.0071941182498008981 -0.0046199626562195605 -0.016709370502541145 0.0026769718455691496 -0.0071523564174034012 0.00093993556634254332 -0.0057420151007752272 0.0066900912281726635 -0.0072896513967139424 -0.0042830253455892432 -0.0071122797633785817
leaf_weight=32 93 350 695 257 288 692 787 113 347 261 125 663 96 574 62 156 31 31 31 31 186 31 31 96 884 31 62 594 98 189
leaf_count=32 93 350 695 257 288 692 787 113 347 261 125 663 96 574 62 156 31 31 31 31 186 31 31 96 884 31 62 594 98 189
internal_value=-1.02092e-11 0.00886714 -0.003346 -0.00493937 0.0043505 0.00652334 -0.00575204 0.0175033 0.00446679 -0.00657426 -0.00692718 -0.00824611 -0.00634294 0.00386738 -0.00602911 -0.00554534 -0.00623061 -0.00594744 -0.00618824 -0.00586515 -0.00293224 -0.00668006 -0.00626551 -0.00316804 0.000235011 0.00109282 0.0013168 -0.00665107 -0.000821836 -0.00843255
internal_weight=7917 2169 5748 3978 320 1706 3658 463 1014 2775 2518 1020 357 921 1498 1247 1091 1060 1029 998 217 781 750 883 1770 977 946 719 793 251
internal_count=7917 2169 5748 3978 320 1706 3658 463 1014 2775 2518 1020 357 921 1498 1247 1091 1060 1029 998 217 781 750 883 1770 977 946 719 793 251
is_linear=0
shrinkage=0.1


Tree=11
num_leaves=31
num_cat=0
split_feature=0 0 0 0 0 0 0 0 0 0 0 0 0 0 0 0 0 0 0 0 0 0 0 0 0 0 0 0 0 0
split_gain=19.0452 4.11723 2.15788 2.72764 1.05147 0.723547 0.582165 0.280148 0.25966 0.202051 0.19347 0.190223 0.18138 0.154985 0.144458 0.199092 0.153965 0.176691 0.174045 0.143391 0.164725 0.237276 0.156661 0.232458 0.147627 0.300664 0.212998 0.135546 0.2267 0.132476
threshold=-1.3435650145688782 -0.99465331449950212 -1.6903971636032462 -2.7785544543643534 -4.0132412485363043 -0.78819664514490728 -1.1497227856797683 -1.9922153214487579 -2.008304495109615 -1.554371309139823 -2.5178859172961325 -2.1805896292249387 -0.54798826886715823 -0.8929954023540011 -0.9022511842021671 -0.91415809711777041 -0.98438537633667023 -0.97207019852356202 -0.93730581383380152 -2.2302682704955568 -2.4850633943434151 -2.4235248657071717 -2.2859533467138502 -2.3053018181587199 -2.2531664264288618 -2.2642431166258512 -2.2425597269607822 -1.9712765103910141 -1.9632918655547809 -2.7401685276781023
decision_type=2 2 2 2 2 2 2 2 2 2 2 2 2 2 2 2 2 2 2 2 2 2 2 2 2 2 2 2 2 2
left_child=2 6 3 4 -1 13 -2 8 10 -4 29 19 -7 14 15 16 -3 -18 -19 20 -12 -22 23 -23 25 -24 -26 -9 -29 -5
right_child=1 5 9 7 -6 12 -8 27 -10 -11 11 -13 -14 -15 -16 -17 17 18 -20 -21 21 22 24 -25 26 -27 -28 28 -30 -31
leaf_value=0.020491689350456001 0.003288218724933397 0.016847524680197241 -0.0020234427912901635 -0.010449009947478771 0.0015587822637164871 0.017702582016423801 0.0070745042285532515 -0.00010553640914299795 -0.012922640628225747 2.2503711359787899e-05 -0.012120951442047953 -0.0054533451941946708 0.026381519892519075 0.013930198036406825 0.0036547393104511094 0.018910431418696357 0.0020827633701264859 0.012588387282836871 0.0060633972317220702 -0.011014239474259798 -0.0030062759785922863 -0.0077648585530120402 -0.0066593532074963853 -0.014425565683632159 -0.014799680980673481 0.005402252558738955 -0.0030771245579085046 -0.013204445759765805 -0.0046719647087309713 -0.003704566608185242
leaf_weight=32 1053 30 758 32 352 172 661 62 63 1329 65 531 28 205 29 29 30 120 62 124 129 289 62 64 31 31 31 32 1157 324
leaf_count=32 1053 30 758 32 352 172 661 62 63 1329 65 531 28 205 29 29 30 120 62 124 129 289 62 64 31 31 31 32 1157 324
internal_value=3.53303e-12 0.00739429 -0.00325333 -0.00480297 0.00313652 0.013827 0.00474839 -0.00581016 -0.00661757 -0.000720586 -0.00638569 -0.00693002 0.0189176 0.0118109 0.0103628 0.0110806 0.0101423 0.00919349 0.0103656 -0.00787931 -0.00732556 -0.00683623 -0.0078088 -0.00897247 -0.00515865 -0.00263882 -0.0089384 -0.00466391 -0.0049016 -0.00431081
internal_weight=7917 2419 5498 3411 384 705 1714 3027 1776 2087 1713 1357 200 505 300 271 242 212 182 826 702 637 508 353 155 93 62 1251 1189 356
internal_count=7917 2419 5498 3411 384 705 1714 3027 1776 2087 1713 1357 200 505 300 271 242 212 182 826 702 637 508 353 155 93 62 1251 1189 356
is_linear=0
shrinkage=0.1


Tree=12
num_leaves=31
num_cat=0
split_feature=0 0 0 0 0 0 0 0 0 0 0 0 0 0 0 0 0 0 0 0 0 0 0 0 0 0 0 0 0 0
split_gain=15.4598 2.91658 2.17412 2.15668 0.851689 0.487792 0.473862 0.300935 0.292069 0.371083 0.239602 0.232759 0.232253 0.173801 0.17092 0.13991 0.133063 0.306439 0.131817 0.130906 0.139479 0.120746 0.109732 0.126724 0.339086 0.182035 0.1287 0.10862 0.10714 0.115765
threshold=-1.3011385917311535 -0.96507810923964332 -1.6664200299067276 -2.7785544543643534 -4.0132412485363043 -0.74189691055359852 -1.10724687844533 -1.2859533467138509 -1.9309002078133126 -1.9234225944291061 -1.9377524056050421 -1.4619078021809195 -1.9461828608569844 -2.6107446303374657 -2.7125282941725479 -1.2226583932141628 -1.2376166961401212 -1.2504266873651424 -0.88335643491098048 -1.3054390117719723 -1.3170672118132909 -1.3109070320412963 -3.4246699295950829 -3.0396927392518074 -2.925925211344897 -2.8079791218687626 -2.8327847020275274 -0.54798826886715823 -1.096571521063556 -1.0891534985275193
decision_type=2 2 2 2 2 2 2 2 2 2 2 2 2 2 2 2 2 2 2 2 2 2 2 2 2 2 2 2 2 2
left_child=2 6 3 4 -1 18 7 -2 10 -10 12 -4 13 14 -5 16 17 -9 -3 20 -13 -22 -6 -24 -25 26 -26 -7 -8 -30
right_child=1 5 11 8 22 27 28 15 9 -11 -12 19 -14 -15 -16 -17 -18 -19 -20 -21 21 -23 23 24 25 -27 -28 -29 29 -31
leaf_value=0.018442522082477809 0.0090338288385781555 0.0098277588501069942 -0.0011679675364534576 -0.007226273347623647 0.0069862604141235352 0.016792034725515628 0.011263763085007669 0.00073301466570930662 0.0069419029138741957 -0.0041484857369914648 -0.014571236644781405 0.00078569192564951432 0.0028764712173611887 -0.0061643238094701716 -0.00090520526869078139 0.0040233777458274509 -0.0017327578956300906 0.0089153598311046758 0.013166710950239436 -0.0054966362253312147 0.010105333091210455 0.0012791868179075181 -0.0015926786926769411 0.0084125835805025414 -9.0422978246351704e-05 0.0060296173091046517 -0.0078575388732133444 0.023743367326512402 0.00076701381554206225 0.0071826878785828333
leaf_weight=32 93 239 1235 64 32 114 60 193 31 1127 31 884 31 1739 129 574 94 60 234 31 31 31 128 64 64 32 32 28 30 450
leaf_count=32 93 239 1235 64 32 114 60 193 31 1127 31 884 31 1739 129 574 94 60 234 31 31 31 128 64 64 32 32 28 30 450
internal_value=8.40153e-11 0.00719367 -0.00271452 -0.00425275 0.00282287 0.0130227 0.00488682 0.0036125 -0.00511475 -0.00385159 -0.00584832 -0.000255589 -0.00571057 -0.00584835 -0.00300131 0.00306507 0.00147987 0.00267349 0.0114796 0.000897724 0.00110726 0.00569226 0.0014029 0.000844568 0.0024694 -0.000502192 -0.00267946 0.0181627 0.00727971 0.00678171
internal_weight=7917 2169 5748 3536 384 615 1554 1014 3152 1158 1994 2212 1963 1932 193 921 347 253 473 977 946 62 352 320 192 128 96 142 540 480
internal_count=7917 2169 5748 3536 384 615 1554 1014 3152 1158 1994 2212 1963 1932 193 921 347 253 473 977 946 62 352 320 192 128 96 142 540 480
is_linear=0
shrinkage=0.1


Tree=13
num_leaves=31
num_cat=0
split_feature=0 0 0 0 0 0 0 0 0 0 0 0 0 0 0 0 0 0 0 0 0 0 0 0 0 0 0 0 0 0
split_gain=12.5282 2.71055 1.42295 1.79328 0.689868 0.47806 0.384883 0.187235 0.207785 0.137241 0.204668 0.13606 0.148436 0.173402 0.124702 0.122538 0.212796 0.121242 0.115847 0.177844 0.105335 0.102365 0.099346 0.114902 0.127541 0.114617 0.154397 0.0923791 0.240941 0.263674
threshold=-1.3435650145688782 -0.99465331449950212 -1.6903971636032462 -2.7785544543643534 -4.0132412485363043 -0.78819664514490728 -1.1497227856797683 -1.9922153214487579 -2.008304495109615 -1.5871714848093614 -1.6023770799092192 -2.5359682539356823 -2.1602563932819319 -2.1480850514297187 -0.64022442952969605 -1.7177426536841651 -1.7237743990835113 -1.1553792032909425 -1.9712765103910141 -1.9632918655547809 -1.6850911013904943 -2.7401685276781023 -0.88335643491098048 -0.82619696710095236 -0.84218317746921711 -0.98438537633667023 -0.97207019852356202 -1.7536688902799245 -1.8116842430819255 -1.8274363572129577
decision_type=2 2 2 2 2 2 2 2 2 2 2 2 2 2 2 2 2 2 2 2 2 2 2 2 2 2 2 2 2 2
left_child=2 6 3 4 -1 22 17 8 11 10 20 21 -13 -14 -7 16 18 -2 -9 -20 -4 -5 25 24 -24 -3 -27 28 29 -21
right_child=1 5 9 7 -6 14 -8 15 -10 -11 -12 12 13 -15 -16 -17 -18 -19 19 27 -22 -23 23 -25 -26 26 -28 -29 -30 -31
leaf_value=0.016598270460963249 0.0028468514740615466 0.014444502977033456 0.0044871038291603325 -0.0086814817514095921 0.0012626137693917952 0.013797318000837956 0.005741707765491948 0.00052144947243974575 -0.011013944417474763 -8.6654387713152627e-05 -0.0061179794759179153 -0.0063306959794066399 0.0030826991033409876 -0.0046570750664135345 0.019358619097952865 -0.0067339086413359464 0.0047248424120968392 -0.0036028867587447168 -0.011267568706534803 -0.0037326142938368459 -0.0014556771542177938 -0.0027217032710804834 0.011410186166111171 0.0078510271088252283 0.019046288651639019 0.0011562182568013669 0.0087196344673308133 -0.0014838047203338419 -0.0067072501458019856 0.003160997247323394
leaf_weight=32 1023 30 32 32 352 144 661 62 63 1520 96 923 31 437 56 126 31 30 32 528 439 290 89 58 29 30 269 159 251 62
leaf_count=32 1023 30 32 32 352 144 661 62 63 1520 96 923 31 437 56 126 31 30 32 528 439 290 89 58 29 30 269 159 251 62
internal_value=3.54746e-11 0.0059972 -0.00263864 -0.00389702 0.00254059 0.0112166 0.00385036 -0.00471368 -0.00537376 -0.000581934 -0.00190967 -0.00516632 -0.00559512 -0.0041444 0.0153545 -0.00377659 -0.00344537 0.0026631 -0.00367689 -0.00392911 -0.00105192 -0.00331398 0.00957785 0.0114955 0.0132869 0.00855199 0.00796076 -0.00369428 -0.0041122 -0.0030082
internal_weight=7917 2419 5498 3411 384 705 1714 3027 1776 2087 567 1713 1391 468 200 1251 1125 1053 1094 1032 471 322 505 176 118 329 299 1000 841 590
internal_count=7917 2419 5498 3411 384 705 1714 3027 1776 2087 567 1713 1391 468 200 1251 1125 1053 1094 1032 471 322 505 176 118 329 299 1000 841 590
is_linear=0
shrinkage=0.1


Tree=14
num_leaves=31
num_cat=0
split_feature=0 0 0 0 0 0 0 0 0 0 0 0 0 0 0 0 0 0 0 0 0 0 0 0 0 0 0 0 0 0
split_gain=10.1829 1.90828 1.43275 1.43456 0.512414 0.324781 0.319819 0.247887 0.166658 0.302703 0.212737 0.189764 0.192495 0.157424 0.11423 0.111739 0.14359 0.161545 0.106243 0.107781 0.248215 0.100971 0.0978045 0.093918 0.187404 0.152613 0.0917787 0.130189 0.0888457 0.189784
threshold=-1.3011385917311535 -0.96507810923964332 -1.6664200299067276 -2.8327847020275274 -4.0132412485363043 -0.74189691055359852 -1.10724687844533 -1.2859533467138509 -1.9309002078133126 -1.9234225944291061 -2.6359860836923792 -1.9377524056050421 -1.9461828608569844 -1.4619078021809195 -1.3054390117719723 -2.8079791218687626 -2.7785544543643534 -2.7125282941725479 -1.2226583932141628 -1.2376166961401212 -1.2504266873651424 -1.3170672118132909 -1.3109070320412963 -3.0396927392518074 -2.925925211344897 -3.4246699295950829 -1.6723933475476684 -1.6903971636032462 -1.7177426536841651 -1.7536688902799245
decision_type=2 2 2 2 2 2 2 2 2 2 2 2 2 2 2 2 2 2 2 2 2 2 2 2 2 2 2 2 2 2
left_child=2 6 3 4 -1 -3 7 -2 10 -10 15 12 -12 -4 21 -5 -17 -18 19 20 -9 -15 -23 25 -25 -6 27 28 29 -11
right_child=1 5 13 8 23 -7 -8 18 9 26 11 -13 -14 14 -16 16 17 -19 -20 -21 -22 22 -24 24 -26 -27 -28 -29 -30 -31
leaf_value=0.014938443154096604 0.0078457611820770684 0.0092941132083438713 -0.00095726746877244657 -0.007198046710254858 0.0061613735420905872 0.014747397033628866 0.0059381544015306847 0.00037502770746727552 0.0066209740816585488 -0.0039951677962257902 -0.004986631758192913 -0.012740852755884971 0.0029620851329978434 0.00066368821776100406 -0.0052316578195220039 0.0053003930457634855 -0.0059334869001759216 0.00053919174938856331 0.0032636502419577311 -0.0018441673962676778 0.007739139355253429 0.0088101145420824336 0.00086658323003399758 0.0074450638305279433 -0.00020764200598932803 -0.0015596722227201099 -0.008761399671916038 0.00031453367440956349 -0.0060605185860324474 -0.00042373295824386573
leaf_weight=32 93 473 1235 32 32 142 540 193 31 686 1771 31 31 884 31 32 64 97 574 94 60 31 31 64 64 128 31 94 126 190
leaf_count=32 93 473 1235 32 32 142 540 193 31 686 1771 31 31 884 31 32 64 97 574 94 60 31 31 64 64 128 31 94 126 190
internal_value=-2.12283e-11 0.00583827 -0.00220306 -0.00345178 0.0029336 0.0105532 0.00397231 0.00292541 -0.00408714 -0.00312747 -0.00462713 -0.00498334 -0.00484989 -0.00020693 0.000741552 -0.00172518 -0.000817767 -0.0020338 0.00242857 0.0010472 0.00212146 0.000937292 0.00483835 0.00159973 0.00361871 -1.54631e-05 -0.00339561 -0.00324384 -0.00357766 -0.00322054
internal_weight=7917 2169 5748 3536 320 615 1554 1014 3216 1158 2058 1833 1802 2212 977 225 193 161 921 347 253 946 62 288 128 160 1127 1096 1002 876
internal_count=7917 2169 5748 3536 320 615 1554 1014 3216 1158 2058 1833 1802 2212 977 225 193 161 921 347 253 946 62 288 128 160 1127 1096 1002 876
is_linear=0
shrinkage=0.1


Tree=15
num_leaves=31
num_cat=0
split_feature=0 0 0 0 0 0 0 0 0 0 0 0 0 0 0 0 0 0 0 0 0 0 0 0 0 0 0 0 0 0
split_gain=8.24817 1.56447 1.17119 1.08164 0.415055 0.373575 0.273879 0.200788 0.1954 0.136149 0.133592 0.126117 0.145888 0.118821 0.279629 0.249027 0.159553 0.288043 0.134767 0.190267 0.174011 0.13604 0.122535 0.142123 0.113277 0.144027 0.108033 0.0961927 0.104898 0.095727
threshold=-1.3011385917311535 -0.91415809711777041 -1.5871714848093614 -2.8327847020275274 -4.0132412485363043 -1.10724687844533 -1.7536688902799245 -1.2859533467138509 -0.64022442952969605 -2.6359860836923792 -1.6023770799092192 -2.1602563932819319 -2.1480850514297187 -1.8116842430819255 -1.8514175820468075 -1.8584841857166177 -1.8661179727865156 -1.8757826483390754 -1.9309002078133126 -1.9234225944291061 -1.9377524056050421 -1.9461828608569844 -1.9154223242402719 -1.8834263246553429 -2.4235248657071717 -2.4728314776794549 -1.7992575160373907 -1.7621980760565583 -1.7690088753936566 -2.4083450595067473
decision_type=2 2 2 2 2 2 2 2 2 2 2 2 2 2 2 2 2 2 2 2 2 2 2 2 2 2 2 2 2 2
left_child=2 5 3 4 -1 7 9 -2 -3 -5 -8 24 -13 14 15 16 17 18 20 -20 21 -14 -21 -24 25 -11 -15 28 -28 -26
right_child=1 8 -4 6 -6 -7 10 -9 -10 11 -12 12 13 26 -16 -17 -18 -19 19 22 -22 -23 23 -25 29 -27 27 -29 -30 -31
leaf_value=0.013444597308989614 0.0070611849264492115 0.0096477121983126208 0.00015717440782677869 -0.0015526658976450563 0.0014397529492826936 0.0056466135760463746 -0.0014590921893708759 0.0021857123130453677 0.015948017487036333 -0.0046716516530943821 -0.0054104546929011127 0.0032730917806827256 -0.0041133387774696132 -0.0092592358368546561 0.00070331341539246923 -0.012666968015893813 0.0034958382587759727 -0.013275959414820519 0.0059588763847826954 -0.0082424402597450451 -0.011466766475425702 0.0026658774924374399 0.0001587514074579362 -0.0074114242793932071 -0.011043448746204377 -0.00020864983841117161 -0.0047479821939117439 -0.0095419319857272412 0.0016634079045616092 -0.0054435796393741756
leaf_weight=32 93 407 1770 225 288 692 787 921 56 293 96 31 656 62 156 31 31 31 31 31 31 31 124 31 32 96 126 31 32 663
leaf_count=32 93 407 1770 225 288 692 787 921 56 293 96 31 656 62 156 31 31 31 31 31 31 31 124 31 32 96 126 31 32 663
internal_value=-2.09601e-11 0.00525445 -0.00198276 -0.00293492 0.00264024 0.00385533 -0.00342263 0.00263287 0.0104097 -0.00391072 -0.00188869 -0.00411879 -0.00351405 -0.00366068 -0.00324171 -0.00384037 -0.00356592 -0.00379254 -0.00347811 -0.00129428 -0.00413813 -0.00380744 -0.00250314 -0.00135528 -0.00493663 -0.00357024 -0.00563701 -0.00444877 -0.00344947 -0.00570142
internal_weight=7917 2169 5748 3978 320 1706 3658 1014 463 2775 883 2550 1466 1435 1184 1028 997 966 935 217 718 687 186 155 1084 389 251 189 158 695
internal_count=7917 2169 5748 3978 320 1706 3658 1014 463 2775 883 2550 1466 1435 1184 1028 997 966 935 217 718 687 186 155 1084 389 251 189 158 695
is_linear=0
shrinkage=0.1


Tree=16
num_leaves=31
num_cat=0
split_feature=0 0 0 0 0 0 0 0 0 0 0 0 0 0 0 0 0 0 0 0 0 0 0 0 0 0 0 0 0 0
split_gain=6.71679 1.45941 0.756674 0.964393 0.336194 0.275322 0.207575 0.117199 0.106546 0.111758 0.0971131 0.106265 0.171889 0.0997426 0.0965239 0.135611 0.155452 0.111977 0.11123 0.129095 0.089546 0.153277 0.0814725 0.0782472 0.137721 0.118891 0.097276 0.0962899 0.216976 0.0760736
threshold=-1.3435650145688782 -0.99465331449950212 -1.6903971636032462 -2.8327847020275274 -4.0132412485363043 -0.78819664514490728 -1.1497227856797683 -1.3317476126598715 -1.3170672118132909 -1.3109070320412963 -1.1553792032909425 -1.3011385917311535 -1.2859533467138509 -1.1735864829494445 -2.6587197248051755 -1.9922153214487579 -2.008304495109615 -2.7125282941725479 -1.9712765103910141 -1.9632918655547809 -1.7177426536841651 -1.7237743990835113 -0.54798826886715823 -1.554371309139823 -1.5469192091339827 -1.5386409152619973 -1.6850911013904943 -1.5287071455288348 -1.5331623078877739 -3.0396927392518074
decision_type=2 2 2 2 2 2 2 2 2 2 2 2 2 2 2 2 2 2 2 2 2 2 2 2 2 2 2 2 2 2
left_child=2 6 3 4 -1 -3 7 -2 -9 -10 11 -11 -13 -14 17 16 -16 -5 -17 -20 21 -21 -7 26 -25 -26 -4 28 -27 -6
right_child=1 5 23 14 29 22 -8 8 9 10 -12 12 13 -15 15 18 -18 -19 19 20 -22 -23 -24 24 25 27 -28 -29 -30 -31
leaf_value=0.012100137211382389 0.0061261257009766904 0.0069774231345549531 0.0041528496891260151 -0.0029417743629892358 -0.00015789206898261909 0.010546920422009777 0.0042049106049056222 -0.0015249946293361646 0.007913386208876487 -0.001980000361800194 -0.0037875349260866643 0.0063550665974617011 0.0012952987818414636 0.0048525652505334591 -0.0039373419395539689 0.0013793012833282832 -0.0090025531512404246 0.0021548446122771846 -0.009230815621413058 -0.0026991686330293304 -0.0053085578092750873 0.0044406396547152149 0.016363627548603942 0.0045935333285125951 -0.0044673586097140347 -0.0018460575369262544 -0.0014808565689992937 -0.00018888769563585686 0.0098048125568311675 0.003112864783497571
leaf_weight=32 63 505 32 128 160 172 661 94 31 62 30 93 589 91 1584 62 63 65 32 1000 126 31 28 63 62 33 726 1140 31 128
leaf_count=32 63 505 32 128 160 172 661 94 31 62 30 93 589 91 1584 62 63 65 32 1000 126 31 28 63 62 33 726 1140 31 128
internal_value=-5.48453e-11 0.00439122 -0.00193204 -0.00284968 0.00237621 0.00822106 0.00281593 0.00194403 0.00167789 0.00201391 0.00180249 0.00200332 0.00232281 0.00177134 -0.0033907 -0.00353491 -0.00413109 -0.0012253 -0.00275001 -0.00296533 -0.00279204 -0.00248449 0.0113613 -0.000432246 3.01834e-05 -0.000196903 -0.00124302 2.30044e-05 0.00379733 0.00129578
internal_weight=7917 2419 5498 3411 320 705 1714 1053 990 896 865 835 773 680 3091 2898 1647 193 1251 1189 1157 1031 200 2087 1329 1266 758 1204 64 288
internal_count=7917 2419 5498 3411 320 705 1714 1053 990 896 865 835 773 680 3091 2898 1647 193 1251 1189 1157 1031 200 2087 1329 1266 758 1204 64 288
is_linear=0
shrinkage=0.1


Tree=17
num_leaves=31
num_cat=0
split_feature=0 0 0 0 0 0 0 0 0 0 0 0 0 0 0 0 0 0 0 0 0 0 0 0 0 0 0 0 0 0
split_gain=5.4406 1.18291 0.633681 0.731113 0.352704 0.25496 0.155772 0.135736 0.111286 0.109163 0.0971141 0.13691 0.109422 0.0973803 0.0933509 0.0919776 0.0904712 0.0794482 0.0770896 0.149604 0.0972518 0.0887882 0.0753712 0.0894064 0.0698265 0.0685042 0.0573583 0.103075 0.267637 0.282386
threshold=-1.3435650145688782 -1.0030081429140234 -3.4246699295950829 -1.6664200299067276 -2.6587197248051755 -0.86979933065931914 -1.1373253313633802 -2.1602563932819319 -2.1480850514297187 -2.3969008412815258 -2.4083450595067473 -2.4235248657071717 -2.4728314776794549 -2.5178859172961325 -0.64022442952969605 -1.3317476126598715 -1.3269862445203022 -2.4850633943434151 -1.0496968148364465 -1.0359516224755458 -1.0292873011921782 -1.072491493755934 -1.6723933475476684 -1.6903971636032462 -2.5021965222265794 -1.6791410167550376 -1.4619078021809195 -1.363109349034739 -1.3682299642520261 -1.373766530048383
decision_type=2 2 2 2 2 2 2 2 2 2 2 2 2 2 2 2 2 2 2 2 2 2 2 2 2 2 2 2 2 2
left_child=2 6 -1 4 -4 -3 15 9 -9 10 11 12 13 -6 -7 -2 -17 24 21 -20 -21 -8 23 -10 -15 -25 -5 28 29 -28
right_child=1 5 3 26 7 14 18 8 22 -11 -12 -13 -14 17 -16 16 -18 -19 19 20 -22 -23 -24 25 -26 -27 27 -29 -30 -31
leaf_value=0.008153587258129846 0.0055135128539173855 0.0055379875695582524 -0.00011205792761270896 -0.00072716360281811657 -0.0024992148967584549 0.0085492436194098704 0.0037983063661394356 0.003339517389934871 -0.0027804527538800631 -0.0048587554120407004 0.0024605154991149906 -0.0095453694520983845 0.00020594876259565355 -0.0050722523620634376 0.013007688110311784 -0.0037422912645964854 0.0017415127602472867 -0.0022750081268675401 -0.0019556510549349091 0.0090907955293854075 0.0025163740043838822 0.0073781293656470046 -0.0075912648992192359 0.0022789640825182675 -0.011628190404735506 -0.0034631461400779027 0.00099167956755512126 -0.0022333785031679004 0.0099819979878262646 -0.008537781866493099
leaf_weight=64 63 388 449 1235 227 291 301 31 1751 631 32 32 96 33 56 31 1019 33 60 30 90 90 31 63 32 31 539 124 31 33
leaf_count=64 63 388 449 1235 227 291 301 31 1751 631 32 32 96 33 56 31 1019 33 60 30 90 90 31 63 32 31 539 124 31 33
internal_value=-4.98956e-11 0.0039521 -0.00173884 -0.00185535 -0.0027273 0.00729932 0.00249117 -0.00311573 -0.00260313 -0.00399167 -0.00286356 -0.00323966 -0.00276036 -0.00363656 0.00926876 0.00180228 0.00157961 -0.00627104 0.00383394 0.00212144 0.00415998 0.00462231 -0.00270132 -0.00261916 -0.00829979 0.000385289 -0.000312322 0.000392395 0.000932356 0.000441903
internal_weight=7917 2419 5498 5434 3472 735 1684 3023 1907 1116 485 453 421 325 347 1113 1050 98 571 180 120 391 1876 1845 65 94 1962 727 603 572
internal_count=7917 2419 5498 5434 3472 735 1684 3023 1907 1116 485 453 421 325 347 1113 1050 98 571 180 120 391 1876 1845 65 94 1962 727 603 572
is_linear=0
shrinkage=0.1


Tree=18
num_leaves=31
num_cat=0
split_feature=0 0 0 0 0 0 0 0 0 0 0 0 0 0 0 0 0 0 0 0 0 0 0 0 0 0 0 0 0 0
split_gain=4.40689 0.962664 0.513281 0.592202 0.294961 0.280293 0.105188 0.173954 0.0940659 0.13792 0.0890352 0.0863562 0.110311 0.0818593 0.195474 0.140729 0.0800676 0.0996373 0.0792594 0.0738069 0.0745018 0.0802181 0.0883802 0.0802875 0.148615 0.0767994 0.0713608 0.0710214 0.114944 0.0722536
threshold=-1.3435650145688782 -0.8929954023540011 -3.4246699295950829 -1.6664200299067276 -2.7785544543643534 -1.10724687844533 -0.9022511842021671 -0.91415809711777041 -1.9922153214487579 -2.008304495109615 -0.64022442952969605 -1.9712765103910141 -1.9553836699493585 -3.0396927392518074 -2.925925211344897 -2.8079791218687626 -1.096571521063556 -1.0891534985275193 -1.1121015601618731 -1.1373253313633802 -1.3317476126598715 -1.3170672118132909 -1.3109070320412963 -1.3011385917311535 -1.2859533467138509 -1.2742326178612726 -1.6723933475476684 -0.93730581383380152 -0.96507810923964332 -0.92605498305027745
decision_type=2 2 2 2 2 2 2 2 2 2 2 2 2 2 2 2 2 2 2 2 2 2 2 2 2 2 2 2 2 2
left_child=2 5 -1 4 13 18 7 16 9 -6 -3 -10 -13 -4 -15 -16 -7 -18 19 20 -2 -22 -23 -24 -25 -26 -14 28 -19 -29
right_child=1 10 3 -5 8 6 -8 -9 11 -11 -12 12 26 14 15 -17 17 27 -20 -21 21 22 23 24 25 -27 -28 29 -30 -31
leaf_value=0.007338228043226991 0.004962161570669167 0.0074115396512306718 -0.0015206850408958418 -0.00028108936075596914 -0.0030601001385397127 0.0076044184547693783 -0.0017111976984246022 0.012018924752443002 0.0015194172520310648 -0.0078242527247066544 0.011706919163199409 -0.0063826123296859723 -0.0019736884327912628 0.0062565021313275796 -0.0024264866622009627 0.0052310046477941803 -0.0018426573866357409 0.003777785027697165 -0.003325071943691001 0.0042226098062208865 -0.0013657970131038036 0.0069478961098338333 -0.001956152032700277 0.0055454089281259372 -0.002032227653063952 0.0016114859295418801 -0.0068321391940116888 -0.0026690193855514132 0.0076926129060383474 0.0041620702948421242
leaf_weight=64 63 349 128 1962 1713 60 29 29 62 63 56 63 1220 64 96 32 30 450 30 121 94 31 62 93 63 707 31 30 90 32
leaf_count=64 63 349 128 1962 1713 60 29 29 62 63 56 63 1220 64 96 32 30 450 30 121 94 31 62 93 63 707 31 30 90 32
internal_value=8.02576e-11 0.00355689 -0.00156495 -0.00166981 -0.00245457 0.00266231 0.00419382 0.00443133 -0.00274825 -0.0032291 0.00800547 -0.00212761 -0.0022997 0.000438181 0.00174409 -0.000512114 0.00411335 0.00378192 0.00175359 0.00187705 0.00162206 0.00142165 0.00169573 0.00151971 0.00176942 0.00131336 -0.00209408 0.00406222 0.00443026 0.000856704
internal_weight=7917 2419 5498 5434 3472 2014 750 721 3152 1776 405 1376 1314 320 192 128 692 632 1264 1234 1113 1050 956 925 863 770 1251 602 540 62
internal_count=7917 2419 5498 5434 3472 2014 750 721 3152 1776 405 1376 1314 320 192 128 692 632 1264 1234 1113 1050 956 925 863 770 1251 602 540 62
is_linear=0
shrinkage=0.1


Tree=19
num_leaves=31
num_cat=0
split_feature=0 0 0 0 0 0 0 0 0 0 0 0 0 0 0 0 0 0 0 0 0 0 0 0 0 0 0 0 0 0
split_gain=3.56958 0.783019 0.415758 0.486437 0.252307 0.169734 0.103133 0.0906852 0.138913 0.398999 0.121703 0.0958079 0.107883 0.153853 0.125063 0.0819284 0.0679812 0.0615393 0.132754 0.0611451 0.0670303 0.0604056 0.12655 0.100957 0.0599769 0.0592062 0.0560625 0.121179 0.0787739 0.078574
threshold=-1.3435650145688782 -1.0030081429140234 -3.4246699295950829 -1.6903971636032462 -2.6587197248051755 -0.86979933065931914 -1.1497227856797683 -2.1805896292249387 -2.2531664264288618 -2.2642431166258512 -2.3381811440657896 -2.3268470439089568 -2.3053018181587199 -2.2859533467138502 -2.2768802714742877 -1.1553792032909425 -0.54798826886715823 -1.7177426536841651 -1.7237743990835113 -1.1735864829494445 -1.3317476126598715 -2.2425597269607822 -2.2302682704955568 -2.2192121333441768 -1.3269862445203022 -2.2097271929807003 -1.0496968148364465 -1.0359516224755458 -1.0292873011921782 -1.072491493755934
decision_type=2 2 2 2 2 2 2 2 2 2 2 2 2 2 2 2 2 2 2 2 2 2 2 2 2 2 2 2 2 2
left_child=2 6 -1 4 -4 -3 15 8 9 10 -6 -12 -13 -14 -15 19 -7 18 -9 20 -2 -10 -23 -24 -22 -25 29 -28 -29 -8
right_child=1 5 3 -5 7 16 26 17 21 -11 11 12 13 14 -16 -17 -18 -19 -20 -21 24 22 23 25 -26 -27 27 28 -30 -31
leaf_value=0.006604405036159733 0.0044659455572920188 0.0044873901779076911 -4.4162842975750478e-05 -0.00030465568714528818 -0.0024877629473013651 0.0071167314882469761 0.0029599626295763867 -0.0021318220829343948 -0.0098415699667267278 0.0083401706940945119 -0.01028188451891765 -0.0010238385417324026 -0.0095048668299568817 0.0019759901528877597 -0.00700654108678141 -0.0037440809607505801 0.012255803914740682 -0.0043022869273074095 0.0044719901716997546 0.0040320094642203796 -0.0032314827275131981 0.00070873065776522128 -0.011376834630725845 -0.0012190204474233812 0.0012477025119262705 -0.0065714160280842945 -0.0021378649057199558 0.0078039372914160288 0.0018869582667118976 0.006262538187309272
leaf_weight=64 63 388 449 2087 614 319 361 1688 31 31 32 64 64 31 31 30 28 126 31 91 31 31 31 31 838 62 60 30 90 90
leaf_count=64 63 388 449 2087 614 319 361 1688 31 31 32 64 64 31 31 30 28 126 31 91 31 31 31 31 838 62 60 30 90 90
internal_value=-4.43445e-11 0.0032012 -0.00140846 -0.00150283 -0.00224994 0.0059245 0.00201258 -0.0025917 -0.00333216 -0.00280017 -0.00321327 -0.00521984 -0.00436729 -0.00606554 -0.00251528 0.00140678 0.00753141 -0.00216909 -0.00201273 0.00155784 0.00131626 -0.00581192 -0.00500599 -0.00643467 0.00108792 -0.00478728 0.00302353 0.00153151 0.0033662 0.00361901
internal_weight=7917 2419 5498 5434 3347 735 1684 2898 1053 867 836 222 190 126 62 1053 347 1845 1719 1023 932 186 155 124 869 93 631 180 120 451
internal_count=7917 2419 5498 5434 3347 735 1684 2898 1053 867 836 222 190 126 62 1053 347 1845 1719 1023 932 186 155 124 869 93 631 180 120 451
is_linear=0
shrinkage=0.1


Tree=20
num_leaves=31
num_cat=0
split_feature=0 0 0 0 0 0 0 0 0 0 0 0 0 0 0 0 0 0 0 0 0 0 0 0 0 0 0 0 0 0
split_gain=2.89879 0.569048 0.439816 0.431585 0.152987 0.169275 0.148544 0.112616 0.0953396 0.129353 0.0892552 0.249908 0.0877928 0.137482 0.0875064 0.0829041 0.0779161 0.0849675 0.0716542 0.0715227 0.0695371 0.127971 0.0914722 0.12178 0.0688623 0.0678951 0.0697274 0.067601 0.0784241 0.0667354
threshold=-1.3011385917311535 -0.8929954023540011 -1.5871714848093614 -2.925925211344897 -4.0132412485363043 -3.0396927392518074 -1.10724687844533 -1.2859533467138509 -1.7536688902799245 -1.6023770799092192 -1.8116842430819255 -1.8274363572129577 -0.9022511842021671 -0.91415809711777041 -1.7992575160373907 -1.7469653263691438 -1.7621980760565583 -1.7690088753936566 -1.3054390117719723 -1.792998640087395 -2.5178859172961325 -2.4850633943434151 -2.4235248657071717 -2.1805896292249387 -1.3170672118132909 -1.2742326178612726 -1.1121015601618731 -1.096571521063556 -1.0891534985275193 -2.2302682704955568
decision_type=2 2 2 2 2 2 2 2 2 2 2 2 2 2 2 2 2 2 2 2 2 2 2 2 2 2 2 2 2 2
left_child=2 6 3 4 -1 -6 7 -2 10 15 11 20 13 27 -12 -10 17 19 24 -16 -5 -22 -23 29 -4 -9 -27 -8 -29 -24
right_child=1 -3 18 8 5 -7 12 25 9 -11 14 -13 -14 -15 16 -17 -18 -19 -20 -21 21 22 23 -25 -26 26 -28 28 -30 -31
leaf_value=0.0086805028971866701 0.0048660972952387074 0.006495374198528696 9.9881363837003997e-05 -0.0012159892241169858 -0.00044987472098000585 0.0056352683139266448 0.0065479799458989883 -0.0019537754127726195 0.0043666521537928816 -0.0045900329937770346 -0.0073747990833174792 0.0041325966985295377 -0.0019888160429124176 0.010368293317452331 0.00076876524835824969 -0.00090969758263478677 -0.0076292256914800216 0.0024555800628149882 -0.0046295147629514819 -0.0047047765653065229 -0.0069150271324011003 0.00016894354882050856 -0.0032036241816538278 -0.0020000655631855278 0.0034936186977692196 0.0016190421641556825 -0.0032885615900158888 -0.001954388258357843 0.003284321907765396 -0.0057912049785016047
leaf_weight=32 93 405 1677 484 160 64 60 63 31 96 62 62 29 29 32 756 31 32 31 94 65 129 508 1216 62 828 30 30 602 124
leaf_count=32 93 405 1677 484 160 64 60 63 31 96 62 62 29 29 32 756 31 32 31 94 65 129 508 1216 62 828 30 30 602 124
internal_value=6.03027e-11 0.00311499 -0.00117544 -0.00175892 0.00221271 0.00128874 0.00233888 0.00154967 -0.00203209 -0.00112458 -0.00231435 -0.00213973 0.00340589 0.00362287 -0.00411479 -0.000701862 -0.00304538 -0.00214601 0.000135927 -0.00331467 -0.00229369 -0.00254913 -0.00240558 -0.0025853 0.000220877 0.00121479 0.00144745 0.00334019 0.00303565 -0.00371131
internal_weight=7917 2169 5748 3978 256 224 1764 1014 3722 883 2839 2588 750 721 251 787 189 158 1770 126 2526 2042 1977 1848 1739 921 858 692 632 632
internal_count=7917 2169 5748 3978 256 224 1764 1014 3722 883 2839 2588 750 721 251 787 189 158 1770 126 2526 2042 1977 1848 1739 921 858 692 632 632
is_linear=0
shrinkage=0.1


Tree=21
num_leaves=31
num_cat=0
split_feature=0 0 0 0 0 0 0 0 0 0 0 0 0 0 0 0 0 0 0 0 0 0 0 0 0 0 0 0 0 0
split_gain=2.36429 0.545547 0.351543 0.323943 0.144312 0.123919 0.137113 0.114706 0.085956 0.185675 0.0772445 0.0826745 0.557524 0.114664 0.105045 0.101883 0.163401 0.086579 0.133699 0.247916 0.0774609 0.0756859 0.0727717 0.205609 0.167693 0.143938 0.0722967 0.202426 0.0708802 0.0708262
threshold=-1.200995985013388 -1.5916279844415062 -2.925925211344897 -0.86979933065931914 -1.5969625875033848 -4.0132412485363043 -3.0396927392518074 -1.7536688902799245 -1.1935581036557716 -1.1875871578354289 -1.2061688654874259 -1.4076529064720615 -1.4136330897439484 -1.3956288631554941 -1.4524301644836846 -1.4412639860390997 -1.4359470962458594 -1.5061397095050786 -1.4908699853428986 -1.484048802300258 -1.4450186445402939 -1.7417540974994856 -1.3682299642520261 -1.363109349034739 -1.373766530048383 -1.3539519419446535 -1.8116842430819255 -1.8274363572129577 -1.7992575160373907 -1.5331623078877739
decision_type=2 2 2 2 2 2 2 2 2 2 2 2 2 2 2 2 2 2 2 2 2 2 2 2 2 2 2 2 2 2
left_child=1 2 5 8 7 -1 -7 26 -2 -10 11 12 14 -13 17 20 -17 29 -19 -20 -16 -9 24 -24 -15 -25 27 -4 -28 -3
right_child=3 10 4 -5 -6 6 -8 21 9 -11 -12 13 -14 22 15 16 -18 18 19 -21 -22 -23 23 25 -26 -27 28 -29 -30 -31
leaf_value=0.0078124519550328841 0.0079671462547654913 -0.0003754928112555579 -0.002064317762706081 0.00612873320807203 -0.0085269337432691827 -0.00040488722152076662 0.0050717412465019155 0.0026194936625899808 -0.0052211169308672353 0.0027436630367880088 -0.0047127230931073433 0.0043101007844272418 -0.013226737070363016 0.00037240523785825764 0.0018790639381134702 -0.0057714002650050868 0.0023141776085217561 -0.0048392325659127287 0.0079722329012809259 -0.0016619971481036068 0.0088404126295989205 -0.0010146787207306845 0.0090323855830056043 -0.0039002636704789173 -0.0076354163021526552 0.0010920495324031243 -0.006637319084256888 0.003719337189179515 -0.0027408374308376874 0.0019922854960588098
leaf_weight=32 30 381 2526 347 32 160 64 62 30 1201 30 95 32 126 31 31 129 93 31 193 33 757 31 62 33 843 62 62 189 189
leaf_count=32 30 381 2526 347 32 160 64 62 30 1201 30 95 32 126 31 31 129 93 31 193 33 757 31 62 33 843 62 62 189 189
internal_value=1.16847e-11 -0.000872435 -0.00159203 0.003423 -0.00184064 0.00199144 0.00115986 -0.00178215 0.00267845 0.00254956 0.000329228 0.000394063 -0.000213343 0.000977478 0.00016148 0.00209643 0.000747597 -0.000327165 -0.00165197 -0.000328689 0.00546851 -0.000739564 0.000688347 0.00102434 -0.0012896 0.000750035 -0.00208292 -0.00192576 -0.00370331 0.000409613
internal_weight=7917 6309 3946 1608 3690 256 224 3658 1261 1231 2363 2333 1143 1190 1111 224 160 887 317 224 64 819 1095 936 159 905 2839 2588 251 570
internal_count=7917 6309 3946 1608 3690 256 224 3658 1261 1231 2363 2333 1143 1190 1111 224 160 887 317 224 64 819 1095 936 159 905 2839 2588 251 570
is_linear=0
shrinkage=0.1


Tree=22
num_leaves=31
num_cat=0
split_feature=0 0 0 0 0 0 0 0 0 0 0 0 0 0 0 0 0 0 0 0 0 0 0 0 0 0 0 0 0 0
split_gain=1.91816 0.405321 0.289489 0.28475 0.116893 0.100375 0.111061 0.0929117 0.0877119 0.186999 0.0697543 0.0613055 0.0600353 0.0738372 0.176157 0.20567 0.126589 0.235716 0.0962486 0.154116 0.151701 0.101244 0.0992534 0.115119 0.0773115 0.0920208 0.090487 0.0851512 0.102277 0.0870503
threshold=-1.2226583932141628 -1.5916279844415062 -0.88335643491098048 -2.925925211344897 -1.5969625875033848 -4.0132412485363043 -3.0396927392518074 -1.7536688902799245 -1.2376166961401212 -1.2504266873651424 -1.7621980760565583 -1.7417540974994856 -1.7690088753936566 -1.8116842430819255 -1.8514175820468075 -1.8584841857166177 -1.8661179727865156 -1.8757826483390754 -1.9309002078133126 -1.9234225944291061 -1.9377524056050421 -1.9461828608569844 -1.9154223242402719 -1.8834263246553429 -2.5178859172961325 -2.4850633943434151 -2.4235248657071717 -2.4083450595067473 -2.3969008412815258 -2.2859533467138502
decision_type=2 2 2 2 2 2 2 2 2 2 2 2 2 2 2 2 2 2 2 2 2 2 2 2 2 2 2 2 2 2
left_child=1 3 -2 5 7 -1 -7 10 9 -3 12 -9 13 14 15 16 17 18 20 -20 21 24 -21 -24 -5 -26 -27 -28 -29 -30
right_child=2 8 -4 4 -6 6 -8 11 -10 -11 -12 -13 -14 -15 -16 -17 -18 -19 19 22 -22 -23 23 -25 25 26 27 28 29 -31
leaf_value=0.0070312075316905981 0.002262566416915069 0.00022360307297436744 0.005399250721576267 -0.00088795856631616876 -0.0076742410084989394 -0.00036439838870137463 0.0045645670455996884 0.0023575438539527598 -0.0027390316688515087 0.0058859448165943231 -0.0065922190825785367 -0.00091321078518804178 0.0024841064005158842 -0.0037856992552096542 0.0015243364742789896 -0.010035319704442255 0.0045112053352978927 -0.010583411974291648 0.0067279405771724643 -0.0060532436721147075 -0.0089551381165942842 0.0037642415973447988 0.0015078273966097303 -0.0053053301165721586 -0.006017092351730053 0.00035848080581270681 -0.0075092512881383307 0.0032960440497845412 -0.0039591423620125056 -0.001994940305629992
leaf_weight=32 1353 2088 376 484 32 160 64 62 94 60 31 757 32 188 156 31 31 31 31 31 31 31 124 31 65 129 32 32 289 1029
leaf_count=32 1353 2088 376 484 32 160 64 62 94 60 31 757 32 188 156 31 31 31 31 31 31 31 124 31 65 129 32 32 289 1029
internal_value=5.33423e-11 -0.000822781 0.00294469 -0.00143283 -0.00165658 0.00179229 0.00104388 -0.00160393 0.000250924 0.000381769 -0.00187462 -0.000665608 -0.00182254 -0.00187219 -0.00173318 -0.00194214 -0.00183764 -0.00192069 -0.00180588 0.000200097 -0.00201101 -0.00190806 -0.000887877 0.000145196 -0.00199342 -0.00233292 -0.00217443 -0.00241086 -0.00229001 -0.00242563
internal_weight=7917 6188 1729 3946 3690 256 224 3658 2242 2148 2839 819 2808 2776 2588 2432 2401 2370 2339 217 2122 2091 186 155 2060 1576 1511 1382 1350 1318
internal_count=7917 6188 1729 3946 3690 256 224 3658 2242 2148 2839 819 2808 2776 2588 2432 2401 2370 2339 217 2122 2091 186 155 2060 1576 1511 1382 1350 1318
is_linear=0
shrinkage=0.1


Tree=23
num_leaves=31
num_cat=0
split_feature=0 0 0 0 0 0 0 0 0 0 0 0 0 0 0 0 0 0 0 0 0 0 0 0 0 0 0 0 0 0
split_gain=1.56815 0.371922 0.215005 0.223997 0.121165 0.0974235 0.057589 0.0510788 0.0918452 0.328891 0.0838191 0.11696 0.101301 0.0750169 0.0868795 0.0623663 0.0987174 0.0536939 0.0944202 0.0817748 0.0497343 0.047957 0.0474504 0.0575494 0.0519022 0.183616 0.132258 0.113045 0.0640217 0.0449905
threshold=-1.3435650145688782 -1.0030081429140234 -3.4246699295950829 -1.6903971636032462 -2.6359860836923792 -0.71407281844984949 -1.6850911013904943 -2.1805896292249387 -2.2531664264288618 -2.2642431166258512 -2.3053018181587199 -2.2859533467138502 -2.2768802714742877 -2.3145680919757945 -2.3381811440657896 -1.7177426536841651 -1.7237743990835113 -2.2425597269607822 -2.2302682704955568 -2.2192121333441768 -2.3268470439089568 -2.2097271929807003 -1.6664200299067276 -1.6791410167550376 -1.6253205673520628 -1.6298562546348576 -1.5916279844415062 -1.6344073847727958 -1.5969625875033848 -2.1296667211094715
decision_type=2 2 2 2 2 2 2 2 2 2 2 2 2 2 2 2 2 2 2 2 2 2 2 2 2 2 2 2 2 2
left_child=2 -2 -1 4 -4 -3 -5 8 9 10 13 -12 -13 14 -6 16 29 -10 -19 -20 -16 -21 23 -8 25 27 28 -24 -26 -9
right_child=1 5 3 6 7 -7 22 15 17 -11 11 12 -14 -15 20 -17 -18 18 19 21 -22 -23 24 -25 26 -27 -28 -29 -30 -31
leaf_value=0.0048287147190421821 0.0013025824740000077 0.0035079223716218281 -3.9706130706527987e-05 0.0040212612482719125 -0.0016672592138058644 0.0066997624276436676 0.001057007398095823 0.00023175317955274996 -0.0081311251367292108 0.0082324413252213308 -0.0076316716074870785 0.002504679512593054 -0.0055795994857626577 0.002981201327225614 -0.0083309867884963761 -0.0035883000209217981 0.0043085501018551089 0.001364145947680358 -0.0092541051337555538 -0.0001120724985676427 -0.0027980905971630959 -0.0049292285956682698 0.0012070810855747021 -0.0042199695032210122 -0.0019992094102855417 0.0084303377481598062 -2.8351965070167765e-05 -0.0053941085814468324 -0.0069068168850208167 -0.0015508510415199808
leaf_weight=64 1684 622 481 32 582 113 31 156 31 31 64 31 31 31 32 126 31 31 31 31 33 62 159 62 157 31 1552 31 32 1532
leaf_count=64 1684 622 481 32 582 113 31 156 31 31 64 31 31 31 32 126 31 31 31 31 33 62 159 62 157 31 1552 31 32 1532
internal_value=-4.35675e-12 0.00212177 -0.00093353 -0.0010014 -0.00150838 0.00399864 -0.000188327 -0.00175487 -0.00232237 -0.00187473 -0.00226443 -0.00463293 -0.00153746 -0.00182427 -0.00205452 -0.00144082 -0.00128341 -0.00433194 -0.0035721 -0.00480616 -0.00552198 -0.00332351 -0.000253877 -0.00246098 -0.00014926 0.00129434 -0.000332508 0.000130045 -0.00283013 -0.00138611
internal_weight=7917 2419 5498 5434 3347 735 2087 2866 1021 835 804 126 62 678 647 1845 1719 186 155 124 65 93 2055 93 1962 221 1741 190 189 1688
internal_count=7917 2419 5498 5434 3347 735 2087 2866 1021 835 804 126 62 678 647 1845 1719 186 155 124 65 93 2055 93 1962 221 1741 190 189 1688
is_linear=0
shrinkage=0.1


Tree=24
num_leaves=31
num_cat=0
split_feature=0 0 0 0 0 0 0 0 0 0 0 0 0 0 0 0 0 0 0 0 0 0 0 0 0 0 0 0 0 0
split_gain=1.2923 0.297065 0.19461 0.166547 0.101873 0.106017 0.0878029 0.125488 0.080618 0.0826145 0.0946284 0.07301 0.0725584 0.158504 0.119079 0.0851983 0.0740572 0.111039 0.0702385 0.0635128 0.0897675 0.0623226 0.167903 0.0892806 0.0761594 0.0743921 0.133988 0.125931 0.059792 0.0755129
threshold=-1.1875871578354289 -1.554371309139823 -3.4246699295950829 -0.86979933065931914 -1.5469192091339827 -1.5386409152619973 -1.1935581036557716 -1.200995985013388 -2.7785544543643534 -2.8079791218687626 -2.8327847020275274 -1.2061688654874259 -1.9309002078133126 -1.9234225944291061 -1.9377524056050421 -1.9461828608569844 -1.5628155332510325 -1.5737455547773573 -3.0396927392518074 -1.5807895484993664 -1.5871714848093614 -1.5287071455288348 -1.5331623078877739 -1.4619078021809195 -1.471503016191013 -1.4908699853428986 -1.5061397095050786 -1.484048802300258 -2.7401685276781023 -2.6587197248051755
decision_type=2 2 2 2 2 2 2 2 2 2 2 2 2 2 2 2 2 2 2 2 2 2 2 2 2 2 2 2 2 2
left_child=1 2 -1 -2 -3 -6 7 11 9 10 18 21 14 -14 15 28 17 19 -4 20 -15 22 -7 24 25 26 -23 -27 -10 -30
right_child=3 4 8 -5 5 6 -8 -9 12 -11 -12 -13 13 16 -16 -17 -18 -19 -20 -21 -22 23 -24 -25 -26 27 -28 -29 29 -31
leaf_value=0.0043458434462081644 0.0020339610345460894 0.0042735067504783356 -0.0012383137924189215 0.00452120060002643 -0.0038812958387537833 -0.0015221243759504322 -0.0050555199656325085 0.0068139164568856358 -0.0060281120066065343 0.0051331174850929532 -0.005349730339366943 -0.0045979661991198857 0.0062102318786445166 -0.0010613968106272522 -0.0079045388967760154 0.0035429012273520892 -0.0043977143813765818 0.0031108010323968398 0.0020745045159856093 -0.0055261160457326522 0.0043726975398678935 0.00040926758429813618 0.008726880239743379 0.00062688943130657113 -0.0042036660066173681 0.0071554851507948302 -0.004374833701438801 -0.00055285569196983949 0.0010487308679058543 -0.0018154714457766002
leaf_weight=64 1201 63 128 347 62 33 30 30 32 32 32 30 31 1569 31 31 62 67 128 31 31 158 31 1508 64 31 93 67 97 1803
leaf_count=64 1201 63 128 347 62 33 30 30 32 32 32 30 31 1569 31 31 62 67 128 31 31 158 31 1508 64 31 93 67 97 1803
internal_value=-1.51973e-11 -0.00062987 -0.00112599 0.0025915 0.000310275 0.000193437 0.000315188 0.000393975 -0.0012113 0.000312815 -0.000222774 0.000298393 -0.00134015 -0.000878171 -0.0017551 -0.00165799 -0.00100302 -0.000879072 0.000418095 -0.00104297 -0.000956111 0.000372394 0.00344224 0.000270119 -0.00103257 -0.00045105 -0.00136333 0.0018855 -0.00174144 -0.00166925
internal_weight=7917 6369 4169 1548 2200 2137 2075 2045 4105 320 288 2015 3785 1791 1994 1963 1760 1698 256 1631 1600 1985 64 1921 413 349 251 98 1932 1900
internal_count=7917 6369 4169 1548 2200 2137 2075 2045 4105 320 288 2015 3785 1791 1994 1963 1760 1698 256 1631 1600 1985 64 1921 413 349 251 98 1932 1900
is_linear=0
shrinkage=0.1


Tree=25
num_leaves=31
num_cat=0
split_feature=0 0 0 0 0 0 0 0 0 0 0 0 0 0 0 0 0 0 0 0 0 0 0 0 0 0 0 0 0 0
split_gain=1.04676 0.242558 0.172945 0.141531 0.0669262 0.0651416 0.109098 0.0589552 0.0741549 0.0650429 0.0589216 0.0850707 0.0534209 0.127435 0.101624 0.0746943 0.10498 0.398293 0.102679 0.0902413 0.0860196 0.172955 0.108805 0.106427 0.0734509 0.0484983 0.0642395 0.132519 0.0477652 0.110687
threshold=-1.1875871578354289 -1.6541008972346678 -2.925925211344897 -0.78819664514490728 -1.6475701701290937 -1.1935581036557716 -1.200995985013388 -1.4619078021809195 -1.471503016191013 -1.2061688654874259 -4.0132412485363043 -3.0396927392518074 -1.4412639860390997 -1.4450186445402939 -1.4359470962458594 -1.4297650733520157 -1.4076529064720615 -1.4136330897439484 -1.3906826010538444 -1.423660876009418 -1.3682299642520261 -1.363109349034739 -1.3539519419446535 -1.373766530048383 -1.3848096360495041 -1.0030081429140234 -0.82619696710095236 -0.84218317746921711 -0.98438537633667023 -0.97207019852356202
decision_type=2 2 2 2 2 2 2 2 2 2 2 2 2 2 2 2 2 2 2 2 2 2 2 2 2 2 2 2 2 2
left_child=1 2 10 25 -3 6 7 8 -6 12 -1 -12 13 -9 -14 -16 17 19 -18 -17 23 -22 -23 24 -20 -2 27 28 -27 -30
right_child=3 4 -4 -5 5 -7 -8 9 -10 -11 11 -13 14 -15 15 16 18 -19 20 -21 21 22 -24 -25 -26 26 -28 -29 29 -31
leaf_value=0.0054106296040117748 0.0014774688739064637 0.0047568830751603649 -0.0013001159428070038 0.0048147410580859293 -0.0002796969153726354 -0.0045499683524637177 0.0061325252149254088 0.0006409598474380791 -0.0037832993722986433 -0.0041381694128115971 -0.00040920851577539 0.003904630319811986 -0.0052764736536529758 0.0078741576353257344 0.0052135040024013229 -0.0035434979472249266 0.0033887441255270492 -0.011986277159303428 -0.0042636790545657281 0.0030134339852688407 0.0080469325665504712 -0.0035924513644028096 0.00074804954436013984 -0.0069540892247900825 0.0016195412784341782 0.0052872596091280387 -0.00043899980855399164 0.0096367351951655647 -0.0035791828134097165 0.0027443735107815924
leaf_weight=32 813 31 3343 200 1077 30 30 93 64 30 160 64 31 33 33 31 126 32 32 65 31 62 843 33 63 60 58 29 30 358
leaf_count=32 813 31 3343 200 1077 30 30 93 64 30 160 64 31 33 33 31 126 32 32 65 31 62 843 33 63 60 58 29 30 358
internal_value=-5.88973e-11 -0.000566883 -0.00110829 0.00233235 0.00013655 8.42574e-05 0.000135578 6.84227e-05 -0.000476218 0.000472477 0.00139673 0.000823317 0.0005642 0.00253537 0.000384485 0.000514381 0.000396724 -0.0023245 0.000689428 0.000896091 0.000369772 0.000702274 0.000450689 -0.00206165 -0.000362175 0.00196404 0.00270346 0.00308556 0.00266149 0.00225544
internal_weight=7917 6369 3599 1548 2770 2739 2709 2679 1141 1538 256 224 1508 126 1382 1351 1318 128 1190 96 1064 936 905 128 95 1348 535 477 448 388
internal_count=7917 6369 3599 1548 2770 2739 2709 2679 1141 1538 256 224 1508 126 1382 1351 1318 128 1190 96 1064 936 905 128 95 1348 535 477 448 388
is_linear=0
shrinkage=0.1


Tree=26
num_leaves=31
num_cat=0
split_feature=0 0 0 0 0 0 0 0 0 0 0 0 0 0 0 0 0 0 0 0 0 0 0 0 0 0 0 0 0 0
split_gain=0.855568 0.173164 0.136272 0.1288 0.0872759 0.0810506 0.0856094 0.135182 0.0629693 0.121875 0.0568139 0.136002 0.0551715 0.0712978 0.0715778 0.0569204 0.0519325 0.101929 0.0505491 0.050493 0.0504213 0.101361 0.0585254 0.049065 0.119883 0.108531 0.062804 0.0557266 0.049742 0.103222
threshold=-1.2226583932141628 -1.554371309139823 -3.4246699295950829 -0.8929954023540011 -1.5469192091339827 -1.5386409152619973 -1.2376166961401212 -1.2504266873651424 -0.9022511842021671 -0.91415809711777041 -1.5287071455288348 -1.5331623078877739 -2.7785544543643534 -2.8079791218687626 -2.8327847020275274 -2.7401685276781023 -1.5628155332510325 -1.5686335968527578 -3.0396927392518074 -0.54798826886715823 -0.93730581383380152 -0.96507810923964332 -0.92605498305027745 -1.4908699853428986 -1.484048802300258 -1.5061397095050786 -1.4619078021809195 -1.5255993432381711 -1.4412639860390997 -1.4450186445402939
decision_type=2 2 2 2 2 2 2 2 2 2 2 2 2 2 2 2 2 2 2 2 2 2 2 2 2 2 2 2 2 2
left_child=1 2 -1 8 -3 -6 7 10 9 20 11 -7 13 14 18 -14 17 -17 -4 -5 21 -2 -22 25 -25 27 -26 -12 29 -28
right_child=3 4 12 19 5 6 -8 -9 -10 -11 23 -13 15 -15 -16 16 -18 -19 -20 -21 22 -23 -24 24 26 -27 28 -29 -30 -31
leaf_value=0.0036611882096622139 0.0013280699014516558 0.0038741256276677762 -0.0010735614430814166 0.0032228894857813262 -0.0034651959938327634 -0.0013419428007733641 -0.0027328805046829773 0.005029598204419017 -0.0031191842389646277 0.0080022153894192191 -0.0032588024256807388 0.0078821625200010108 -0.0052952889353036882 0.0047498175044893287 -0.0046847454039379956 -0.0010615116466458176 -0.0039299730541965654 0.0045211734613544788 0.0017368282364714105 0.0076243173597114432 -0.0045085370804493624 0.0048169319321297935 0.0016394434263929726 0.0064679063135577785 -0.0019036736687687971 -0.0039093806132954618 0.0005768642345223055 0.0013612610758282247 0.00018772992770838914 0.0070867420477566849
leaf_weight=64 1114 63 128 377 62 33 94 60 29 29 33 31 32 32 32 3658 62 33 128 28 30 90 32 31 131 93 93 125 1137 33
leaf_count=64 1114 63 128 377 62 33 94 60 29 29 33 31 32 32 32 3658 62 33 128 28 30 90 32 31 131 93 93 125 1137 33
internal_value=2.52306e-11 -0.000549502 -0.000917635 0.00196664 0.000210651 9.26556e-05 0.000209122 0.00036276 0.00148928 0.00159248 0.000201834 0.00312598 -0.000989023 0.000271814 -0.000225742 -0.00109562 -0.00105981 -0.0010116 0.000331633 0.00352719 0.00144566 0.00158887 -0.00133539 9.01721e-05 0.000317252 -0.00119902 0.000180472 0.000396311 0.000396643 0.00228183
internal_weight=7917 6188 4169 1729 2019 1956 1894 1800 1324 1295 1740 64 4105 320 288 3785 3753 3691 256 405 1266 1204 62 1676 1425 251 1394 158 1263 126
internal_count=7917 6188 4169 1729 2019 1956 1894 1800 1324 1295 1740 64 4105 320 288 3785 3753 3691 256 405 1266 1204 62 1676 1425 251 1394 158 1263 126
is_linear=0
shrinkage=0.1


Tree=27
num_leaves=31
num_cat=0
split_feature=0 0 0 0 0 0 0 0 0 0 0 0 0 0 0 0 0 0 0 0 0 0 0 0 0 0 0 0 0 0
split_gain=0.701371 0.195914 0.148452 0.181472 0.130249 0.108003 0.105309 0.0784377 0.107337 0.0597251 0.0709012 0.0570323 0.0565445 0.129959 0.108982 0.0999273 0.05588 0.107207 0.0545454 0.0505266 0.0617272 0.0499623 0.0384219 0.113149 0.0783495 0.08562 0.0535598 0.109346 0.076864 0.0751919
threshold=-1.4043399714476512 -0.99465331449950212 -1.4136330897439484 -1.4076529064720615 -1.3956288631554941 -1.4524301644836846 -3.4246699295950829 -0.98438537633667023 -0.97207019852356202 -1.7536688902799245 -2.6359860836923792 -1.7469653263691438 -1.3682299642520261 -1.363109349034739 -1.373766530048383 -1.3539519419446535 -1.4412639860390997 -1.4359470962458594 -1.7621980760565583 -1.7690088753936566 -1.7783654486055027 -0.64022442952969605 -1.9922153214487579 -2.008304495109615 -1.9712765103910141 -1.9632918655547809 -1.8116842430819255 -1.8274363572129577 -1.7992575160373907 -1.8834263246553429
decision_type=2 2 2 2 2 2 2 2 2 2 2 2 2 2 2 2 2 2 2 2 2 2 2 2 2 2 2 2 2 2
left_child=2 4 5 -4 -2 6 -1 -3 -9 10 -8 -11 14 -14 -6 -15 -7 -18 19 20 22 -10 23 -12 -24 -26 27 29 -28 -27
right_child=1 7 3 -5 12 16 9 8 21 11 18 -13 13 15 -16 -17 17 -19 -20 -21 -22 -23 24 -25 25 26 28 -29 -30 -31
leaf_value=0.003295068771694787 0.0052656452984563892 0.0077187411238749826 -0.010806422850873788 -0.0001565273792948574 0.00017811101787383596 0.0040090346217766639 5.7151607502050505e-05 -0.0033540712071893118 0.0024936193623965458 0.0039296702632019599 -0.0013268151318116747 -0.00039833452477265542 0.0072234662910622936 -0.0032519795631449073 -0.0062774531148148309 0.00083213071783501543 -0.0047675992091817249 0.001781718460518087 -0.0054356096372489004 0.002733082964550704 -0.0057003942107962027 0.005619334437817868 0.0027593847797928199 -0.0056499176451729402 -0.0059995174131472597 0.00025378298757958319 -0.0050976296586375085 0.003692356847046364 -0.00057122327338315936 -0.0021699978311550418
leaf_weight=64 63 30 32 32 126 64 481 30 589 31 1552 1707 31 62 33 1776 31 129 31 32 31 56 62 63 32 310 62 62 95 218
leaf_count=64 63 30 32 32 126 64 481 30 589 31 1552 1707 31 62 33 1776 31 129 31 32 31 56 62 63 32 310 62 62 95 218
internal_value=2.42758e-11 0.0012738 -0.00069548 -0.00548148 0.000787753 -0.00063491 -0.000734402 0.00271541 0.00249304 -0.000788478 -0.00105645 -0.000321138 0.000648646 0.000802659 -0.00116172 0.000694364 0.00151172 0.000512788 -0.00126651 -0.0012152 -0.00126601 0.002765 -0.00121003 -0.00149546 -0.000661929 -0.000934229 -0.000717242 -0.000280442 -0.00235872 -0.000746945
internal_weight=7917 2796 5121 64 2091 5057 4833 705 675 4769 3031 1738 2028 1869 159 1838 224 160 2550 2519 2487 645 2456 1615 841 779 747 590 157 528
internal_count=7917 2796 5121 64 2091 5057 4833 705 675 4769 3031 1738 2028 1869 159 1838 224 160 2550 2519 2487 645 2456 1615 841 779 747 590 157 528
is_linear=0
shrinkage=0.1


Tree=28
num_leaves=31
num_cat=0
split_feature=0 0 0 0 0 0 0 0 0 0 0 0 0 0 0 0 0 0 0 0 0 0 0 0 0 0 0 0 0 0
split_gain=0.583301 0.153855 0.100749 0.0690687 0.0663767 0.126468 0.115974 0.107294 0.0518576 0.043033 0.0661494 0.0271923 0.0617549 0.0338839 0.0880992 0.0458788 0.0458336 0.0525458 0.0359334 0.0930151 0.0551918 0.264443 0.0700625 0.0947374 0.0820539 0.0597674 0.0719081 0.0557695 0.0581905 0.0884408
threshold=-1.1373253313633802 -1.6541008972346678 -2.925925211344897 -0.74189691055359852 -1.6253205673520628 -1.6298562546348576 -1.6344073847727958 -1.5916279844415062 -1.5969625875033848 -3.0396927392518074 -3.4246699295950829 -2.8818988352127604 -2.8327847020275274 -2.8079791218687626 -2.7785544543643534 -2.7401685276781023 -2.6587197248051755 -2.7125282941725479 -2.1602563932819319 -2.1480850514297187 -2.2531664264288618 -2.2642431166258512 -2.3053018181587199 -2.2859533467138502 -2.2768802714742877 -2.3145680919757945 -2.3381811440657896 -2.2425597269607822 -2.2302682704955568 -2.2192121333441768
decision_type=2 2 2 2 2 2 2 2 2 2 2 2 2 2 2 2 2 2 2 2 2 2 2 2 2 2 2 2 2 2
left_child=1 2 9 -2 5 6 -3 8 -6 10 -1 -4 -13 -14 -15 -16 17 -17 20 -20 21 22 25 -24 -25 26 -18 -22 -29 -30
right_child=3 4 11 -5 7 -7 -8 -9 -10 -11 -12 12 13 14 15 16 18 -19 19 -21 27 -23 23 24 -26 -27 -28 28 29 -31
leaf_value=0.0029655621416168291 0.0016772014976645534 0.0024604149492612731 -0.0038703235186403617 0.0040133014764033364 -0.0015191946487138226 0.0078673978486368725 -0.0045746041882422667 0.00019865461002675357 -0.005936040911183227 0.0033347690157825129 -0.00097192029279540297 0.0034305062610656026 -0.0042219859315082431 0.0042691192582424266 -0.004771475592860952 -0.0021428434672998266 -0.00092168689173788862 0.0028073629052736441 0.0046579067264833759 -0.00086337690182429038 -0.0067676212037763297 0.0079595894672937935 -0.0063181137076753664 0.0028046034997509374 -0.004471247811471262 0.0032334736308022856 -0.0044193891435861587 0.0017781229239077338 -0.007778303616590077 -0.0019303504132086602
leaf_weight=64 1164 96 32 142 157 31 31 2665 32 64 128 32 32 32 32 32 614 65 31 1939 31 31 64 31 31 31 65 31 31 156
leaf_count=64 1164 96 32 142 157 31 31 2665 32 64 128 32 32 32 32 32 614 65 31 1939 31 31 64 31 31 31 65 31 31 156
internal_value=-2.78094e-11 -0.000381508 -0.000822833 0.0019312 0.000145825 0.00214099 0.000743206 3.53706e-05 -0.00226702 0.00108912 0.000340574 -0.000969247 -0.000941208 -0.000983872 -0.00095196 -0.00100393 -0.00096605 0.00117431 -0.00103333 -0.000776494 -0.0014867 -0.00110982 -0.00144613 -0.00361925 -0.000833322 -0.00106048 -0.00125652 -0.00279894 -0.00223459 -0.0028998
internal_weight=7917 6611 3599 1306 3012 158 127 2854 189 256 192 3343 3311 3279 3247 3215 3183 97 3086 1970 1116 867 836 126 62 710 679 249 218 187
internal_count=7917 6611 3599 1306 3012 158 127 2854 189 256 192 3343 3311 3279 3247 3215 3183 97 3086 1970 1116 867 836 126 62 710 679 249 218 187
is_linear=0
shrinkage=0.1


Tree=29
num_leaves=31
num_cat=0
split_feature=0 0 0 0 0 0 0 0 0 0 0 0 0 0 0 0 0 0 0 0 0 0 0 0 0 0 0 0 0 0
split_gain=0.47326 0.121029 0.0843415 0.0710844 0.0589172 0.0503435 0.0491247 0.14629 0.146993 0.115329 0.0523734 0.0452628 0.0868378 0.045121 0.045107 0.0839155 0.0397057 0.086612 0.0382362 0.0377736 0.0557373 0.037079 0.0730954 0.0348567 0.053581 0.0333173 0.0302344 0.117589 0.0882756 0.066565
threshold=-1.1497227856797683 -1.6903971636032462 -2.925925211344897 -1.1553792032909425 -0.78819664514490728 -1.6850911013904943 -1.4043399714476512 -1.4136330897439484 -1.4076529064720615 -1.3956288631554941 -1.4524301644836846 -1.4412639860390997 -1.4359470962458594 -0.81024606650120956 -1.7177426536841651 -1.7237743990835113 -0.84218317746921711 -0.82619696710095236 -1.4450186445402939 -1.1675123439632642 -1.1600995344449854 -1.4297650733520157 -1.423660876009418 -3.0396927392518074 -3.4246699295950829 -1.7120608080050115 -1.3682299642520261 -1.363109349034739 -1.373766530048383 -1.3539519419446535
decision_type=2 2 2 2 2 2 2 2 2 2 2 2 2 2 2 2 2 2 2 2 2 2 2 2 2 2 2 2 2 2
left_child=1 2 23 5 13 -3 7 10 -9 -8 -7 18 -13 16 15 -4 -2 -18 -12 26 -21 -14 -23 24 -1 -16 28 -28 -11 -29
right_child=4 3 14 -5 -6 6 9 8 -10 19 11 12 21 -15 25 -17 17 -19 -20 20 -22 22 -24 -25 -26 -27 27 29 -30 -31
leaf_value=0.0026690055150538684 0.0013835034156604424 0.0040876080631278454 -0.00088349829770173732 -0.0047494865270952388 0.0032788929729722447 -0.00030701268986939529 0.0047192157859662701 -0.0097456463554408401 -0.00016074078157544137 0.00014043462625335133 0.0010663925842832654 -0.0043107050320794508 0.0044753443223960474 -0.0024739582460887475 -0.00560762228504304 0.0043461690987310099 0.0079336906365793328 0.00020501605909446188 0.0059572982460711944 0.0057456463935875134 -0.00030074653526147209 -0.0034059583637562974 0.0024952805346737691 0.003001292246335652 -0.00087472867453470833 -0.0018320972668497187 0.0064812548218234891 -0.00294664632378807 -0.005669573302183188 0.00042771929691838296
leaf_weight=64 1079 32 2998 30 200 1390 63 32 32 126 31 31 33 29 31 31 29 29 33 31 30 31 65 64 128 95 31 62 33 1024
leaf_count=64 1079 32 2998 30 200 1390 63 32 32 126 31 31 33 29 31 31 29 29 33 31 30 31 65 64 128 95 31 62 33 1024
internal_value=5.47155e-11 -0.000353054 -0.00076545 9.49339e-05 0.00169316 0.000141665 0.000100641 -0.000264267 -0.00495319 0.00053801 -7.83368e-05 0.00134068 0.000441644 0.00142116 -0.000907094 -0.000829976 0.00152051 0.00406935 0.00358827 0.000340989 0.00277201 0.00158368 0.000589672 0.00098021 0.000306516 -0.002761 0.000224773 0.000408426 -0.00106542 0.000235076
internal_weight=7917 6551 3411 3140 1366 3110 3078 1678 64 1400 1614 224 160 1166 3155 3029 1137 58 64 1337 61 129 96 256 192 126 1276 1117 159 1086
internal_count=7917 6551 3411 3140 1366 3110 3078 1678 64 1400 1614 224 160 1166 3155 3029 1137 58 64 1337 61 129 96 256 192 126 1276 1117 159 1086
is_linear=0
shrinkage=0.1


Tree=30
num_leaves=31
num_cat=0
split_feature=0 0 0 0 0 0 0 0 0 0 0 0 0 0 0 0 0 0 0 0 0 0 0 0 0 0 0 0 0 0
split_gain=0.388793 0.111666 0.0708162 0.065539 0.0667341 0.0607398 0.0503012 0.049199 0.0474489 0.0438348 0.110161 0.0431825 0.0956226 0.0879097 0.0525699 0.0451386 0.0383689 0.163862 0.104728 0.187928 0.0922224 0.0973976 0.0579175 0.104772 0.0984409 0.0817985 0.0860207 0.0622054 0.0322496 0.0319163
threshold=-1.10724687844533 -1.554371309139823 -1.5469192091339827 -1.5386409152619973 -1.1121015601618731 -2.925925211344897 -1.1023208358068661 -1.5588280459432979 -0.71407281844984949 -1.5287071455288348 -1.5331623078877739 -1.4908699853428986 -1.484048802300258 -1.5061397095050786 -1.4619078021809195 -1.5255993432381711 -1.8514175820468075 -1.8584841857166177 -1.8661179727865156 -1.8757826483390754 -1.8116842430819255 -1.7992575160373907 -1.9309002078133126 -1.9377524056050421 -1.9234225944291061 -1.9154223242402719 -1.8834263246553429 -1.9461828608569844 -1.4787177174821784 -2.4235248657071717
decision_type=2 2 2 2 2 2 2 2 2 2 2 2 2 2 2 2 2 2 2 2 2 2 2 2 2 2 2 2 2 2
left_child=1 5 -3 -4 9 -1 -2 16 -8 10 -5 13 -13 15 28 -11 17 18 19 22 -18 -22 23 27 -24 -26 -27 29 -14 -7
right_child=6 2 3 4 -6 7 8 -9 -10 11 -12 12 14 -15 -16 -17 20 -19 -20 -21 21 -23 24 -25 25 26 -28 -29 -30 -31
leaf_value=0.00088218940509250394 0.0057368387778600066 0.0035373826622075982 -0.003068008071990804 -0.0011570790712016098 -0.004463820258776347 -0.00037706629666747049 0.0013708292731656941 -0.0046757233359159961 0.0035313570414529706 -0.00288225355924982 0.0071446152103524056 0.0058717840501377669 0.0010412123054265976 -0.0034677729772914566 0.00040643206966701562 0.0012758037554100156 0.0020279863132880286 -0.008142713126876663 0.0049491603828726279 -0.0086359963046326749 -0.0044131789416555437 -0.0003511775322991738 0.0059746804767318315 -0.0067286140015048361 -0.0048012237214753711 0.0020037416440074245 -0.0038857220642028317 0.0035740837856616465 -0.0025731162899839031 -0.0012147325673519654
leaf_weight=256 30 63 62 33 30 678 1012 31 113 33 31 31 33 93 1961 125 156 31 31 31 62 1232 31 31 31 124 31 31 98 1382
leaf_count=256 30 63 62 33 30 678 1012 31 113 33 31 31 33 93 1961 125 156 31 31 31 62 1232 31 31 31 124 31 31 98 1382
internal_value=-4.37173e-11 -0.000289623 0.000225652 0.000143186 0.000223856 -0.000610109 0.00169561 -0.000707739 0.00158784 0.000281539 0.00286405 0.000211917 0.000358565 -0.00102845 0.000276868 0.000407349 -0.000676053 -0.000918805 -0.000825535 -0.000901069 -0.000268898 -0.000545802 -0.000798554 -0.000957682 0.000757529 -0.000111997 0.000825849 -0.000872126 -0.00166264 -0.000939035
internal_weight=7917 6762 2593 2530 2468 4169 1155 3913 1125 2438 64 2374 2123 251 2092 158 3882 2432 2401 2370 1450 1294 2339 2122 217 186 155 2091 131 2060
internal_count=7917 6762 2593 2530 2468 4169 1155 3913 1125 2438 64 2374 2123 251 2092 158 3882 2432 2401 2370 1450 1294 2339 2122 217 186 155 2091 131 2060
is_linear=0
shrinkage=0.1


Tree=31
num_leaves=31
num_cat=0
split_feature=0 0 0 0 0 0 0 0 0 0 0 0 0 0 0 0 0 0 0 0 0 0 0 0 0 0 0 0 0 0
split_gain=0.319286 0.0730071 0.0984816 0.0598226 0.0571615 0.0647144 0.102439 0.0939387 0.072629 0.0574284 0.0535912 0.0473445 0.0420047 0.0407439 0.0412143 0.0386259 0.0430388 0.034499 0.0329362 0.0713945 0.0329713 0.102445 0.0887274 0.0402833 0.130146 0.119064 0.0713237 0.0342245 0.0297957 0.0574228
threshold=-1.3011385917311535 -1.2859533467138509 -1.10724687844533 -1.3054390117719723 -1.6541008972346678 -1.6253205673520628 -1.6298562546348576 -1.6344073847727958 -1.5916279844415062 -2.6359860836923792 -1.1121015601618731 -1.2742326178612726 -1.5969625875033848 -1.1023208358068661 -0.54798826886715823 -1.3170672118132909 -1.3109070320412963 -4.0132412485363043 -1.3317476126598715 -1.3435650145688782 -1.363109349034739 -1.3682299642520261 -1.373766530048383 -1.4043399714476512 -1.4136330897439484 -1.4076529064720615 -1.3956288631554941 -1.4182946109134871 -2.7125282941725479 -2.7785544543643534
decision_type=2 2 2 2 2 2 2 2 2 2 2 2 2 2 2 2 2 2 2 2 2 2 2 2 2 2 2 2 2 2
left_child=3 -2 10 4 9 6 7 -6 12 17 11 -3 -7 -4 -15 18 -17 -1 19 20 21 22 23 24 27 -26 -25 -10 29 -19
right_child=1 2 13 -5 5 8 -8 -9 15 -11 -12 -13 -14 14 -16 16 -18 28 -20 -21 -22 -23 -24 26 25 -27 -28 -29 -30 -31
leaf_value=0.0035222650913055986 0.003774903292056694 -0.0023629816692499889 0.0051631541922688489 -0.0047711473198667649 0.0022801922750659287 -0.0013014560154932819 0.0071464774829726064 -0.0040513237637858244 4.3428896739043168e-05 -0.00077766699988389496 -0.004017437715083361 0.00048074828289845144 -0.0052766179680475041 0.0013323586835371417 0.0052175969916528897 0.0051743899622271146 -9.5045236089537225e-05 0.00027093729574765099 -0.0018208428194369883 0.0034047783359826087 -0.0015933799283248526 0.0057924857272976839 -0.0051432587883689191 0.0042066500357736559 -0.0088117249862989418 -0.00018530982197262347 8.5747672895353943e-05 0.0033619159268710066 0.0017162323249780007 -0.0029853869453290828
leaf_weight=32 93 63 30 31 96 157 31 31 1079 3054 30 828 32 1097 28 31 31 352 94 63 124 31 33 63 32 32 126 32 97 64
leaf_count=32 93 63 30 31 96 157 31 31 1079 3054 30 828 32 1097 28 31 31 352 94 63 124 31 33 63 32 32 126 32 97 64
internal_value=-1.08096e-11 0.0010338 0.000911008 -0.000390104 -0.000366348 4.58399e-05 0.00199271 0.000734704 -0.000111102 -0.00060892 0.000139705 0.000279676 -0.0019745 0.00152605 0.00142906 8.77589e-05 0.00253967 0.000336683 -1.19289e-06 0.000104719 -2.924e-05 0.000106582 -1.95908e-05 0.000104369 -0.000113586 -0.00449852 0.00145938 0.000139011 0.000137972 -0.000230036
internal_weight=7917 2169 2076 5748 5717 2118 158 127 1960 3599 921 891 189 1155 1125 1771 62 545 1709 1615 1552 1428 1397 1364 1175 64 189 1111 513 416
internal_count=7917 2169 2076 5748 5717 2118 158 127 1960 3599 921 891 189 1155 1125 1771 62 545 1709 1615 1552 1428 1397 1364 1175 64 189 1111 513 416
is_linear=0
shrinkage=0.1


Tree=32
num_leaves=31
num_cat=0
split_feature=0 0 0 0 0 0 0 0 0 0 0 0 0 0 0 0 0 0 0 0 0 0 0 0 0 0 0 0 0 0
split_gain=0.262238 0.0545192 0.12597 0.0503908 0.0500376 0.0470523 0.0582731 0.0889756 0.051173 0.0653068 0.0474056 0.0463068 0.0625211 0.0441944 0.0437162 0.0356353 0.0685752 0.0339858 0.0552834 0.0416344 0.0528431 0.0318562 0.0979256 0.062426 0.0597584 0.0340238 0.0283672 0.0606663 0.216825 0.0537883
threshold=-1.2226583932141628 -1.2376166961401212 -1.2504266873651424 -1.6903971636032462 -2.6587197248051755 -0.8929954023540011 -0.9022511842021671 -0.91415809711777041 -0.93730581383380152 -0.96507810923964332 -0.92605498305027745 -1.6791410167550376 -1.6664200299067276 -1.2321069677483869 -1.2570375107021017 -1.7177426536841651 -1.7237743990835113 -2.7125282941725479 -2.7785544543643534 -2.8079791218687626 -2.8327847020275274 -1.6253205673520628 -1.6298562546348576 -1.5916279844415062 -1.6344073847727958 -1.5969625875033848 -2.1805896292249387 -2.2531664264288618 -2.2642431166258512 -2.3053018181587199
decision_type=2 2 2 2 2 2 2 2 2 2 2 2 2 2 2 2 2 2 2 2 2 2 2 2 2 2 2 2 2 2
left_child=1 2 3 4 17 6 7 8 9 -2 -10 -5 -13 -3 21 16 26 18 19 20 -1 22 24 25 -14 -23 27 28 29 -6
right_child=5 13 -4 11 15 -7 -8 -9 10 -11 -12 12 14 -15 -16 -17 -18 -19 -20 -21 -22 23 -24 -25 -26 -27 -28 -29 -30 -31
leaf_value=0.00056119700806448239 0.0007090330237260003 -0.0058611701863507427 0.0042920695741971333 0.0026952346845988246 -0.00072774920962229508 0.0020320040539530807 -0.0036330160909685601 0.006376242427283834 -0.004883434952547153 0.0035094872489571573 0.00064974789274856453 -0.0031859129156556823 0.0011533172116556304 -0.0012096257501980291 -0.0037655538320541383 -0.0023720122781389998 0.0040244365922145302 0.0024810608368940079 -0.0026868480381381232 0.0039411719892086692 -0.003700824425322935 -0.0011713106357596316 0.0064318297130446277 0.0001219748534308905 -0.0036461922550393693 -0.0047489562773989748 -0.00045129952386331043 -0.0027514466274810093 0.007451219565325207 -0.002969733335905605
leaf_weight=320 1114 30 60 63 710 405 29 29 30 90 32 62 159 64 30 126 31 65 64 32 32 157 31 2058 31 32 1688 186 31 126
leaf_count=320 1114 30 60 63 710 405 29 29 30 90 32 62 159 64 30 126 31 65 64 32 32 157 31 2058 31 32 1688 186 31 126
internal_value=3.34364e-12 -0.000304221 -0.000267356 -0.000312694 -0.000566108 0.00108879 0.000800271 0.000899549 0.000774096 0.000918369 -0.0020276 1.68512e-05 -4.90622e-05 -0.00269416 2.8794e-05 -0.000727253 -0.000652491 0.00034422 3.41873e-05 0.000487693 0.000173741 7.49166e-05 0.00122051 -3.77562e-05 0.000370239 -0.00177705 -0.000705386 -0.0011127 -0.000761131 -0.00106566
internal_weight=7917 6188 6094 6034 3411 1729 1324 1295 1266 1204 62 2623 2560 94 2498 2898 2772 513 448 384 352 2468 221 2247 190 189 2741 1053 867 836
internal_count=7917 6188 6094 6034 3411 1729 1324 1295 1266 1204 62 2623 2560 94 2498 2898 2772 513 448 384 352 2468 221 2247 190 189 2741 1053 867 836
is_linear=0
shrinkage=0.1


Tree=33
num_leaves=31
num_cat=0
split_feature=0 0 0 0 0 0 0 0 0 0 0 0 0 0 0 0 0 0 0 0 0 0 0 0 0 0 0 0 0 0
split_gain=0.215016 0.0550531 0.0457019 0.0428269 0.0315413 0.02014 0.0896527 0.0565595 0.0530859 0.0784046 0.072931 0.0596263 0.101343 0.0666656 0.0975835 0.0761123 0.0664637 0.043716 0.0629237 0.0341396 0.0306895 0.0595956 0.0303438 0.0314553 0.0294119 0.0629017 0.0525183 0.0405036 0.0388451 0.0328285
threshold=-1.1373253313633802 -1.6541008972346678 -1.6475701701290937 -3.4246699295950829 -0.54798826886715823 -2.5178859172961325 -2.4850633943434151 -2.5021965222265794 -2.4235248657071717 -2.4083450595067473 -2.3969008412815258 -2.2859533467138502 -2.295642172817657 -2.2531664264288618 -2.2642431166258512 -2.2425597269607822 -2.2768802714742877 -2.3624696139108887 -2.3502745080927663 -2.4369473156142791 -2.3268470439089568 -2.3381811440657896 -2.3053018181587199 -2.3145680919757945 -2.1805896292249387 -2.2302682704955568 -2.2192121333441768 -2.1296667211094715 -2.2097271929807003 -2.1602563932819319
decision_type=2 2 2 2 2 2 2 2 2 2 2 2 2 2 2 2 2 2 2 2 2 2 2 2 2 2 2 2 2 2
left_child=1 3 -3 -1 -2 -5 7 -7 19 -10 -11 12 17 14 16 -15 -13 -12 -19 -8 21 -20 23 -22 25 -17 -27 29 -28 -26
right_child=4 2 -4 5 -6 6 8 -9 9 10 11 13 -14 15 -16 24 -18 18 20 -21 22 -23 -24 -25 27 26 28 -29 -30 -31
leaf_value=0.0020681064372183758 0.0010997692804422131 0.0039036053538086799 4.4091059963193253e-05 -5.116511171424662e-05 0.0044926372069832203 -0.0014247136021202263 0.00047413710079914363 -0.0073250572429969909 -0.0055886760470457379 0.0041360915405675774 -0.0035891359371061507 0.0031087063793693824 -0.0072370850763311886 -0.0055281242055277673 0.0067060975057463487 0.0021630448980196832 -0.0034395600578957992 0.0034591431238368388 -4.2142905294895178e-05 0.0042408559194882399 -0.0011655859945511277 -0.0061451941728591919 -0.0028286274402372301 0.0032704894521063373 -0.00065112272425303392 -0.0064377380655177181 0.001205294783557615 -0.00056555578024462751 -0.0031301450878081305 0.002305364500110348
leaf_weight=64 1278 31 2981 676 28 33 97 32 32 32 65 31 33 31 31 31 31 32 32 32 33 32 31 31 63 31 31 1877 62 93
leaf_count=64 1278 31 2981 676 28 33 97 32 32 32 65 31 33 31 31 31 31 32 32 32 33 32 31 31 63 31 31 1877 62 93
internal_value=-1.73553e-11 -0.000231629 8.38138e-05 -0.000495623 0.00117251 -0.000542038 -0.000658103 -0.0043295 -0.000572692 -0.000668592 -0.000608797 -0.000667173 -0.00202141 -0.000497893 0.00212508 -0.000607824 -0.000165427 -0.00134907 -0.000586748 0.00140852 -0.00140102 -0.00309367 -0.000260701 0.000983138 -0.000538113 -0.00186594 -0.00287318 -0.000436877 -0.001685 0.0011114
internal_weight=7917 6611 3012 3599 1306 3535 2859 65 2794 2665 2633 2601 289 2312 93 2219 62 256 191 129 159 64 95 64 2188 155 124 2033 93 156
internal_count=7917 6611 3012 3599 1306 3535 2859 65 2794 2665 2633 2601 289 2312 93 2219 62 256 191 129 159 64 95 64 2188 155 124 2033 93 156
is_linear=0
shrinkage=0.1


Tree=34
num_leaves=31
num_cat=0
split_feature=0 0 0 0 0 0 0 0 0 0 0 0 0 0 0 0 0 0 0 0 0 0 0 0 0 0 0 0 0 0
